269 256
Mountain -0.43376368 -0.45179236 0.009468962 -0.39696258 -0.13119085 0.19283396 -0.021254785 -0.07693169 -0.0036279887 0.26618183 -0.1292764 0.03687317 -0.21679965 -0.07943179 0.063349135 -0.05500057 -0.09230959 0.20150685 -0.20417687 -0.19041896 0.07670005 -0.003106671 -0.03180831 -0.095665514 0.01996002 -0.026309494 -0.21989135 0.00360949 0.031373 0.20903257 0.014412452 0.037955247 0.009600576 0.021332849 -0.0047897976 0.052022368 0.03373573 0.16511735 0.11038918 -0.12872529 0.011616642 -0.042559594 -0.1752254 0.11008323 -0.057506587 -0.17798862 0.053994145 -0.033603687 0.24386449 0.05430489 -0.12300667 -0.066844024 0.17580624 -0.08755995 -0.13193703 0.0048190006 -0.0010577254 0.054806463 0.006927098 -0.12782456 -0.00076187344 -0.0739174 -0.1037877 0.0067609367 0.09271955 0.043849617 -0.13457096 0.0020187844 -0.016823547 -0.027336618 0.09848286 -0.15024638 -0.16588742 0.0714365 0.041411173 -0.059149314 0.112202086 -0.15015231 0.18471396 -0.06230721 0.07520169 0.11813933 -0.004655292 0.11318538 -0.030576779 0.010110151 0.08493545 -0.01595158 -0.041066397 0.06578829 0.1029583 -0.014644939 0.10998482 0.019933129 -0.011693805 0.042036366 -0.07513905 -0.0472253 -0.19974184 0.1360184 0.12075318 0.04588257 -0.004322462 -0.0008729631 -0.06173334 -0.07135886 -0.03440786 0.017901571 0.09495802 -0.022265485 -0.17069794 -0.02299107 -0.0022747272 0.024420831 -0.02299586 0.027229968 0.045686338 0.12517656 0.10740383 -0.11472386 -0.048147652 -0.13145865 0.015003414 -0.027860496 -0.048779745 0.080927886 -0.10640658 0.05540192 -0.0048829946 0.04108868 -0.09622179 0.039767656 -0.06586678 0.11036021 -0.028687622 0.012914601 0.075561754 0.015752636 -0.05492122 -0.096858546 -0.05724038 0.035148263 0.019763835 0.19019498 -0.08244594 0.00970092 0.11721206 -0.020407746 -0.0042106123 0.0938087 0.06886409 -0.03632856 0.10093878 0.078924365 0.042800188 -0.11036298 0.15614107 0.1181774 -0.021861067 -0.104739614 0.15506779 0.21486932 0.061631575 0.036677472 -0.087261096 -0.10847329 0.0958679 -0.07656849 -0.037894644 0.16911435 0.036646686 -0.020767028 -0.20040536 0.09047085 0.045157783 -0.2622444 -0.06393069 -0.17392248 -0.08526188 0.049889322 0.11921361 0.029268624 0.16070773 -0.12996359 -0.13043311 0.07265168 -0.029465524 0.021052424 -0.16579452 -0.04204153 0.0764482 -0.26111603 0.0474896 -0.015912723 -0.06905144 -0.11972197 -0.008783284 0.14157887 0.0055157626 0.075825974 0.03731041 -0.14173377 0.070405796 0.035174347 0.07882561 -0.03240601 0.011363182 -0.056573484 0.0026658343 -0.014608404 -0.024109622 -0.051611762 0.1316109 -0.007843909 0.034007296 0.15438464 0.09709782 -0.022248877 0.0664573 -0.043492474 -0.074031666 -0.009378823 -0.11522881 -0.056077823 -0.039963916 0.0025921133 -0.21269655 0.06606287 0.04970184 0.007843846 -0.03644983 0.06410973 0.1374935 0.2257512 -0.056909118 0.22188449 -0.03390997 0.0029228237 0.057962358 -0.08215002 -0.06194755 -0.012129708 -0.002175567 0.032753706 0.08907106 0.062897645 0.04438955 0.112664685 -0.086291686 0.073435806 0.24907844 -0.05101513 0.035332166 0.01834498 0.06738149 0.047918145
Plains -0.47916234 -0.34620714 -0.00072512357 0.035233475 -0.23025995 -0.05313771 -0.038387068 0.018432233 0.18367018 0.19970179 0.1407136 -0.025498064 -0.15213448 -0.025218835 -0.07972857 0.17694739 -0.056550257 0.15248498 -0.047090534 -0.056667972 0.14422806 -0.011684068 -0.08118701 -0.060833964 0.015544111 -0.17672043 -0.10639409 -0.25706843 -0.035825104 0.021367598 0.020412335 0.10729301 -0.00939316 -0.06572834 -0.1890751 -0.05489099 0.051750693 0.088805065 0.14544678 -0.05049893 -0.052034214 -0.11865453 -0.08938562 -0.047895327 -0.02657422 -0.042229805 -0.018826686 0.0072798687 0.054886967 -0.07358065 -0.037811246 0.01763003 0.05986382 -0.05688646 0.1083396 0.16054368 0.066036984 0.002236097 0.079812184 -0.049932353 0.02544731 -0.14600067 0.034277353 0.043005604 0.027212013 0.055475462 -0.18978725 -0.1216557 0.07588201 -0.09443412 0.06809009 -0.027380059 0.0007888701 0.09831418 0.00035179988 -0.16710746 0.1427937 0.016490396 0.027001312 -0.0035950877 -0.0690185 0.06863582 0.0018509157 -0.10171338 -0.0591256 -0.05346754 -0.016667254 -0.12886259 0.14810671 -0.09307516 0.044664916 -0.010809497 -0.039523445 0.11129242 -0.025362443 0.09814189 0.107896835 -0.08711103 -0.14343399 0.077481724 -0.06450262 -0.09246771 -0.026196128 0.033373687 0.12871808 -0.07370912 -0.0039274064 0.019117458 0.12155784 -0.038864393 0.03677812 0.099625096 -0.05779001 0.017015846 0.02143891 0.045196105 0.114181355 0.027858006 0.006723731 -0.047783908 0.033855848 0.02321069 0.060058236 -0.1770761 0.005423647 0.057467513 -0.07493487 -0.019720096 -0.19465312 -0.054316144 0.04709581 0.11560186 -0.034682035 -0.07280341 0.0071756155 0.020960711 0.06601936 -0.018394927 -0.1648161 0.036663137 0.011299164 0.15104294 0.047284998 0.049653515 -0.07513596 0.07625896 -0.08720956 -0.06966915 -0.07176736 0.032665696 0.10803149 0.0018711265 -0.042849045 0.04798595 0.08099597 0.094172694 0.0076366565 0.018971479 -0.025555693 -0.015712693 0.02842787 0.051244672 0.048701596 -0.1083943 -0.027596677 -0.014247279 0.054677907 -0.03200639 -0.08897655 0.16695957 0.12561695 -0.09585863 -0.122871906 0.048464242 -0.08933514 -0.09766264 0.1012462 -0.17097749 0.028475948 0.022642069 0.0933012 -0.118584424 -0.13520682 -0.01056322 -0.05973013 -0.023182647 0.023069732 0.09066659 -0.081650674 -0.096657746 -0.05265843 0.006832403 0.12044668 -0.060473207 -0.06129587 0.05392551 -0.09647647 0.09018268 -0.02836634 0.049643807 -0.08955418 -0.0630547 0.04445099 -0.04882796 -0.121353135 -0.12223776 -0.04214531 -0.11521208 -0.052204564 -0.032861523 0.018502563 0.0654988 -0.009994613 -0.026877182 -0.13455841 -0.014675511 0.12105615 -0.111869216 0.03300126 0.11145382 0.06540665 0.019349419 -0.013250525 0.028122805 -0.110989176 0.08790672 -0.18261208 0.24059777 0.09110778 -0.09557505 -0.20996758 0.026109094 -0.10815432 -0.0014663733 -0.13237874 -0.048950635 -0.05596759 0.0031088612 0.022655958 0.061601114 -0.022651874 0.06389857 -0.050466858 0.025669955 -0.11758978 0.0929933 -0.059476577 0.16085146 0.047174595 0.12741372 0.15092231 0.0009317452 -0.0294568 0.02267998 -0.077877425 -0.19260722
Forest -0.38391006 -0.41054636 -0.046906166 -0.011480222 0.057340562 0.20105803 0.12347805 0.018185204 0.17065674 0.124586664 0.092858925 0.10140854 -0.25710803 -0.06341971 0.14057235 0.03947714 -0.03788514 0.15579963 -0.060951166 -0.28388062 0.048729677 -0.075857304 -0.11729816 -0.11136898 0.020235008 0.0024706756 -0.06027061 -0.0009840429 0.04054185 0.04011697 -0.05493155 0.034875978 -0.15003337 0.007662779 -0.11787496 -0.0644587 -0.033629682 0.08942643 0.0117578115 -0.15148649 0.046053603 -0.053306684 -0.12394942 0.11661533 0.00039823158 -0.03664074 0.0055215 -0.15121548 0.18259706 -0.04024786 -0.09655881 -0.09597787 0.07738223 0.07597671 0.019050332 0.013196973 0.092395574 -0.06249937 0.078497715 -0.045257077 0.033454645 -0.042507716 0.046482384 -0.0361434 0.0076745013 0.021617224 -0.02161038 -0.11736522 0.02195126 -0.18261333 0.038615625 -0.04904236 -0.13111176 0.056483474 0.090285204 -0.0014709809 0.058616277 -0.06710753 0.043728057 -0.03288505 0.117842175 0.047746006 0.1720997 0.02855192 -0.006409924 0.0018233038 -0.13813142 0.05348152 0.10190816 -0.1347317 -0.021028386 -0.1316135 0.040067993 -0.05087077 0.08058931 -0.016410975 -0.07697252 -0.05638578 -0.19175068 -0.033761878 0.03134864 0.021928936 -0.001970889 -0.046407472 -0.040155947 -0.08607214 0.008199655 -0.25186014 -0.07487282 0.069463395 -0.19769718 -0.0615183 0.11547663 0.013276347 -0.08755686 0.06908903 -0.07294347 0.020640973 -0.034820084 -0.06817756 -0.11588813 -0.11925883 -0.04101619 0.0008489878 -0.120518684 0.1589237 -0.052566152 -0.14646284 0.055176582 0.110731974 -0.068436615 0.03324918 -0.03189987 0.04877046 -0.028282393 -0.034497146 0.18287145 -0.13235195 0.12811665 -0.07265686 -0.05229401 -0.027148811 -0.106283545 0.1644959 0.06302602 0.24512832 -0.03396827 0.09003858 -0.076398626 0.087162495 -0.09372483 -0.09116335 0.05251558 -0.026112568 0.06326955 -0.15527348 0.07904733 -0.008687805 -0.1279708 0.04789377 0.075457394 0.12778184 0.1938993 0.13142598 0.027778307 0.011837297 0.06938772 -0.15881267 0.094048604 0.004444867 -0.04941174 -0.00022347496 -0.024305468 0.03809942 -0.008320534 -0.14861509 0.10619776 -0.031673428 0.037019618 -0.05384696 0.0035905333 -0.0055518677 0.028412335 -0.121695355 -0.10361216 0.07328436 -0.03784155 0.089880735 -0.031993173 0.21118817 -0.032163322 -0.049688652 -0.13327426 0.07074042 0.021918388 -0.14081532 0.0019144277 0.13459525 -0.064762965 0.0523368 0.100370035 -0.158741 0.083678804 0.0040400657 0.18118861 -0.0605422 0.013508531 -0.017890729 -0.00037152012 -0.06493196 -0.025426485 0.0789407 0.062348012 -0.020878822 -0.057160467 0.10202658 0.19555156 -0.05957128 0.08231469 0.005609413 0.068235636 0.036096893 -0.059986413 -0.031792168 -0.104233325 -0.12303618 -0.13104188 0.09606433 0.08382624 -0.08267816 -0.007982429 -0.12241044 0.08488934 0.11697661 -0.10829463 0.07724557 0.047925007 0.13381025 0.081713974 -0.07863171 0.05478665 -0.16268164 0.025814394 -0.08362449 0.2512991 0.11712969 -0.005046323 0.09825391 -0.17995393 0.132794 0.12467341 0.021569716 -0.031863637 0.20353146 0.020716142 0.033847935
Swamp -0.2874951 -0.3939563 0.015059096 0.17642477 0.17871086 -0.016306864 0.08054045 0.105926394 0.06810301 0.0995227 0.31044495 0.147188 0.01803687 0.117743894 -0.040130705 0.032095127 -0.019278167 0.17082305 0.04089427 -0.09437535 0.046490178 0.023944115 -0.021794802 -0.02991531 -0.098303415 -0.1843356 0.077708654 -0.06666005 0.060518324 0.1475813 -0.020125296 -0.10237028 -0.0356114 0.08162912 -0.063212804 0.01984376 -0.0012063907 -0.007813574 0.08505829 0.0015933869 -0.038989007 -0.036630083 -0.05085795 0.009815132 -0.101840384 -0.09306275 -0.052345276 0.006840232 -0.028791185 -0.12616609 -0.07721483 0.029160608 -0.0282365 -0.037303664 0.08771623 -0.014039488 0.02382842 -0.006124436 0.15204673 -0.0023702797 0.06426641 -0.060135838 -0.12817131 0.08304517 0.037230913 0.04117937 -0.015879668 -0.22004212 -0.07005082 -0.13138217 0.09515538 -0.10212551 -0.024795588 -0.047961224 0.035172295 -0.010513842 0.050880983 -0.053990435 0.012301651 0.091486864 0.031127097 0.11096298 0.060329664 0.011327343 -0.040559497 0.027067259 -0.03862417 0.076659575 0.054049682 0.028689528 -0.10570567 0.009027938 0.15455113 0.04219475 0.21008006 -0.030650046 -0.0016543667 -0.040412568 -0.0056192614 0.1477556 0.0052254065 0.1299946 -0.035544902 -0.06459425 -0.04368687 -0.084945776 -0.03350869 0.08252556 -0.0057669673 -0.013736866 0.05845391 0.06516328 0.101163425 0.030746376 -0.08252407 -0.12272424 0.06699117 0.017077599 0.07512239 -0.12547223 0.04800275 0.02426755 0.015687205 -0.09747475 -0.040375624 0.15051419 -0.11056677 -0.04744874 -0.13766406 -0.07552868 -0.08013148 0.08769098 -0.041427754 -0.08689821 0.10079547 -0.019762335 0.15617864 -0.13087289 0.1284876 0.1533161 0.022936415 0.05720488 0.009901345 0.113310546 0.23144113 0.10199146 0.114276215 0.06434577 -0.063775696 -0.044389203 -0.11994986 -0.20105839 -0.013957315 -0.09538044 0.054472066 -0.0082745785 -0.11295767 -0.069018945 -0.17660923 -0.06149976 0.15066136 0.06742022 0.028083524 0.07493374 -0.0066110925 0.039310534 0.08429323 0.019488338 0.017744265 0.049204145 -0.23297878 -0.0799696 0.108034074 0.027875362 -0.020156398 -0.12642719 0.01777777 -0.0642993 -0.018825332 0.14669468 -0.07529078 0.04133277 -0.032906927 0.01208883 0.0026311032 0.0067860847 0.0054405136 0.05578644 -0.17519324 0.061523367 -0.026462095 0.05773586 0.005272775 -0.061136402 0.032209814 0.0038716744 -0.030758023 -0.0069812527 -0.0034801376 0.11406014 -0.047425393 -0.0003664235 0.1172713 0.05343321 0.008943198 -0.038126245 -0.07778512 -0.058493014 -0.045752313 -0.015573452 -0.040576573 0.017285433 0.020376515 0.032142635 -0.05443834 0.002294035 0.060473107 -0.15360793 -0.040561836 -0.0032537968 0.16766489 -0.013104753 -0.04047605 0.022008428 -0.042628825 0.094141625 -0.076948 0.022086399 -0.020608025 0.047901765 -0.08189421 -0.19573432 -0.08170567 -0.08279274 -0.08548583 -0.00571678 0.074615955 -0.132344 -0.054305073 -0.017695762 -0.00766757 -0.060908217 -0.048705667 -0.027375033 -0.05097683 -0.08308222 -0.010884799 -0.0348207 0.07535508 -0.041190695 -0.060461298 -0.022965198 -0.0040366296 -0.052207526 0.0037767724 -0.05289077
Island -0.39483416 -0.40521592 -0.06323584 0.24910368 -0.06098112 0.0027498219 -0.043329626 -0.048549145 0.051952787 0.16733922 0.20850056 0.06604878 -0.25546023 0.058107983 -0.08088226 -0.012991365 -0.1031101 0.20503661 -0.027900726 0.045678485 0.030508354 0.13290168 0.06210704 0.038383666 -0.043017536 -0.00076206273 -0.13621622 -0.05159187 0.049748916 0.09000837 -0.17141584 0.08502347 0.10209085 -0.00033036494 0.071060754 -0.008649537 -0.009108553 0.11685075 0.11974612 0.064667724 0.04259094 0.006077085 -0.19595446 0.005443224 -0.053241264 -0.18536764 0.06364709 0.040942732 0.12827802 0.024107777 -0.0985838 0.06755571 0.050070167 -0.09692785 0.025889473 -0.11823514 -0.013935562 0.18235315 0.05926247 -0.016238509 0.004867658 0.022320455 0.0074481172 0.16903558 0.028199388 -0.049957007 -0.11364164 0.019143162 0.064746425 -0.048129246 -0.0012558809 -0.1515452 -0.09048402 -0.057766993 0.031913813 0.0115216905 -0.06318973 -0.23239659 0.059575833 0.010533694 0.012293955 0.039487947 -0.10812803 0.0702355 0.07248823 0.055876676 0.2772328 0.15092787 0.061758477 0.032927733 0.026770439 0.17041096 0.23479874 0.006099027 -0.06985078 0.06754749 -0.1749518 -0.12221242 0.06358367 0.026716385 0.08585454 0.16922542 0.056206364 0.044234566 -0.017441925 -0.13385491 -0.078632765 -0.06503271 -0.11818104 0.08428062 0.014613683 0.028123934 0.072994284 -0.17520523 0.009506608 0.05995465 0.1647245 -0.051091876 0.03574816 -0.030735537 0.053749457 0.05089118 0.04555545 -0.022931365 0.103909925 0.098313086 -0.03277947 -0.06689096 -0.112939306 0.03326528 0.08934214 0.00077196414 -0.04851767 -0.1320499 0.107977524 -0.08105793 0.13136716 -0.0017470672 0.10132059 0.026983175 -0.055825904 -0.01467498 0.041665137 0.028202487 0.01880845 -0.1943219 0.08850587 -0.10502166 0.02385908 -0.015378991 -0.07203097 -0.10931224 -0.029851187 0.030987946 0.033538077 -0.060460918 0.082741976 0.050190553 -0.123898916 -0.014001653 0.15338701 0.10570225 0.100659125 0.08570307 0.22680381 0.050865613 -0.05068696 0.07956214 0.036183536 -0.045322783 0.14481719 -0.0038974818 -0.18420866 0.014940473 0.061285175 -0.14051768 0.0037665444 0.008295986 -0.072696105 -0.060846046 0.124415055 0.023930304 0.08033924 -0.0076188142 -0.041052278 -0.087078534 -0.03249302 -0.11392274 -0.18683508 -0.043506786 0.14457904 0.056752782 0.04930167 0.029444776 -0.20843461 0.1006916 -0.050994806 0.049431216 0.021869011 0.082585156 -0.26335126 -0.087445565 0.012173887 -0.00058062817 -0.017483277 0.11278875 0.044922207 0.030626945 -0.12543723 0.04536128 -0.049106188 -0.029049024 0.22171158 0.11546462 -0.13063653 0.17258693 0.009254215 0.09376994 0.06540056 -0.16635321 -0.035245836 -0.14882737 0.068277694 -0.09642951 0.00804934 0.137356 -0.21545869 0.114851 0.0675142 0.07033982 -0.063878655 0.059535637 -0.037988532 -0.012892528 -0.044959906 -0.02156219 -0.0034374273 0.014821112 -0.030007767 0.010587839 0.04699505 -0.035260517 0.06689572 -0.056199018 -0.027685363 -0.066851124 0.047016207 0.005078051 0.091001615 0.042585794 0.041485492 0.09638948 0.017977554 -0.05922594 0.14688794 0.18707147
Hexgold Slash -0.3577262 -0.42757455 0.089503415 -0.4628101 -0.12201146 0.1389275 0.0026272477 -0.03732488 0.0063207345 0.28974888 -0.1844363 0.08420623 -0.24810657 -0.06445233 0.07935266 -0.045173585 -0.13186173 0.21324384 -0.1469939 -0.13390307 0.021369476 0.07157021 -0.024939649 -0.020544449 -0.011511082 -0.060154054 -0.21534468 -0.020918328 0.09200535 0.15227468 -0.06886391 0.080284014 -0.028737357 0.0039874427 0.031059893 0.05069996 -0.016765513 0.17680384 0.06509336 -0.053638134 -0.004624575 0.014488033 -0.21026985 0.12503007 -0.092931375 -0.20191813 0.087500446 -0.061409477 0.21469562 -0.0058053797 -0.14180283 -0.07821952 0.18566045 -0.1231261 -0.08537348 0.008404048 0.05044473 0.076758415 0.069958195 -0.09976353 0.0145486165 -0.017986251 -0.19653922 0.09718782 0.09336616 0.017250216 -0.10937683 0.03729438 -0.023237806 -0.04391672 0.07500347 -0.12065246 -0.16674225 0.08260317 0.070988245 -0.12989157 0.10720769 -0.15006913 0.13516062 -0.028221946 0.06018093 0.1876016 -0.080310605 0.13655803 -0.024084767 -0.016780213 0.06805596 -0.028996598 -0.041114457 0.08488699 0.12328076 -0.0072173574 0.068815224 0.06763829 -0.023054194 0.026050908 -0.042631406 -0.029231466 -0.16524051 0.13387287 0.11792316 0.05127474 -0.039474957 0.033850152 -0.027083607 -0.06765562 -0.045506675 -0.0046053133 0.091917284 0.017644405 -0.20741747 -0.004286073 -0.0028853677 0.033965338 -0.010284598 0.10295083 0.058121804 0.116575286 0.07620927 -0.11003774 -0.05601222 -0.1309029 0.05812448 -0.083989434 -0.039571878 0.013988589 -0.10912149 -0.004160936 0.030009251 0.06445931 -0.18143277 0.04855996 -0.05992596 0.054082654 -0.024236111 0.0041933893 0.06136854 -0.021093601 -0.06399108 -0.085091636 -0.021892315 0.07198114 0.044242717 0.15782678 -0.10927197 0.024435284 0.11733262 -0.013501153 -0.017178524 0.064168565 0.041386176 -0.027139978 0.12875652 0.08888891 0.07847878 -0.16735438 0.15353577 0.03926971 -0.018977145 -0.13207695 0.18181603 0.23063241 0.05397883 0.013777629 -0.107573085 -0.030410562 0.07335072 -0.06383226 0.0025691045 0.17685509 0.08289253 -0.033940557 -0.2742574 0.16219297 0.027804326 -0.17482635 -0.010386567 -0.13417466 -0.080363095 0.11972183 0.10026031 0.024356673 0.16337514 -0.11313184 -0.12482245 -0.029776493 -0.014549337 0.00974674 -0.15611526 0.011914321 0.15758535 -0.2666259 -0.024825247 0.021832062 -0.062037107 -0.13201495 -0.017124515 0.16978566 -0.00935189 0.11594058 0.08316112 -0.22208403 0.0832041 0.08156399 0.06492569 -0.079587035 -0.04740868 -0.11753534 0.044369336 -0.06895896 0.044500016 -0.06410015 0.1365406 0.00904649 -0.02398496 0.10655506 0.16825983 -0.03666296 0.031683225 -0.019414317 -0.066431165 0.019575961 -0.10478232 -0.094466045 0.023341097 -0.008398348 -0.19517803 0.040326048 0.0299472 -0.029120488 -0.02662774 0.010194935 0.15566072 0.18434422 -0.0036974899 0.1986641 -0.08232174 -0.024291826 0.016591286 -0.059527785 -0.086942755 -0.054524075 -0.018012248 0.041088406 0.07045006 0.017962834 0.10011994 0.08954549 -0.051413998 0.08507259 0.17065057 -0.032452766 0.026383748 0.045953277 0.17787823 0.077577904
Barbed Batterfist -0.41784114 -0.42946255 -0.007833578 -0.6527306 -0.17601833 0.15861611 -0.05612318 0.06096397 0.117650695 0.3359916 -0.24599265 0.008899395 -0.16773006 -0.13976833 0.00396131 -0.050994135 -0.08005412 0.27362934 -0.25899598 -0.1102071 0.12326889 0.020814905 -0.029627977 0.017925305 0.06028821 -0.060561914 -0.2738572 -0.076829 -0.018251559 0.19557697 0.025642382 0.060589068 0.009304386 0.008824231 -0.055441044 -0.046195623 0.0018619432 0.14050144 0.18574621 -0.061342884 -0.008842475 -0.03058489 -0.18409048 0.11255826 -0.057894222 -0.17504723 0.048675053 -0.021750059 0.2658479 0.075609244 -0.025683716 -0.10125301 0.24162996 -0.117747344 -0.010937615 0.06432264 -0.036989212 -0.023078008 0.0016576404 -0.19543678 0.027277434 -0.05581952 -0.17670684 0.10189641 0.116395496 0.0797357 -0.1279697 0.07271825 -0.032971404 -0.052819066 0.08541095 -0.1556842 -0.20051426 0.0050789346 0.0036078526 -0.099199 0.12657367 -0.11634998 0.13557526 -0.061431076 0.1303128 0.086234756 -0.11544601 0.104807824 -0.07318221 0.062187638 0.013986466 -0.00657008 -0.1167854 0.117062226 0.20425153 -0.053496473 0.07725698 0.14460473 -0.014900908 -0.00027250385 -0.103823006 0.008196885 -0.15592867 0.14502177 0.060453203 0.048012268 -0.03307242 -0.02958497 -0.00045178522 -0.024672965 0.001377447 0.006422054 0.09101765 -0.047130186 -0.15880442 0.043073725 -0.050248466 0.015569271 -0.04723665 0.07171427 0.06000243 0.20213066 0.18904537 -0.10689609 -0.048724122 -0.16357596 0.03722675 0.015486653 -0.07000946 0.046418086 -0.117461085 0.019773277 -0.02527701 0.11121527 -0.11480954 0.10042522 -0.11447996 0.035123616 0.023241822 0.11962568 0.082370676 0.017391583 -0.033727143 -0.03246347 -0.05635774 0.1323126 0.054136794 0.2463426 -0.23717225 -0.031756766 0.14303598 -0.018996391 -0.03535617 0.004158139 0.10291739 -0.041189313 0.046405777 0.08293064 0.03066802 -0.06995521 0.20718312 0.043536626 0.07777438 -0.043013077 0.1813079 0.19696903 0.06319886 -0.09484093 -0.04787885 0.008535139 0.0969386 -0.03572429 0.033241514 0.16396807 0.05466958 0.021711024 -0.32802737 0.22797829 -0.028143603 -0.09710126 -0.04655325 -0.25182363 -0.028266484 0.05210112 0.045456264 0.027889097 0.12313394 -0.12520464 -0.09995859 -0.0069399914 -0.09177451 -0.0073948 -0.24657165 -0.072005026 0.10609947 -0.31715506 -0.012771941 -0.08164893 -0.084867105 -0.11063533 -0.0996273 0.20697463 0.0016826248 0.109403 0.0065166964 -0.20406896 0.14392598 0.09783865 0.0453164 -0.017582156 -0.056314796 -0.17187513 0.07870507 -0.04649801 -0.051161736 -0.070663355 0.044797268 -0.045119934 -0.050935585 0.14110328 0.10487492 -0.11187854 0.02816048 -0.07816265 -0.12926812 -0.015446086 -0.14114508 -0.08864439 -0.005158851 0.036325745 -0.25570285 0.18808238 -0.018606992 0.09386693 -0.077850655 0.086082846 0.11404684 0.19373547 -0.12899077 0.24487092 -0.049124092 0.008932907 0.0554288 -0.057037648 -0.19933559 0.007435759 0.020698229 0.028124249 0.051811166 0.03929285 -0.00021628266 0.14308876 -0.13121168 0.10058944 0.20588216 -0.03539292 -0.035408884 0.008732518 0.11926211 -0.041573998
Volt Charge -0.3956994 -0.40376383 0.058563706 -0.4280881 -0.03715246 0.1782449 0.056228124 -0.05748804 -0.03808406 0.28226638 -0.14525564 0.04507986 -0.3526065 -0.09120846 0.09792204 -0.007628554 -0.11854168 0.16469666 -0.14554907 -0.13724025 -0.010740187 0.1054697 -0.08614914 -0.043267645 0.04379431 -0.063378 -0.14786883 0.002233445 0.117778525 0.1345749 -0.02511182 0.13829234 0.027169446 -0.0011109166 0.031209463 0.070475966 -0.0115989875 0.1701092 0.07887552 -0.09834535 -0.023218121 -0.025021102 -0.21796037 0.039915755 -0.08534857 -0.21399456 -0.019979864 -0.088930584 0.18956359 0.047590002 -0.18599139 -0.07257135 0.13871051 -0.10646071 -0.10770087 -0.030135442 -0.0027782384 0.09204979 0.05824147 -0.09739374 0.009786622 -0.031963404 -0.14829606 0.07635157 0.110424854 -0.04138484 -0.10351109 0.055260945 0.0065658074 -0.046788946 0.06100528 -0.0768844 -0.17988658 0.08020764 0.07855626 -0.1094077 0.10717898 -0.13921751 0.17881301 -0.010174644 0.07104076 0.063526094 -0.056075707 0.12216902 -0.02287031 -0.015598401 0.06335326 0.02759064 -0.07988955 0.018790342 0.12503819 0.029245632 0.18101469 0.065352984 -0.0073358133 0.061119944 -0.14200209 -0.063802324 -0.1151236 0.11820045 0.109416775 0.08999287 -0.06150071 0.050946496 -0.024108022 -0.05317868 -0.05144003 -0.018611962 0.04711805 -0.009925767 -0.16611442 -0.058944784 0.01976635 0.014203285 0.066595174 0.043276086 0.031218471 0.04669531 0.02459349 -0.02570051 -0.08587268 -0.04079172 0.06792561 -0.106367655 -0.058147892 0.039678156 -0.09174307 0.0005655677 0.03134234 -0.046412963 -0.16647074 0.018907046 -0.031543486 0.09144512 0.03794996 0.011189242 0.061997455 0.031822264 -0.030403566 -0.036304303 -5.9107453e-05 0.047117587 0.13896924 0.21178551 -0.048313137 0.06445391 0.093664415 0.0037382934 0.009928428 0.096633315 0.013116403 -0.074162275 0.11505125 0.07406279 0.06349761 -0.13077612 0.12441767 0.0587135 0.019274088 -0.09672605 0.1274042 0.21295413 -0.013466041 0.07353042 -0.08870585 -0.015140777 0.059602123 -0.120634496 -0.049196836 0.14549424 0.06186357 0.003006896 -0.23792309 0.11742665 0.10466972 -0.16662505 -0.05168383 -0.0954798 -0.09470083 0.12446325 0.10218842 0.065353595 0.20273276 -0.15347268 -0.15475291 0.004598546 0.027014676 0.029722253 -0.12567063 -0.05406488 0.08182423 -0.22415763 -0.04805082 0.024735704 0.048954096 -0.10784869 0.02581405 0.1967357 -0.07553784 0.12027701 0.037743304 -0.28253275 0.06250704 0.025907386 0.024183696 -0.06423831 0.004151716 -0.19368945 0.036966648 -0.08210027 -0.018589765 -0.053857867 0.16111837 0.0121949315 0.0024773981 0.1656368 0.11442373 -0.0060921414 0.022146344 0.007022436 0.010594175 0.046633672 -0.05734864 -0.08408277 -0.060874797 0.07153698 -0.19774945 0.041984722 0.027463682 -0.02778194 -0.051300682 0.057395358 0.08826075 0.17213266 -0.059596792 0.1611949 -0.025107233 0.01132175 -0.059241224 -0.1011249 -0.09495338 0.011694818 0.02305984 0.024063826 0.13766265 0.01973262 0.07208236 0.06141635 -0.035604674 0.105511405 0.18622537 -0.044736587 0.07236199 0.013889428 0.15015864 0.079428025
Axiom Engraver -0.4420399 -0.4563445 0.019228086 -0.54563516 -0.10708295 0.115042925 -0.024534358 -0.03098926 -0.059678957 0.24363224 -0.24453379 0.05845031 -0.26192793 -0.13417307 0.10871571 -0.13365968 -0.022679329 0.21990862 -0.16718927 -0.2719706 0.04331928 -0.009491576 -0.013868752 0.025131674 0.08868367 -0.008522669 -0.2397827 -0.023899874 -0.029530622 0.25096753 -0.061880726 -0.06519171 -0.027868608 0.034025904 -0.045482095 -0.013784129 0.018946871 0.23962015 0.11112031 -0.12662861 0.05940578 0.012734418 -0.17952849 0.18430491 -0.031002894 -0.19058771 0.137269 -0.07755959 0.328871 0.08626083 -0.077323034 -0.11956532 0.41052055 -0.097051896 -0.08060537 -0.059564576 -0.029581444 0.0637294 0.047110032 -0.20953733 0.06324559 0.033177093 -0.19607645 0.10605365 0.05882208 0.17275 -0.12702431 -0.04446836 -0.10580035 -0.09624772 0.16136312 -0.19402853 -0.20655467 -0.019756055 -0.00017208802 -0.031762853 0.07181251 -0.08593281 0.15354098 0.0042969733 0.11516588 0.11112995 -0.062177185 0.073476665 -0.03056369 0.0032185998 -0.019366452 -0.019130154 -0.043591816 0.17531958 0.06040414 0.004615485 0.1127542 0.13319933 0.0935073 -0.02932958 -0.0271634 0.0575383 -0.246466 0.005168267 0.12695396 0.12762153 -0.0045485473 0.011239351 0.004412405 -0.07882988 -0.07138045 -0.080896996 0.0808261 0.06894121 -0.14855838 0.03767393 0.00032383951 0.049275875 -0.012705365 0.033445854 -0.0025320065 0.19866168 0.13225828 -0.028150031 -0.037033495 -0.06395808 0.0830178 0.097240865 -0.08780476 0.13565032 -0.022689167 -0.021493642 0.100953475 0.019593557 -0.08484514 0.075774595 -0.15589182 0.090364784 0.0032808522 0.063495494 0.032376844 -0.00025447703 0.06752931 -0.12876582 0.002491774 0.054102153 0.08984982 0.25762665 -0.049753416 0.099603996 0.16255645 -0.08436109 -0.022043798 0.056176998 0.06679831 -0.037199154 0.10133362 0.1869728 -0.05188973 -0.14386682 0.29179433 0.013407595 -0.084673464 -0.00061299687 0.21850687 0.19821616 0.016523788 0.032152582 -0.07946509 0.013137627 0.081017114 -0.07438557 0.056681022 0.123167895 0.06356993 -0.032738704 -0.26402348 0.17942432 0.021887604 -0.16805807 -0.05179513 -0.17160319 -0.0015416406 0.01706594 0.10154592 0.008320554 0.16112725 -0.09451755 -0.14325254 0.02603624 0.010597804 0.06275974 -0.16883288 -0.0024036271 0.024287006 -0.35502976 0.0004625662 0.02412005 -0.12321995 -0.16726914 -0.031890273 0.06785164 0.030006297 0.08731431 0.059516303 -0.2716036 0.08344144 0.027887737 -0.020092357 -0.02035135 0.016641092 -0.07395932 0.036464203 -0.15972173 -0.031308524 -0.08627749 0.13187002 -0.020405617 0.010282072 0.13851501 0.06318408 -0.020285727 -0.036512453 0.02580245 -0.052038245 0.026115242 -0.023772838 -0.008085547 -0.014771077 0.013171575 -0.2072697 0.15523143 0.04104086 0.033328336 -0.03855833 -0.010088526 0.17946741 0.12970117 0.041173268 0.29335168 0.02658217 0.04841847 0.027083578 -0.11811979 -0.14765131 -0.02801783 0.05613275 0.03504021 0.15581141 0.03246905 -0.023940865 0.16956267 -0.23624389 0.049903482 0.19755735 0.059111435 -0.006533949 0.08352635 0.13051139 0.10801733
Contagious Vorrac -0.3376854 -0.42202666 -0.04609826 -0.09178224 0.0026836048 0.16968805 0.147948 -0.009314557 0.16777071 0.13384071 0.08344081 0.035867553 -0.3125412 -0.08829273 0.24926768 0.08770698 0.004696292 0.11074517 -0.081665955 -0.31686753 0.020892195 -0.040286507 -0.068217695 -0.08624773 0.08595267 0.02368165 -0.021557061 -0.04045246 0.07100034 -0.0063434006 -0.052450377 -0.08283582 -0.10130189 0.050341867 -0.1262258 -0.0253649 -0.14366981 0.1336205 0.028106105 -0.15211503 0.014308575 -0.03088361 -0.12897459 0.116562344 -0.0856981 -0.027046101 0.008306452 -0.19775116 0.078378744 0.026851786 -0.01182341 -0.11581039 0.041118685 0.10047613 0.028786061 -0.030461323 0.07496969 -0.1160156 0.107154556 -0.10117344 0.07893549 -0.08228115 0.025769403 -0.018817112 -0.048687622 -0.025767947 0.016905552 -0.2166065 0.073570356 -0.26707745 0.09373835 -0.098267786 -0.1428626 0.07693442 0.11033513 0.008572021 0.10163964 -0.09652773 -0.0025971832 0.04259065 0.09175046 0.0041950885 0.18464579 0.037049778 0.001359017 0.0373146 -0.09977636 0.061277974 0.08562641 -0.1303566 0.013626111 -0.18425204 0.041288704 -0.0062461765 0.049091697 -0.04883881 -0.08931457 -0.050237704 -0.20467198 0.043535948 0.033467926 0.08292057 -0.06976561 -0.09011311 0.014061569 -0.05042956 0.07549556 -0.26100144 -0.01821702 0.075984575 -0.15871528 -0.10335908 0.075004235 0.00042867687 -0.08164126 0.03852382 -0.14276896 0.026045106 0.06399633 -0.05681963 -0.113873735 -0.15957195 0.05537968 0.04808538 -0.12723291 0.1640741 -0.047286455 -0.13380718 0.09501442 0.0660753 -0.07997901 0.04745005 0.013194175 0.0802316 0.002751211 0.004906637 0.08350855 -0.10915468 0.08192559 -0.056115557 -0.06753738 -0.0641022 -0.00851885 0.16332744 0.12617564 0.21819863 0.026202958 0.020836538 -0.070766866 0.070630535 -0.07076251 -0.1200188 0.057373386 0.020114949 0.08819274 -0.22445405 0.13784714 0.062364906 -0.21187466 0.06446891 -0.007683495 0.11559753 0.17456429 0.07375192 0.023359409 0.00904524 0.0833048 -0.1269361 0.10540264 0.028417256 -0.010549975 0.0519363 0.06633205 0.031282306 0.0057514273 -0.125424 0.101695664 -0.007889137 0.09552493 -0.091324985 0.060604837 0.079556584 0.04917308 -0.1277947 -0.20588897 0.037964642 -0.004406784 0.05263896 -0.027555188 0.17213224 -0.014517925 -0.15864368 -0.15187806 0.044887654 0.032600112 -0.13939373 0.04717231 0.1510243 -0.08360307 0.027413651 0.08475646 -0.211061 0.17988259 0.034239534 0.12950008 -0.001599213 0.011484513 0.017966995 0.060198173 -0.11490102 -0.03622835 0.116204366 0.11477806 0.019073706 -0.05741389 0.11778608 0.19505908 -0.04069712 0.11395501 0.115820825 0.07985295 0.016574178 -0.0025289005 -0.022671947 -0.091464 -0.14879194 -0.112825856 0.06700921 0.07671253 -0.009192233 -0.07292201 -0.040080123 0.069849245 0.08946262 -0.056033105 0.10544759 0.07736329 0.11476691 0.011140673 -0.058896698 0.05155999 -0.09208162 -0.0054721637 -0.08650337 0.16997728 0.046483096 0.035881285 0.09188011 -0.27247086 0.15342663 0.064474694 0.13980475 -0.06573331 0.19393912 0.063223556 0.05062714
Chimney Rabble -0.39497888 -0.47897413 0.05830806 -0.6480706 -0.16328605 0.052261684 -0.017859964 -0.063815966 -0.0650418 0.22862424 -0.16128175 -0.06300613 -0.19393097 -0.1150017 0.05499378 -0.16593324 -0.06703972 0.16943018 -0.23006432 -0.18148422 0.14813592 -0.08639686 -0.09989496 -0.07139159 0.084655814 -0.060529344 -0.17626531 -0.033851404 -0.013418317 0.086879574 -0.0052647046 0.074416436 -0.028894566 0.03985886 -0.052915607 -0.07885876 -0.047556162 0.24761614 0.18076569 -0.1734883 0.086013876 -0.09108747 -0.13191542 0.16408205 -0.15045506 -0.21871383 0.06475687 0.0044901976 0.23793486 -0.040605716 -0.09389064 -0.14789833 0.18995368 0.0074452898 -0.10579347 0.083402485 0.06963185 -0.058490727 0.12826017 -0.088771865 -0.042959582 -0.051128197 -0.19628926 0.050164256 0.16494009 0.082930684 -0.13122272 -0.06395587 0.02550791 -0.1792426 0.19744618 -0.17969987 -0.21240744 0.064407945 -0.027684761 -0.110775925 0.12168636 -0.11988632 0.17182979 0.017919255 0.12158776 0.12816432 -0.07817999 0.05531636 -0.07767015 0.048548304 -0.05237404 0.036768626 -0.05144285 0.21335018 0.058506567 0.039446205 0.006432653 0.028747238 0.08247736 -0.06666673 -0.07674081 -0.005427069 -0.2902374 0.17527084 0.08631567 0.06471184 0.01565164 -0.15760177 -0.025363665 -0.16810815 -0.042690113 -0.07977884 0.12802395 0.03835384 -0.1353301 -0.010448514 -0.033936564 0.102158494 -0.0046876087 0.073021956 0.05224377 0.057452925 0.1685029 -0.12012477 -0.10600897 -0.11357946 0.09853563 -0.0012703041 -0.06384884 0.15760536 0.04357915 0.059186064 0.043889575 -0.061140966 -0.097083814 0.08527684 -0.11845175 0.14899147 0.08270285 0.029951027 -0.015662543 0.04255906 0.032906763 0.04381815 -0.008474675 0.05190681 0.00077360024 0.25904936 -0.15474217 0.19081555 0.12794049 0.05238748 -0.101395406 0.023310054 0.0884124 -0.035928976 0.066864096 0.08112549 0.014779171 -0.19033504 0.18801181 0.059240438 -0.019271106 -0.016946683 0.18021743 0.15128581 0.08201558 0.05321239 -0.13888973 -0.12742475 0.15207158 -0.06185483 0.0099408105 0.24265915 0.027351122 0.004940084 -0.24776414 0.20677552 0.018447774 -0.16229925 -0.021107845 -0.23106997 -0.06716313 0.013241573 0.115059726 0.020156356 0.051816892 -0.1048225 -0.10944764 0.044801816 -0.044534095 -0.013265638 -0.13973795 0.035011236 0.06730583 -0.26260674 -0.020358918 -0.049022347 -0.18084326 -0.15572874 -0.05391806 0.26539788 -0.084652804 0.09948533 0.06988817 -0.18789922 0.11842095 0.07061491 0.0781753 -0.026549447 -0.04083104 -0.1527388 0.17571534 -0.04191116 -0.06615268 -0.20578505 0.04889448 -0.04475561 0.056714144 0.12892163 0.04364302 -0.0842947 0.0027984849 0.03858244 -0.09402695 -0.0004544202 -0.04404512 0.011743828 -0.08726752 0.044270482 -0.2303504 0.17629218 0.033467133 -0.04273302 -0.02850658 -0.057036996 0.19081493 0.10552354 -0.06439766 0.18350625 0.06963608 0.03664573 0.05438462 -0.016881328 -0.20111725 0.008466326 0.12183555 0.14945774 0.03897187 -0.06552121 -0.02952611 0.17797598 -0.18193546 0.043383528 0.17799476 0.036730837 0.015951607 0.030577179 0.08961049 0.013411692
Furnace Strider -0.41210824 -0.43148017 -0.0005053053 -0.55175495 -0.14712061 0.1427417 -0.0030872615 -0.05004659 0.025764793 0.27900004 -0.16689819 0.028364988 -0.17170821 -0.1327196 0.05744153 -0.14018346 -0.09678206 0.20595296 -0.21895689 -0.24185748 -0.0057521705 0.0312668 -0.06993046 0.012724636 0.090613045 0.00035417397 -0.1575539 -0.04007214 0.03886485 0.13175236 0.011922669 0.058005556 -0.011947064 -0.032518182 -0.060932923 -0.09069631 -0.01314426 0.18899764 0.16342117 -0.10800329 0.048065215 -0.022925261 -0.1384394 0.16043678 -0.015560113 -0.19774576 0.0853436 0.039427496 0.2578891 0.01711733 -0.13104892 -0.12583312 0.26451054 -0.11285986 -0.13095246 -0.061374784 0.07334938 0.059006166 0.1405746 -0.070047036 -0.054977003 0.005143684 -0.1753736 0.100516334 0.15467061 0.062066894 -0.087183915 -0.0375443 -0.05600773 -0.095014825 0.07104747 -0.22346477 -0.15424956 0.018044624 0.021456335 -0.080277786 0.004875411 -0.011437437 0.12178151 -0.040960703 0.120253414 0.10485464 -0.08404084 0.1156811 -0.0056795133 0.056823034 -0.048722506 0.011171405 -0.039511215 0.18542054 0.07907715 -0.10633695 0.047071025 0.087840535 0.15900278 -0.034827974 -0.100519374 -0.047785018 -0.24613392 0.04135331 0.09805786 0.061281763 -0.018631546 -0.07849606 -0.039247278 -0.038286373 -0.050676867 -0.038573872 0.06771033 0.00934708 -0.1872636 -0.047102503 -0.049564835 0.10072296 -0.006862633 0.0056968452 -0.0011553931 0.047024973 0.07664166 -0.06914026 -0.047399152 -0.120268896 0.070089534 -0.053842943 -0.10756716 0.1646854 -0.04483295 -0.0026532845 0.0838721 0.021331714 -0.15909725 0.012563085 -0.009833181 0.11226783 0.015318556 0.0499381 0.03118103 -0.012001565 0.048463926 -0.07708698 -0.09376362 0.05100938 0.028583659 0.26376525 -0.13247053 0.1485083 0.14102064 -0.036011185 -0.1223802 0.0521822 0.055617716 -0.107056834 0.11979278 0.21647994 0.04501614 -0.1564297 0.14951329 0.06546162 -0.018501561 0.018599939 0.11205716 0.108575135 0.03535075 0.06842843 -0.11851073 -0.021895755 0.23459531 -0.17291026 0.04251863 0.10674879 0.11419974 -0.13719603 -0.23666246 0.2074884 0.065066256 -0.21969154 -0.02128057 -0.18719319 -0.02016367 0.032157894 0.10830798 0.0746801 0.19916697 -0.09215408 -0.17037316 0.114891216 -0.012033716 -0.07540975 -0.2513928 -0.044047944 0.07176443 -0.3456278 -0.010532176 -0.021826036 -0.07825641 -0.160706 -0.0050009903 0.20318198 -0.06444858 0.02048326 0.029914856 -0.26480508 0.10939224 -0.018336628 0.11998913 -0.07962497 0.021517124 -0.010251691 0.10228823 -0.08724357 -0.00883088 -0.06278397 0.11184924 0.07912875 0.024652665 0.1887611 0.16036475 -0.051787443 0.049303267 0.057076883 -0.08990348 -0.08765678 -0.03306412 -0.050137307 -0.050695263 -0.01474774 -0.17113718 0.059406035 0.07119239 -0.0006898757 -0.010621667 0.04157516 0.12079262 0.1320093 -0.07583925 0.31559038 -0.06176325 0.014596036 -0.06371217 -0.10006802 -0.11208173 -0.066122785 -0.03141727 0.04009671 0.14548391 0.00037819654 0.062386647 0.23001364 -0.17717624 0.012478419 0.27546516 -0.03896946 -0.06302511 0.02839141 0.119087264 0.0847356
Planar Disruption -0.3941875 -0.34082267 0.037702452 0.06931999 -0.109130755 -0.019100113 -0.0049296324 -0.045228764 0.0974002 0.20371953 0.069059394 -0.04771542 -0.12532467 0.017690994 -0.0679336 0.1587193 -0.052557833 0.10534142 0.02521985 -0.107539676 0.05168325 0.0041277767 -0.10371921 -0.02266434 0.03159118 -0.15550444 -0.11268084 -0.20365827 -0.009098524 0.0121995155 0.061750583 0.105916925 0.01143743 -0.05989625 -0.16817221 -0.017180301 0.036410313 0.07395213 0.23534663 0.022145478 -0.044463173 -0.07692428 -0.106833465 -0.09572705 -0.012207471 -0.08259992 0.02605981 -0.0090248035 0.036715783 -0.029222595 -0.053290535 0.032750983 0.06470207 -0.06020017 0.19434161 0.12406281 0.074103184 -0.014223185 0.13149303 -0.027541464 0.00078543293 -0.16494578 -0.016378807 0.11024683 -0.025799228 0.121636145 -0.17788571 -0.1485642 0.08213912 -0.05824152 0.05465459 0.01531064 -0.028240876 0.10697377 0.028658777 -0.13704255 0.1753385 -0.073319584 0.009109686 -0.027481826 -0.12047627 0.055584528 0.009467678 -0.007232379 -0.042047303 0.012519547 0.004839807 -0.15261133 0.10100485 -0.14985351 0.022186592 -0.055921536 -0.004262832 0.09706131 -0.09626966 0.13323173 0.12342083 -0.057159238 -0.10740926 0.14518484 -0.050580062 -0.08731024 -0.021756148 0.049102817 0.097629346 -0.021570366 -0.014481025 0.0057645873 0.17689943 -0.020235715 0.01448858 0.061383065 0.031960614 0.0015567372 -0.034223482 0.11441738 0.11735808 -0.02683899 0.04966673 -0.0025253932 0.041352198 0.042256273 0.07036437 -0.24256474 -0.050923515 0.05670822 -0.045850955 -0.083367385 -0.13232307 0.010160665 -0.039950594 0.057096016 -0.09544366 -0.02822197 0.05876188 0.065700226 0.16421632 0.010215778 -0.17224589 -0.015463773 0.055029187 0.14597283 0.033264067 0.030929195 -0.09999645 -0.0026094464 -0.0883849 -0.028757578 -0.080242425 0.07614664 0.042715497 0.017037204 0.024315093 0.1415814 0.09577617 0.1655439 0.019417524 -0.025813133 0.041151848 0.0029992578 0.06480251 0.038472135 0.03546501 -0.1671032 -0.082647555 -0.059534844 0.013453514 -0.0014430956 -0.07887475 0.16749436 0.16889007 -0.041666422 -0.19388059 0.06163292 -0.09295037 -0.043061078 0.143856 -0.18849382 0.033295732 0.0050097806 0.068922535 -0.11078231 -0.12115896 -0.042433422 -0.13809824 -0.0853821 0.0093720835 0.0552808 -0.076211214 -0.07061378 -0.080831245 -0.009308218 0.15588969 0.02711854 0.0558114 0.049412556 -0.09631158 0.15551348 -0.057369933 0.13629591 -0.103790514 -0.19463517 0.0707769 -0.046634864 -0.1037859 -0.11601266 -0.10683145 -0.07906685 -0.0071596685 0.034228746 -0.012377572 0.029082622 -0.07652727 -0.07952808 -0.0944197 0.0018678255 0.087158345 -0.1254159 0.015378516 0.10235797 0.021584103 0.023457082 -0.12549625 -0.017499086 -0.14133027 0.06870793 -0.15244162 0.25559905 0.0500629 -0.11214225 -0.24958333 -0.0016546709 -0.023545308 -0.050910383 -0.13863508 -0.07892254 -0.046523776 0.09715412 -0.023169095 0.10666292 -0.033676177 0.029461492 0.021825429 -0.04037356 -0.09230875 0.02340355 -0.08722722 0.123037554 0.03750302 0.12438867 0.06829025 -0.014749808 0.05701789 -0.077033855 0.015256247 -0.13485922
Lattice-Blade Mantis -0.36309072 -0.51865363 0.12185761 -0.22480525 -0.07736092 0.28022334 0.1604626 -0.12139698 0.114664935 0.22182205 0.045150265 0.051674254 -0.24578655 -0.10829813 0.22710836 0.019901253 0.10053535 0.045145698 -0.09013284 -0.3632945 0.015971957 -0.08136277 0.0054260846 -0.060790334 0.032069772 -0.0105373375 -0.04681577 -0.020072222 0.032339714 -0.022331981 -0.045448422 -0.039177552 -0.07903588 0.026151467 -0.18956746 -0.08946076 -0.15653428 0.23525645 -0.0053621093 -0.19082488 0.10058115 0.03464488 -0.13437456 0.19328785 -0.05793049 -0.10221934 0.1912264 -0.15674621 0.1555815 -0.04874538 -0.115732364 -0.1549307 0.12061853 0.091556154 -0.072848 -0.047141824 0.108340256 -0.07103779 0.08662804 -0.076040454 0.056316584 -0.089655876 0.03537364 0.0626671 0.026170513 0.1569167 -0.013026362 -0.1102505 0.078065455 -0.22615735 0.086250745 -0.12841898 -0.2222468 0.13503496 0.0222982 -0.0782469 0.17976014 -0.08104492 -0.029180782 -0.05983463 0.067989014 0.08874064 0.12037788 0.05292451 0.0055769365 0.029222231 -0.14006434 0.01785504 0.06005284 -0.11024459 -0.00680164 -0.15518843 -0.0013429454 -0.072577156 0.08717845 -0.030984618 -0.11068325 -0.055412244 -0.25870055 0.026968187 0.049629647 -0.0046686013 -0.070842735 -0.03452963 -0.12236762 -0.08488872 0.092279404 -0.27317655 -0.006589475 0.106982976 -0.27223155 -0.028660143 0.05530838 -0.0085224705 -0.07572691 0.1527802 -0.056795005 0.019352097 -0.013095675 -0.03836685 -0.12311103 -0.08476494 -0.041989718 0.0654699 -0.13182832 0.042963788 -0.09699263 -0.23093696 0.12649834 0.101393715 -0.06841833 0.071532756 -0.061712325 0.1497299 0.06424927 -0.0032167782 0.11946912 -0.06612155 0.19627221 -0.08575077 -0.049250714 -0.062333647 -0.04131885 0.21278532 0.042687654 0.32379404 0.08097767 0.10432705 -0.062491555 0.02711233 -0.10538475 -0.1605763 -0.048833795 0.026930893 -0.0044844034 -0.27059934 0.12684177 0.03771641 -0.10603571 0.06135979 0.102266714 0.23364621 0.16217425 0.12041653 -0.07059296 -0.07911373 0.18676527 -0.18739426 0.114042036 -0.030599458 -0.0131959105 0.010096287 -0.022918927 0.033811007 0.07372952 -0.08776399 0.016656768 -0.10873443 0.098156475 -0.06638014 0.016577544 0.034330174 0.04859902 -0.114342324 -0.14319642 0.048567638 0.048129633 0.0055587944 -0.08625937 0.22791153 0.044687282 -0.10959219 -0.1613604 0.024220495 -0.11142628 -0.1395298 0.0028820166 0.12909324 -0.1659097 0.04155884 0.16742449 -0.1606455 0.24253216 0.0048202546 0.16193084 -0.04953227 0.017303552 0.031662997 0.074324064 -0.17527887 -0.030672377 0.088335395 0.15968864 0.03368335 -0.06907047 0.15115197 0.20601735 0.0065560383 -0.028144034 0.17075093 0.14435661 0.11782 -0.016053934 -0.056693744 -0.04009342 -0.15226889 -0.124743365 0.038045574 0.09527562 -0.01434798 -0.025649535 -0.05222982 0.16730386 0.13259594 -0.09174186 0.076220885 0.12407772 0.06129992 0.047960114 -0.1266456 0.091793634 -0.22155304 0.08081103 -0.007288712 0.1796968 8.4718755e-05 -0.01740011 0.12873209 -0.37584826 0.13348463 0.110559724 0.121064484 -0.005240432 0.119452655 0.08143014 0.07090703
Terramorphic Expanse -0.34008652 -0.3878518 -0.03987599 0.08110232 -0.03322406 0.078938596 0.073356375 -0.05763514 0.11183235 0.13933888 0.24059588 -0.01983077 -0.25404623 0.037020743 -0.045895968 0.019521542 0.024905974 0.07882185 -0.003931952 -0.1874572 -0.014481207 0.05271426 -0.09438907 -0.017047869 -0.043812055 -0.039309338 -0.04601116 -0.21418218 0.09144624 0.19974698 0.0028801942 -0.08469856 -0.028186621 0.0043626474 0.066041425 0.011748281 -0.024048252 0.17364728 0.068493046 -0.012182767 0.03910976 -0.022911595 -0.21933256 0.0853278 -0.014042434 -0.14125071 0.04573646 -0.11743994 0.079996824 0.03676994 -0.08489232 0.0019688832 0.003427199 -0.10269056 0.03302949 -0.014105066 0.06710074 0.012222002 0.10890443 0.078909345 0.0367562 -0.04567289 0.027944732 0.049424727 0.065090194 0.030588143 0.037427258 -0.0140738385 -0.04451848 -0.020141307 -0.005324542 0.037491407 -0.045667876 0.05076369 0.08819221 -0.0013462505 0.122559644 -0.05229274 0.116197534 0.096256256 0.024965435 0.00037429962 0.06174207 -0.11275295 0.0099165 -0.055356734 0.034762114 0.033432804 0.087438636 -0.046448067 0.07054515 0.0032916928 0.02576933 0.05858692 -0.04015066 2.8102884e-05 -0.025420351 -0.100513905 -0.086561345 0.064890206 0.1353461 0.100309655 -0.10342951 0.00046947642 0.023831937 -0.073615514 -0.051081926 -0.10495903 -0.036910985 0.07383846 -0.020810848 0.0589649 0.05509319 -0.03681685 0.008642057 0.05177864 -0.06220956 -0.002995355 0.052698392 -0.08028441 -0.07488983 -0.041860137 -0.026272709 -0.023946363 -0.03207299 0.038437303 -0.19360957 -0.047450606 -0.054756336 -0.034168478 0.008845184 0.015514356 -0.044381462 0.03233042 0.039097935 -0.059176717 0.081495546 -0.08704793 0.004973515 0.0257722 -0.030160319 -0.011326893 -0.023957292 0.13621612 0.10216321 0.066065036 0.0959402 0.015486404 -4.6539146e-05 0.09524065 -0.05140997 -0.080997296 0.092102885 0.082661934 0.09066707 0.029835751 -0.018456193 -0.052087788 -0.010726498 -0.07096574 0.056986928 0.08415806 -0.0054497686 -0.05957043 -0.033931006 0.03781627 0.0087194955 -0.09215012 -0.08807316 0.056787696 -0.06916682 0.023036826 -0.04596988 0.12224577 0.005937828 -0.16351648 0.009019078 -0.042398218 0.038747925 0.04155453 0.022021383 0.03152284 -0.029993184 0.04802897 -0.08281226 0.033104736 -0.017241467 0.050367083 -0.114262946 0.01769569 -0.034146428 -0.09169557 -0.018465314 0.0019958718 0.016281871 -0.04551237 0.12780109 0.057013236 -0.043854546 0.099451795 -0.06310579 -0.031227339 0.009135236 -0.02604719 -0.06355254 -0.024053616 0.0010997134 -0.054110892 0.06883706 -0.080721974 -0.086070314 -0.093894124 0.08523984 0.07822408 -0.012628098 -0.01824551 0.09411577 0.09846701 0.10196503 -0.0017504003 0.06755512 -0.024774948 0.011579141 -0.079897664 -0.007318252 0.0071211206 -0.05817836 -0.05350292 0.054025102 -0.12943076 0.0020923452 -0.06403397 -0.015931727 0.04627785 -0.079963736 0.030944122 -0.09863714 0.1056409 -0.0657414 0.08084221 -0.015672276 0.07091034 0.06376114 -0.045443032 0.007842857 -0.122425444 0.05854058 0.01841999 0.05540423 0.13807404 0.0034440847 -0.10051155 0.06283204 0.017718434 0.054706875 -0.08018631
Ruthless Predation -0.35196397 -0.39629167 0.015215251 -0.00450752 0.08325141 0.17957918 0.14971106 0.02086303 0.12084984 0.16586833 0.05062894 0.10425652 -0.24610214 -0.02983049 0.12728702 0.04833355 -0.0871171 0.046098005 -0.052826118 -0.29372233 -0.0010983516 -0.07509406 0.037396085 -0.046606105 0.019347532 0.055677604 -0.03643307 -0.042828657 0.03168788 -0.04201818 -0.018858474 0.011267461 -0.12754032 0.0058703506 -0.16173293 -0.09412238 -0.061820135 0.10821865 0.03454292 -0.12676653 0.030571343 -0.023198636 -0.046099257 0.106867895 -0.0027768628 -0.05540871 0.039085515 -0.14314915 0.19066401 -0.03014494 -0.086177915 -0.12968855 0.10710105 0.097181395 -0.0036374766 0.029448146 0.064536855 -0.08681336 0.094746865 -0.06309788 0.071369655 -0.058484644 -0.002508141 0.07231064 0.015352392 0.03396921 0.00942789 -0.08269014 0.04678587 -0.12910797 0.023528283 -0.06715855 -0.08276653 0.11621195 0.17032537 -0.032562915 0.088853896 -0.052708138 -0.06670593 0.037409935 0.1286703 0.032030117 0.1391764 0.08772344 0.07067295 0.037910197 -0.13354012 0.039255064 0.08597495 -0.12546176 0.010429847 -0.18290845 0.09315241 -0.048501026 0.08928477 -0.009124239 -0.06805991 -0.05396627 -0.24293073 0.04125857 0.06346161 0.031777423 -0.022729106 -0.012830874 -0.010123744 -0.050094344 0.013599178 -0.26222894 0.031440143 0.09733791 -0.28203434 -0.1279144 0.10900941 0.0567154 -0.11550256 0.044441044 -0.10978964 -0.03589019 -0.07324046 -0.05257763 -0.09978025 -0.15811442 0.015816001 -0.03317687 -0.12525919 0.076805815 -0.07621885 -0.22659191 0.053699832 0.038639866 -0.12725954 0.09326125 -0.055081278 0.090642445 -0.050583426 -0.017240526 0.16664739 -0.06411329 0.12061923 -0.09441408 -0.072030544 -0.023168493 -0.032130565 0.123403355 0.061487515 0.19729316 0.03687064 0.0937528 -0.07993929 0.05156273 -0.12740386 -0.096922085 0.07543083 0.012313115 0.09295879 -0.26320654 0.10277132 -0.02062703 -0.1044303 0.060220942 0.06297389 0.18622933 0.18313429 0.08066413 -0.0073572574 -0.028730204 0.083173156 -0.071146764 0.065226264 0.12402307 -0.03186956 0.036414124 -0.014521779 0.049197227 0.03355194 -0.084278055 0.15651278 -0.013625641 0.027226295 -0.053094808 0.016825268 0.01404277 0.06026912 -0.118376926 -0.13899286 -0.019278856 0.010030234 0.093582004 -0.034510393 0.14951189 -0.039749656 -0.07407721 -0.10922239 0.10096535 0.042866062 -0.14182547 0.039511926 0.16375896 -0.12797278 0.0021955916 0.14981969 -0.22900882 0.06865003 0.01375961 0.11039953 -0.12575422 -0.025477396 -0.056648467 0.029936679 -0.02523999 -0.020326545 0.045341905 0.103965685 -0.009860723 -0.039124575 0.1126665 0.21316157 -0.093473874 0.0005576953 0.12810317 0.1054123 0.10608854 -0.06312887 -0.06547111 -0.045863997 -0.14499858 -0.10300386 0.11186121 0.0738189 -0.049820237 -0.080960475 -0.09526047 0.06271429 0.038508233 -0.07425164 0.070007965 0.113388926 0.12391559 0.0004355672 -0.10587372 0.06469964 -0.23392381 0.08592628 -0.13772556 0.20210794 0.13031071 -0.013371048 0.13357207 -0.25015348 0.1228067 0.083498485 0.11628724 0.0028827921 0.22667576 0.07694149 0.042139344
Duelist of Deep Faith -0.36246175 -0.31553662 0.024205493 -0.052845675 -0.11491715 0.003166197 -0.05679887 -0.018048707 0.18842375 0.1840904 0.09309069 0.07027696 -0.18200113 -0.09642915 -0.03874243 0.16583164 0.013554614 0.14958036 -0.0418417 -0.08454425 0.17925371 -0.09288611 -0.1868207 0.0008270524 0.06653253 -0.084117085 -0.011095767 -0.25168476 0.039990455 0.005038019 0.06068814 0.061526265 -0.03549622 -0.1069112 -0.24866785 0.009538561 0.04239968 0.17315407 0.15527022 -0.039272387 -0.12068215 -0.022181131 0.007246996 -0.019773025 0.003993273 0.002091345 0.023217518 -0.0720816 0.0012929715 -0.073334634 0.0052598068 0.028536692 0.026237661 -0.084276505 0.12070243 0.2331905 0.12541237 -0.060507726 0.16019453 0.005276435 0.10261975 -0.10394084 -0.0012842524 -0.004142023 0.02873149 0.09988627 -0.13163623 -0.17346762 0.023992745 -0.21956226 0.10378814 -0.029574914 -0.035094906 0.035351478 0.05024856 -0.21463749 0.08840872 -0.04745027 0.017523713 0.069091916 -0.03274572 0.08180915 0.076244794 -0.034412984 -0.07748779 0.032182172 -0.13923182 -0.120174274 0.13944459 -0.049042992 -0.025166186 -0.13777949 -0.10498569 0.12899302 0.038329985 0.073472545 0.14035831 -0.09512353 -0.21749015 0.028352618 -0.037095793 -0.03742186 -0.031760905 0.042256292 0.1950333 -0.07090419 0.04716738 -0.012725175 0.029478038 -0.06728758 0.091844544 0.09918142 -0.03273737 0.1426869 -0.10502116 0.0870267 0.069875695 -0.04176251 0.09104378 0.054842573 0.0037200928 0.03170622 0.027204514 -0.14208025 -0.12946217 0.16317277 -0.025826447 -0.11893376 -0.18779838 -0.044407833 0.039923646 0.17691974 -0.032774135 0.007017366 0.10436187 0.056432128 0.104250416 0.008990177 -0.24942856 0.11789031 0.052905243 0.035790034 0.0069868057 0.09391828 -0.071972854 0.08888154 -0.0976654 -0.036605936 -0.05217818 0.020042589 0.09082188 -0.06865297 -0.08509912 0.0042607747 -0.024216441 0.015810907 0.09778513 -0.03421845 0.0793696 -0.06205758 0.025501559 0.06874816 0.1227941 -0.15981373 -0.07953802 -0.07760472 0.13114075 -0.010355541 -0.07945548 0.25876296 0.096872725 -0.061858784 -0.11351268 0.055575494 -0.09703336 -0.097741134 0.13084418 -0.16459027 -0.044548593 -0.08439186 0.02534192 -0.16073258 -0.13338923 -0.039174184 -0.11216805 0.009628389 -0.00566157 0.058561385 -0.08657578 0.0012365619 -0.13019052 -0.04927695 0.23503189 -0.103735596 -0.0147044705 0.057049364 -0.10233053 0.14843738 0.017569864 0.12484348 -0.06771845 -0.08783285 0.010952627 0.013164709 -0.14174238 -0.09142291 -0.17533904 -0.05288283 -0.08400738 -0.08928601 0.033267688 0.025203303 -0.038664915 -0.088066444 -0.18278691 0.029127859 0.112088546 -0.23731276 0.033554826 0.029894771 0.121367745 -0.0072496994 0.0069721434 0.03779936 -0.10589244 0.013095641 -0.12606475 0.28708842 0.10363776 -0.038669202 -0.25515363 -0.066279374 -0.09119043 -0.082956746 -0.21967563 -0.07752882 -0.038938668 -0.008423884 0.06713016 0.082857795 0.09189325 0.10959398 -0.08895546 0.0105728 -0.06338686 0.14679965 -0.08422234 0.23778972 -0.00849513 0.036414206 0.038011245 -0.005991785 -0.047129486 0.020454511 -0.10094943 -0.320705
Crawling Chorus -0.33339587 -0.28811347 -0.0009344937 -0.027099416 -0.23967607 -0.057218395 -0.060433596 -0.022973578 0.10630541 0.15339822 0.181291 -0.020635761 -0.11310535 -0.008764471 -0.03375265 0.14584985 -0.04760533 0.09956088 -0.056339104 -0.051161945 0.12966977 -0.10111436 -0.10445205 -0.12716962 0.053642876 -0.18394509 -0.00028419364 -0.19023743 -0.0013467809 -0.015645951 0.041839533 0.110859275 -0.035994228 -0.050650306 -0.1724436 -0.05903265 0.040032223 0.20895188 0.25003257 -0.11661815 0.02725414 -0.07166746 0.02132581 -0.04276338 -0.004826377 0.011590879 -0.03558411 -0.0850334 0.012359597 -0.083927386 -0.008760862 0.015638812 0.054145843 -0.15399384 0.06845616 0.21921594 0.11744194 -0.14180408 0.113770425 0.05375836 0.008027093 -0.094253056 0.1127122 -0.029931597 0.016022554 0.030186426 -0.21379715 -0.16339734 0.0035358607 -0.21906096 0.121482134 -0.045156896 0.020470724 0.10163705 0.042122178 -0.18413457 0.13765237 -0.08301602 0.010657086 0.03010426 -0.1285439 0.07576904 0.028061816 -0.02561018 -0.046910245 0.020721523 -0.19413568 -0.065595254 0.1454892 -0.009759557 -0.093832 -0.14121749 -0.08648898 0.16776758 0.048761692 0.0674252 0.21178272 -0.036654808 -0.21848552 0.08393968 -0.0894795 -0.003111341 -0.02021089 0.06067878 0.119030714 0.0012132754 0.041867632 -0.04063266 0.04428002 -0.061376885 0.029714284 0.1852293 -0.15613256 0.1338381 -0.11456702 0.11142584 0.06615849 -0.039372884 -0.0119973915 -0.00011162803 -0.036773067 -0.057339888 0.073277585 -0.19631048 -0.117926195 0.20678806 -0.026719296 -0.10032596 -0.088326216 -0.06591987 0.03906696 0.11619778 0.018376436 0.105508305 0.09382602 0.06957767 0.098952346 -0.10569459 -0.18512025 0.056538846 0.090213664 -0.047878865 0.07837301 0.035896495 0.057353847 0.14796633 -0.075571336 -0.0025792157 -0.07142117 -0.061921302 0.12557292 -0.06618004 -0.0726627 0.029279629 0.053367566 0.048648685 0.06637466 -0.031346995 0.020751132 0.023076842 0.009033842 0.040875364 0.094133064 -0.21760368 -0.13095888 -0.03626056 0.07113655 0.004398195 -0.04341037 0.21064036 0.037222225 -0.11900052 -0.0798699 0.062401246 -0.15397985 -0.086212516 0.14162563 -0.17908679 0.00681856 -0.054530267 -0.07995298 -0.13224177 -0.13126656 -0.04212247 -0.15999338 -0.04417325 -0.08295797 0.08255882 -0.07769995 0.021718957 -0.0774231 0.07891473 0.19041444 -0.11130209 -0.024506744 0.029979626 -0.20198095 0.14586836 -0.024481267 0.18129626 -0.11821699 -0.11953031 0.066692695 0.07066421 -0.16352819 -0.12438757 -0.18702841 -0.04148912 -0.08319126 -0.0136293955 0.011156603 -0.0014150656 -0.009373058 -0.052335348 -0.18578802 0.02066286 0.15424486 -0.27281785 0.052143626 0.08910257 0.076845735 -0.03992987 -0.055198412 0.15895073 -0.15669453 0.040215664 -0.10680708 0.34512806 0.122037634 0.041799463 -0.26383865 -0.08182602 -0.09901056 -0.028287753 -0.20668049 0.0009133499 -0.09134241 0.017685613 -0.003711118 0.1344251 0.03704768 0.05107343 -0.12699054 0.0073417956 -0.07073101 0.06288221 -0.04917612 0.18428646 -0.03955542 0.04168299 0.15441856 0.0015866212 -0.09916861 0.06385026 -0.043703858 -0.28613672
Rustvine Cultivator -0.36390653 -0.47843385 0.105500974 -0.17421228 0.047215693 0.1969622 0.19629048 -0.075975046 0.13807027 0.16731758 0.020925801 0.094891906 -0.38915548 -0.05759087 0.3048674 0.08458672 0.038157545 0.08253537 -0.14400506 -0.36067718 -0.035205204 -0.10981496 -0.016365027 -0.06331092 0.108990826 0.027617522 0.031126115 -0.006349686 0.14288145 0.0032056624 -0.09300067 -0.21341594 -0.12726878 0.003890988 -0.097846955 -0.07303551 -0.088171005 0.23090613 0.005434456 -0.17458278 0.15365195 -0.07079786 -0.11737386 0.22910604 0.005350043 -0.087958634 0.07743331 -0.10225629 0.16435319 0.07927342 -0.13105355 -0.16155352 0.101448774 0.10823396 0.011204449 -0.10273652 0.023037473 -0.104410045 0.1765244 -0.088917784 0.06155109 -0.067554 0.016090205 0.06949102 -0.068424955 0.04749102 0.01938319 -0.20750362 0.11114107 -0.07647083 0.02999638 -0.11626569 -0.2066622 0.05387405 0.017864823 0.022997994 0.111538544 -0.04125215 -0.04012024 0.037081167 0.06595607 0.10008235 0.13845533 -0.048710935 -0.03622458 0.01750939 -0.10492789 -0.028374784 0.11341704 -0.09205662 -0.031556673 -0.15096791 0.06722196 0.05097162 0.0603742 -0.08250406 -0.09585084 -0.10577036 -0.24787967 -0.08512271 -0.0046243034 0.14216307 -0.013783832 0.037727967 -0.0674538 -0.019507555 -0.0074041355 -0.24275479 -0.04216536 0.08382678 -0.28111434 -0.041712046 -0.040168192 0.028659608 -0.093915954 -0.0061282082 -0.15213944 0.055659648 -0.012563918 -0.07937306 -0.052058015 -0.106130436 -0.025541423 0.03419102 -0.22494993 0.16608892 -0.0770154 -0.07682184 0.07525791 0.058723032 -0.053528324 0.08689523 -0.07246947 0.06866475 -0.0022218616 -0.12984441 0.15244435 -0.081367 0.14156616 -0.05228566 -0.03260338 -0.03080347 -0.09559551 0.1378657 0.13462435 0.1474667 0.04937389 0.07111004 0.0039766026 0.089302614 -0.053914975 -0.18923184 -0.02965143 -0.0025804923 0.088700905 -0.24006422 0.17262067 -0.07330254 -0.10659605 0.09961401 0.09653389 0.14061502 0.14998905 0.07411416 -0.031673674 0.06152795 0.018928003 -0.14552513 0.08463296 -0.027683333 -0.04810189 -0.019003721 0.0672409 0.064782076 0.08700611 -0.053009942 0.13785695 -0.053408686 0.12922797 -0.12643576 0.003944554 0.008468362 0.09857407 -0.14717345 -0.2525987 0.066876605 0.050510254 0.07645625 -0.012724558 0.1538037 0.03852804 -0.18154171 -0.08336204 0.12508556 -0.04590635 -0.13728984 -0.06342388 0.18644343 -0.08786062 0.0164139 0.08092129 -0.24163158 0.12025726 -0.010401006 0.11482584 -0.082775466 0.096874595 0.03239287 0.0039406414 -0.16071925 -0.04648922 -0.0023028057 0.1903472 0.018014941 -0.12058338 0.10385817 0.2171707 -0.0506091 0.033063423 0.12953857 0.07813967 0.06375328 0.00500065 0.012564289 -0.08942282 -0.16901301 -0.12262259 0.03090809 0.13285558 0.009372563 0.0014404 -0.077999204 0.11417369 0.066654414 0.013271023 0.19001707 0.08054897 0.06629248 -0.033015326 -0.1334577 -0.02179555 -0.22232714 0.07575159 -0.08624482 0.2570457 0.016023034 -0.10461738 0.14699504 -0.29502237 0.15591417 0.1440181 0.15503982 -0.018346777 0.21318457 0.048914302 0.101191945
Predation Steward -0.38299868 -0.4497585 0.10224852 -0.185772 0.07863966 0.33056375 0.13435782 -0.035137646 0.1689571 0.22203836 -0.033457708 0.15100102 -0.35273477 -0.06348302 0.27334836 0.07548176 0.07999009 0.07219125 -0.1078337 -0.32064575 -0.009991933 -0.13143215 -0.009528535 -0.017448433 0.05155647 0.034314893 -0.086818926 -0.032005336 0.07363424 0.015110224 -0.07251309 -0.078453526 -0.06767084 -0.003837573 -0.24894693 -0.037639756 -0.08195946 0.18194565 0.12126777 -0.16114399 0.11904815 0.012083093 -0.12137388 0.21538228 -0.025621101 -0.06908073 0.03291863 -0.17097841 0.13167892 0.000506686 -0.017348358 -0.12423287 0.13682303 0.086818404 0.012971422 -0.05934256 0.094130635 -0.12640649 0.077268206 -0.10437 0.049827375 -0.029250061 0.010118778 0.04694014 -0.0072299796 0.062474377 -0.034932856 -0.05562505 -0.018882738 -0.23272045 0.10205433 -0.096178904 -0.18698864 0.014983991 0.07321394 -0.060710624 0.059133697 -0.032091808 -0.044385128 0.017416732 0.08859133 0.044641152 0.17221618 0.03244081 -0.040084194 -0.034439176 -0.1581664 -0.04989346 0.054140076 -0.12970698 -0.011355149 -0.31075585 -0.03342058 0.024062265 0.12366715 -0.120993175 -0.11730388 -0.0067640734 -0.29895815 -0.009906335 0.059695765 0.009093657 0.03848853 -0.014473496 -0.06567887 -0.05454159 0.09108175 -0.2707182 -0.03065578 0.077458315 -0.2929199 -0.10309585 0.15647247 0.0010061838 0.00399454 0.15649551 -0.105056286 0.009198428 0.026482435 -0.05188849 -0.09351946 -0.101808354 -0.04620062 0.052154485 -0.11866627 0.20638642 -0.009066927 -0.16205685 0.12329917 0.103195146 -0.024901338 0.16403507 -0.08867906 0.1362517 -0.02131782 -0.02708236 0.19478635 -0.10508295 0.17144735 -0.14925568 -0.03866832 -0.091155894 -0.045773212 0.17309834 0.06885349 0.24087688 0.066641465 0.050383687 -0.10288582 0.08235875 -0.07622266 -0.16026494 0.01836766 0.036532447 0.010017643 -0.19583108 0.17733726 0.051007334 -0.077687256 0.087565295 0.17060639 0.18416096 0.12759598 0.06875655 -0.007159163 -0.056857437 0.05308514 -0.16981111 0.123088844 0.019166427 -0.029262887 0.07342008 0.08462999 0.020408083 0.032485835 -0.0987727 0.09989971 -0.05967754 0.045329712 -0.091234766 0.008075819 0.044808585 0.043987345 -0.06929365 -0.1988205 0.059175972 0.07741474 0.0487087 -0.13423018 0.12111135 4.13807e-05 -0.233375 -0.11483206 0.0047059855 -0.073871434 -0.14626312 0.053322118 0.11908852 -0.08872263 0.021092866 0.11879848 -0.15740947 0.22294916 0.049595967 0.08678245 -0.10517576 0.014228599 0.045995966 0.06202787 -0.15013748 -0.08091396 -0.012989025 0.06209359 -0.0022212411 -0.09036461 0.06355491 0.27570888 0.0026271762 -0.024519151 0.13533679 0.11373619 0.096304454 -0.11659863 0.0065902444 -0.005299272 -0.19090535 -0.21189395 0.041007053 0.18172969 -0.02983875 0.0016567336 -0.038669482 0.089399464 0.0600495 -0.05009754 0.094669 0.079827 0.10320638 0.022490349 -0.25417274 0.060371287 -0.22645524 0.053077552 -0.053510506 0.2247162 0.07206055 -0.08128403 0.19652763 -0.31269574 0.25852886 0.14836062 0.12262102 -0.04168068 0.22294518 0.12380013 0.18283659
Mandible Justiciar -0.5498763 -0.37099934 0.12728329 -0.11973126 -0.3584704 -0.010989853 -0.17088096 -0.09393318 0.23763625 0.26162207 0.018938147 0.0145305265 -0.2120598 -0.033417214 0.03270334 0.00787958 -0.060930427 0.20940417 -0.021159539 -0.10969478 0.19634427 0.07814343 -0.033939574 -0.0012215987 0.082144774 -0.24958442 -0.1723334 -0.20575625 -0.03889675 -0.087583095 -0.12103243 0.15494086 0.10264383 -0.04073283 -0.1256192 -0.032155674 -0.034664996 0.061758675 0.13531162 0.08008512 -0.025771206 -0.079869956 -0.13852614 -0.1342878 -0.1061275 -0.08626049 0.08185562 0.0058715236 0.02805728 0.04097573 -0.0050019273 0.002044243 0.115793 -0.06823078 0.16414155 0.08496601 -0.024663817 0.062371433 0.14340922 -0.103180334 -0.06785494 -0.17053053 0.07909704 0.058531076 0.060463347 0.20602106 -0.24673489 0.013508648 0.11790839 -0.034542248 0.029582331 -0.056769166 0.006282355 0.013043625 -0.0030902284 -0.07592784 0.1398047 -0.08945366 0.05030182 -0.09693341 -0.22048257 0.06494566 -0.07804877 0.00057395577 -0.0550553 -0.07401788 0.19578636 -0.10242194 0.11780551 -0.09619686 0.15018666 0.073143564 0.019914148 0.11109389 -0.11703503 0.070254974 0.0407855 0.09668717 -0.09169855 0.065290555 -0.14030394 -0.030948479 -0.07424946 0.17146102 0.12837504 0.040544905 0.07611485 0.046474822 0.13478203 -0.1383631 0.00031706842 0.1540654 -0.06711232 -0.077665694 0.0406025 0.13622734 0.16998994 -0.022039978 0.057901252 -0.06037046 0.10714361 0.07188367 0.16532828 -0.3208407 0.022224521 0.14057338 -0.058004655 -0.05102114 -0.18650481 0.050274514 0.009398176 0.1779663 -0.08136691 -0.13533275 0.04314187 0.018461661 0.08975729 0.067666195 -0.21057293 0.01751492 0.07087856 0.1568489 -0.03416238 0.052103 -0.16315034 0.0002952636 -0.19896948 -0.07094092 0.049969297 -0.0036542097 0.06473492 0.06731442 -0.04746505 0.060233913 0.20973267 0.19223918 0.073650695 0.08130445 0.053079396 -0.062517345 0.10369555 0.12604323 0.03076525 -0.14560612 -0.081037514 -0.078092664 0.004257598 0.020885468 -0.081039205 0.11323719 0.19416074 0.07920349 -0.14561224 0.009773747 -0.16998085 -0.120894246 0.121257216 -0.12113432 -0.056181192 0.029238217 -0.02157933 -0.11413669 -0.18430085 -0.022216676 0.016545745 -0.084142454 -0.08876893 -0.029437687 -0.09533819 -0.14397374 0.0469395 -0.08356363 0.13864996 -0.13770895 -0.15847436 0.06977197 -0.08566564 0.09646627 -0.075231455 0.18696012 -0.17126702 -0.056179564 0.12426874 -0.049780395 -0.2100588 -0.16453937 -0.08601047 -0.08044182 -0.07857853 0.062292535 -0.053943954 -0.0533663 -0.09168664 -0.06002916 -0.21005839 0.03741066 0.03587064 -0.16331415 -0.004253958 0.007687031 -0.015000968 -0.06903182 -0.109510824 0.013433046 -0.10720252 0.07673994 -0.11238808 0.3080087 0.10752262 -0.116776966 -0.35008943 -0.028211633 -0.10679452 -0.01715956 -0.12778364 -0.062149465 -0.001999633 -0.033122864 -0.09217314 0.07540481 -0.09431892 0.0304226 0.008101201 0.06731721 -0.14133644 0.0034321407 -0.12965481 0.11190331 0.011659866 0.15335743 0.242215 -0.051484242 -0.1120602 -0.022403277 0.022861592 -0.07587531
Dune Mover -0.2564981 -0.35257682 0.0050270786 0.21819814 -0.030670848 0.035819437 0.0194546 -0.005710552 0.10186109 0.073941 0.3137123 -0.027951712 -0.14007008 0.12666616 -0.07098933 0.061646577 0.0039244755 0.14497332 -0.095636204 -0.08774719 -0.02598476 0.04195907 -0.09715853 -0.030537385 -0.08644312 -0.11384932 0.016308794 -0.17742643 0.009535419 0.1323448 -0.06313708 -0.1058419 -0.05336937 0.050660644 -0.052982043 -0.08867711 0.01769317 0.16891786 0.0068554077 -0.02573878 -0.033077706 -0.10584451 -0.13933954 0.025952568 -0.024073279 -0.03911026 0.08332356 -0.07862956 0.09918828 0.03522237 -0.00037214792 -0.006571886 -0.03902187 -0.19134653 0.08237271 0.019354438 -0.016074307 -0.026610224 0.0869902 0.028449425 0.053014595 -0.11911023 0.026251767 -0.036452346 0.011946571 -0.047755696 0.056257807 -0.08401733 -0.007322444 0.0071740216 0.02604859 0.022314653 -0.049244735 -0.05242848 0.06284969 -0.0038241027 0.061820943 -0.025888324 0.08306685 0.0072012506 0.010768818 -0.010018607 0.03261401 -0.027254527 -0.07601827 -0.026132789 -0.019927084 -0.035439875 0.14009179 0.042103518 0.04079079 -0.03699308 0.02352589 0.13091162 0.020255672 0.10243202 0.012310101 0.019422024 -0.096978925 0.037738252 0.087730415 0.07458338 -0.11161535 0.010222719 -0.027782666 -0.063008495 -0.034464218 -0.11535401 -0.06651304 0.09006147 -0.109977245 0.052454136 -0.0022828872 -0.0417998 0.020128388 0.028238343 -0.0632882 0.05662066 -0.0652014 -0.06727908 -0.13516414 -0.0431804 -0.02569485 -0.012637408 -0.009097221 0.082688116 -0.16656534 -0.12995763 -0.10954282 -0.004957425 0.076146245 0.06620104 -0.15234089 -0.07905125 -0.0016907635 0.029215924 0.17471473 -0.059127513 -0.09879966 -0.031461854 -0.012475559 0.024326913 0.06327286 0.18656093 0.05020589 0.0185034 0.0687382 0.061723255 -0.04946529 0.0921195 -0.04776982 -0.08655906 0.064937994 0.053711776 0.07667243 0.05916667 0.027811067 0.042325437 0.06293608 -0.038203865 0.083892286 -0.04688219 0.03173662 -0.1585145 -0.028159743 -0.03832662 0.02754923 -0.03774823 -0.09932028 0.013647995 -0.08580495 -0.005170721 0.015387414 0.14646415 -0.06799826 -0.031322073 0.011194297 -0.03035425 0.06810921 -0.006455532 -0.033857726 -0.024006827 -0.08227044 0.021213815 -0.080796026 -0.030813517 -0.05577648 0.09633473 -0.1665307 -0.054561388 0.028022384 -0.040050432 0.010203954 -0.026273979 -0.002166441 -0.063514225 0.07769005 0.088932194 -0.034091786 0.08643024 -0.13142222 -0.08577242 -0.02854265 -0.056146204 -0.0059189154 -0.059161626 -0.019304648 -0.027410112 0.042973753 -0.06797415 -0.03791115 -0.06214588 0.010736815 0.056044832 -0.012042306 0.052780855 0.13586818 -0.060266875 0.07347959 -0.02030518 0.053973075 -0.040247582 -0.018322203 -0.084339485 -0.053585593 0.03206313 -0.19858627 0.08697072 0.12423852 -0.107832775 -0.07749529 -0.084075406 0.00605669 -0.03954184 -0.07268742 0.07827377 -0.14989161 0.0984136 0.007339487 0.06015827 -0.07903203 0.029707571 0.015996864 0.044751927 0.031319696 0.040259313 0.12048828 0.019211909 0.012346698 0.16706255 0.1147791 -0.04974921 0.010198315 -0.023073232 -0.06556209 -0.031262677
Incisor Glider -0.36928567 -0.23624697 0.0046871705 0.11472032 -0.2548462 -0.106020354 -0.074696556 0.034465943 0.21472909 0.21671286 0.17654085 -0.05077208 -0.05456216 0.0031418898 -0.014745708 0.16777545 -0.014785963 0.11407378 -0.08542155 -0.075035885 0.063284524 -0.029743342 -0.12119224 -0.014364519 0.13606776 -0.21463951 -0.18065305 -0.25028762 -0.006861324 -0.0075074923 0.022797726 0.0705519 0.04444882 -0.019423373 -0.2556627 -0.07428137 0.060850255 0.08462975 0.18482049 -0.010820704 -0.007454988 -0.016639493 0.014782034 -0.07009372 -0.0012023338 0.0025805023 -0.016447773 -0.05878306 0.011532504 -0.02950327 0.043612696 -0.007834809 0.15733486 -0.080831535 0.10806627 0.1963171 0.040611744 -0.08624747 0.08490772 -0.012558824 0.044712402 -0.067159705 0.06895759 0.070704125 0.03409895 0.08097618 -0.13552547 -0.09284675 -0.0057503562 -0.046235263 0.021850023 0.053232044 0.037813842 0.0849319 -0.025762979 -0.10943402 0.14263882 -0.01961975 0.036351245 -0.06617664 -0.08595997 -0.012317118 -0.047637787 0.06237342 -0.10363682 -0.024586985 -0.050633483 -0.1047338 0.053195335 -0.05501023 -0.012397117 -0.07556004 -0.01378882 0.11627644 -0.0071209213 0.123826586 0.12935379 -0.036515087 -0.15267387 0.09442356 -0.09274617 -0.034268282 0.015646197 0.07516886 0.13550764 -0.055975087 0.05348759 -0.033137765 0.02325536 -0.022807093 0.013286629 0.25538257 -0.12346621 0.010083465 -0.059436217 0.18672468 0.10488631 -0.07163493 -0.010261499 -0.026415631 0.017001102 -0.048448306 0.09059865 -0.17034279 -0.03351639 0.14439459 -0.017964128 -0.13515984 -0.12126504 -0.05418259 0.010498227 0.09212731 -0.046544045 -0.05734647 0.086965114 0.0854668 0.09546277 0.030250987 -0.18003425 -0.058383904 0.12598072 0.13912019 -0.017840976 0.06443126 -0.066874936 0.03919632 -0.06228585 0.013466523 -0.08281376 0.03873092 0.1078807 0.02453615 -0.07085407 0.08124114 0.054963574 0.056285556 0.033931084 0.065258875 0.039929982 0.031903863 -0.0061903303 0.01899979 0.10883594 -0.11220395 -0.04641061 -0.05244595 0.047547325 -0.0704063 0.011973608 0.19255671 0.050463006 -0.10419567 -0.1512857 0.052300204 -0.16125602 -0.007857015 0.15886685 -0.21427715 0.027913986 -0.018798321 0.030102657 -0.076436184 -0.1938147 -0.08884499 -0.14946191 -0.05574059 -0.09003538 0.064877816 -0.13096763 -0.10189788 -0.034410145 0.08187328 0.19204184 -0.08768924 -0.077894755 0.04206145 -0.115818955 -0.0026028927 -0.06095509 0.11227254 -0.1450561 -0.12821461 0.057437975 -0.013459443 -0.13846688 -0.119804166 -0.088783205 -0.092373535 -0.049550734 -0.008304398 0.0542299 0.080036625 -0.07552194 -0.057097275 -0.14472151 0.031357702 0.17443548 -0.23502901 0.042690042 0.021669453 0.058232095 0.082890235 -0.023041738 0.06296057 -0.17352678 0.08143498 -0.13407609 0.3342762 0.11408838 -0.053084195 -0.291023 -0.053896945 -0.078051396 0.00051280187 -0.19535193 0.058500566 -0.018424867 0.011388025 -0.030318812 0.072105825 0.037908293 4.9359718e-05 -0.073068276 -0.037479877 -0.06836561 0.103644416 -0.11813907 0.19159004 -0.0013582929 0.145945 0.14223818 0.0017851795 -0.19415522 -0.022511682 -0.041651104 -0.24278563
Basilica Shepherd -0.4150334 -0.3012315 0.042850215 0.046389665 -0.2702912 -0.054521393 -0.058933612 -0.033832207 0.150881 0.19573915 0.15760633 -0.0703804 -0.06673283 -0.015466364 -0.056507193 0.08997131 -0.07441217 0.13846676 0.04692967 -0.07147248 0.114361756 -0.026662713 -0.08349711 0.0049348464 0.12733872 -0.23270176 -0.09732892 -0.20214123 -0.0339971 -0.046315435 0.07112464 0.111641996 0.024404958 -0.090126686 -0.19149041 -0.09598598 0.018309051 0.12605132 0.2593322 -0.051809903 0.019727036 -0.108322605 0.01145943 -0.08117895 -0.02859594 -0.08214529 -0.00641306 -0.0011856942 -0.04972197 0.0019922627 0.020043954 0.06058463 0.13528988 -0.08649474 0.15383013 0.1676078 0.09272625 0.0029073725 0.04576282 -0.016823126 0.032765076 -0.06525557 0.031045834 0.14538062 0.010795414 0.11345617 -0.16425173 -0.062205978 0.08624936 -0.116769746 -0.012583025 0.043969143 0.030642992 0.04454987 0.037532333 -0.22077039 0.16153196 0.047902174 0.026630428 -0.04331864 -0.048698373 0.020700885 -0.024527362 -0.03808893 -0.060012583 -0.00014794114 -0.029236833 0.0053059724 0.13868162 -0.0373104 0.016857045 -0.1603691 -0.06746263 0.12081367 -0.07202666 0.05036069 0.13473625 0.014870082 -0.1477744 0.14295445 -0.12000485 -0.006028661 -0.031412818 0.080634974 0.13081601 -0.0022903113 0.03315398 -0.05982945 0.10592596 -0.05666054 -0.007992622 0.044797484 -0.13606645 0.08828218 -0.041337423 0.09395067 0.14753804 -0.0124453055 0.016269848 -0.0011950673 0.023374785 -0.041070797 0.16460462 -0.1964607 -0.009861666 0.10859049 -0.028733507 -0.08154762 -0.016943408 -0.052234706 0.0051898677 0.1446556 -0.04851261 0.035875317 0.111739874 0.020064162 0.07388823 -0.06285647 -0.24262252 0.1118719 0.046743084 0.04061544 0.029871551 0.101835504 -0.121904075 0.079881236 -0.0774707 -0.094296776 -0.12804137 -0.008871593 0.18616185 0.011838428 -0.029796982 0.08636409 0.14685205 0.109458745 0.015687449 -0.0047498886 -0.015781218 0.007567658 0.014368193 0.0020794335 0.09099315 -0.12517494 -0.033662003 -0.0566134 0.08698045 -0.09939034 -0.038137004 0.1443817 0.08973009 -0.0704736 -0.08713083 0.056280244 -0.1394353 -0.10055665 0.16119002 -0.1811497 0.039648294 0.015986664 -0.029464131 -0.06629067 -0.1951665 -0.09867446 -0.08059978 -0.08034708 -0.056647405 0.073811635 -0.051619317 0.017917225 -0.013155306 -0.027330313 0.1506094 -0.14228432 -0.0766995 0.04886912 -0.2119363 0.14880893 -0.04560105 0.16886652 -0.21207218 -0.13212276 0.10677362 -0.023952315 -0.13118869 -0.16090141 -0.11340867 -0.05867937 -0.05306856 0.013855228 0.018471146 -0.055186093 -0.06963881 -0.024756994 -0.14852692 0.0038746505 0.10902118 -0.16725428 0.13040535 0.090725414 -0.025480676 -0.07209466 -0.08875946 0.08385649 -0.14116377 0.061774705 -0.09858842 0.31372878 0.08557858 0.05618006 -0.2486066 -0.008604649 -0.06334825 0.011572194 -0.18830954 0.012408306 -0.06556266 0.022036845 0.0056440094 0.118595086 0.015285199 -0.02110523 -0.033738587 0.08852266 -0.06980285 0.08260196 -0.09876313 0.22137651 -0.019190857 0.103593886 0.10494786 -0.017573902 -0.14363648 -0.04952972 -0.030302264 -0.17940474
Flensing Raptor -0.3753893 -0.21461254 0.013610143 0.002227098 -0.21411827 -0.025487535 0.013806836 -0.014862367 0.15620248 0.16261457 0.13596293 0.07113523 -0.11008486 -0.036382187 -0.12968814 0.147187 -0.010354348 0.09609075 -0.051166594 -0.07387009 0.13254982 -0.10936425 -0.138226 -0.0076464396 0.12380956 -0.14047241 -0.063814074 -0.20364322 0.00033093969 -0.08782019 0.070688106 0.02002302 -0.07272006 -0.051636927 -0.19629788 0.048097875 0.028551547 0.14665714 0.16080564 -0.020773215 -0.0055087702 -0.07134678 0.010541253 -0.025285268 -0.022048421 0.11115213 -0.0124987485 -0.044502538 -0.011545945 -0.05900059 0.029550346 0.009924151 0.09806957 -0.112274155 0.044715766 0.23247178 0.15263262 -0.049262833 0.11331454 -0.0656099 0.0056740176 -0.098072544 0.024559943 0.0072860126 -0.016569206 0.021006828 -0.14094634 -0.19467284 0.019598696 -0.21636477 0.16201437 -0.010649862 -0.06595422 0.074369065 0.014366954 -0.22492564 0.113103405 -0.03528086 0.027714929 0.014575252 -0.054756124 0.057896398 0.101683415 0.00792404 -0.046863344 0.010339208 -0.2483067 -0.022048822 0.09394763 -0.119322956 -0.08019149 -0.13188455 -0.084422894 0.108808756 0.00654469 0.0936382 0.17134069 -0.10713139 -0.20467515 0.14862482 -0.039785422 0.016915204 -0.0013060382 -0.008244382 0.22699913 0.023584532 0.062974915 0.0370881 -0.011921172 -0.014116153 0.1539431 0.11698585 -0.029999327 0.095578335 -0.11888849 0.04706255 0.04203082 0.010311458 0.070024274 -0.014059749 -0.008697425 0.07354641 0.050327454 -0.1611245 -0.1165012 0.17224993 -0.10582548 -0.07223402 -0.1386474 0.012714066 -0.020496706 0.07363865 -0.017115047 0.062105414 0.14362745 0.07246541 0.08236132 -0.04303428 -0.25620326 0.12792353 0.0768572 -0.033157025 0.07922889 0.12491691 0.01998374 0.18794395 -0.02906756 -0.018516483 -0.14446932 0.020755282 0.036991194 -0.1167505 -0.023437599 0.029046196 -0.022451825 -0.023360448 0.031937238 -0.012406818 -0.06398898 -0.04875394 -0.004555614 0.06576852 0.14484365 -0.2293261 -0.10067597 -0.018873286 0.09450206 0.01401122 -0.08278937 0.22783048 0.03671915 -0.10118203 0.0031308718 0.036086094 -0.096709006 -0.044791378 0.16037187 -0.12909739 0.04563266 -0.023593199 -0.011757861 -0.084859386 -0.1387564 -0.087684296 -0.1551354 0.011475555 -0.06596059 0.12516451 -0.045772903 0.09754189 -0.09978615 0.07022812 0.18986319 -0.12552276 -0.10819998 -0.018722728 -0.13128302 0.10560514 -0.010354013 0.17621553 -0.022370499 -0.15613116 0.11667185 0.04237382 -0.03414438 -0.059188057 -0.19035988 -0.07765174 -0.081007384 -0.10753255 -0.027361235 0.00014452972 -0.05949942 -0.08918835 -0.19579633 0.036950625 0.19815233 -0.30683842 0.020211313 0.090927295 0.106630646 0.020013627 -0.054984037 0.035423003 -0.20929673 0.009358251 -0.056377567 0.35423675 0.093077585 -0.06881645 -0.25470623 -0.05823911 -0.014287979 -0.017719878 -0.19175205 -0.044240784 -0.03708766 0.118356325 0.019288467 0.1523538 0.10549362 0.07005235 -0.050023157 -0.06722437 -0.07731132 0.07671202 -0.05814703 0.1759876 -0.057271108 0.05780546 0.018459292 -0.011747848 -0.1153012 0.039168317 -0.08252386 -0.27329555
Indoctrination Attendant -0.3731537 -0.3051499 -0.013020234 -0.016707074 -0.22189894 -0.017899508 -0.070931405 -0.01165537 0.11228759 0.13616218 0.20790383 -0.0925234 -0.086582966 -0.06251331 0.0052403104 0.15364839 0.0055153565 0.10003664 -0.05095088 -0.06721764 0.12866257 -0.0942413 -0.0918251 -0.054927323 0.1227788 -0.19931023 -0.07430562 -0.2607513 0.007562111 0.001349657 0.004485731 0.13973004 -0.028122177 0.029941143 -0.27832925 -0.059734356 0.053223304 0.14563543 0.24523678 -0.017909206 0.066721 -0.17128547 -0.015908375 0.0005692339 -0.033427607 -0.09362421 0.038100556 -0.047719646 -0.04873778 -0.073516116 0.040826824 0.026998736 0.053770177 -0.10251021 0.08852664 0.21060328 0.095173426 -0.1195807 0.16218983 0.013779104 -0.021333583 -0.17229015 0.0027644993 0.0575785 0.049665686 0.050089642 -0.21306722 -0.14244407 0.034617968 -0.10938215 0.103352815 -0.0057814205 0.03230195 0.11939875 0.025932696 -0.15472186 0.12718338 -0.06006729 0.07444175 -0.024407335 -0.042398844 0.05414388 -0.038333848 -0.045001466 -0.0030363884 0.0045423196 0.0069955015 -0.018630132 0.12187594 -0.1066115 -0.058179926 -0.07031053 -0.1129289 0.12349977 -0.0005597354 0.06824647 0.20105396 0.015230965 -0.15392047 0.22470587 -0.05463937 -0.029021729 -0.048951168 0.053273804 0.086458184 -0.011569787 -0.057075474 -0.123161234 0.13582613 -0.007954563 0.010676288 0.12929614 -0.13650706 0.055757787 -0.058314636 0.12205271 0.07138025 -0.09703615 0.08971042 -0.017881496 -0.041810412 -0.03299562 0.07878103 -0.1323978 -0.07877682 0.06456506 -0.05050771 -0.11101305 -0.078499585 -0.04726732 0.022445656 0.16880943 -0.09661848 0.036111984 0.1202329 0.023541773 0.032372218 0.0057083853 -0.17454508 0.047826443 0.03659394 0.08162657 0.0800455 0.008773277 -0.09543113 0.21278974 -0.08021721 -0.07500971 -0.05781601 -0.0768605 0.121381074 0.031945556 -0.08772283 0.08650852 0.113045104 0.06703579 0.08665139 -0.0064735753 -0.014487261 0.01877942 -0.06673739 0.0788797 0.09096999 -0.16159897 -0.08926997 -0.06653571 0.02919705 -0.08333643 -0.012648726 0.2029494 0.100452825 -0.027577415 -0.16277884 0.06560825 -0.16296808 -0.04826151 0.09669713 -0.20701034 0.023836534 -0.02059638 -0.007368285 -0.083989285 -0.1930095 -0.05590217 -0.11352345 -0.046769798 -0.016358826 0.070133194 -0.023413392 0.01441747 -0.04378108 0.04245592 0.15171571 -0.10432527 -0.0716877 0.030869441 -0.19421315 0.09240144 -0.055064116 0.10272149 -0.027507346 -0.19511968 0.040265817 -0.011464537 -0.03547835 -0.12280525 -0.097298525 -0.033702582 -0.059011552 -0.056708325 -0.012357693 0.008360618 -0.019820573 -0.055200554 -0.124702394 -0.00096588203 0.1124676 -0.14273983 0.113740176 0.094641656 0.10561231 -0.017332207 -0.05827303 0.06620954 -0.14047661 0.015934449 -0.13190374 0.3128398 0.059758574 -0.04271285 -0.23163322 -0.0552326 -0.06047353 0.01628965 -0.18346815 -0.083969384 -0.017750325 0.06796341 0.06534824 0.1669559 -0.062384315 0.014045562 0.025005756 0.08414213 -0.0776341 0.026442774 -0.09537823 0.15350789 -0.053289134 0.09207271 0.09865292 0.02392358 0.00093702547 -0.052270383 -0.09884 -0.23813438
Anoint with Affliction -0.19504175 -0.36463213 -0.008149207 0.23541006 0.17655234 -0.0589757 0.09093185 0.08677466 0.035404034 0.13400964 0.33959022 0.14362064 -0.03382072 0.0509889 -0.048809294 -0.00314163 0.023387615 0.14944081 0.110911556 -0.064694054 0.045371603 0.056438442 -0.028314816 -0.031387914 -0.066454545 -0.07050962 0.049309418 -0.06297436 0.045937467 0.06681602 -0.013892686 -0.10301279 -0.02817373 0.0734083 -0.07509313 -0.028682206 -0.011079435 0.03993731 0.054479446 -0.027850965 0.005782442 -0.057312246 -0.07804845 -0.0422484 -0.11137538 -0.12796587 0.004069015 -0.011897203 -0.068092555 -0.042743873 -0.104967944 -0.022424744 -0.043003347 -0.06529703 0.11198037 -0.043617092 0.09708731 -0.03863891 0.2110027 -0.008685619 0.13623846 -0.08455182 -0.12655348 0.096329354 0.049538303 -0.024676763 -0.017068893 -0.17144671 -0.12111627 -0.14532652 0.20091529 -0.06811445 0.0007824327 -0.09164481 0.057967514 -0.06907911 0.034390155 -0.05622002 -0.037193533 0.049047243 0.03247701 0.08704977 0.06116448 0.046048664 -0.0440994 0.065544076 -0.06448569 0.023884391 0.017950598 0.024502566 -0.12854372 0.008397127 0.110235445 0.03740357 0.19258703 -0.05680325 -0.038230687 -0.020377483 -0.0762171 0.096460894 0.032784056 0.12330258 -0.035393447 -0.016995443 -0.009620794 -0.045601368 -0.11087439 -0.0054584728 0.02192181 0.056044593 0.04916903 0.04523529 0.11968968 0.066062324 -0.085459754 -0.05743611 0.0131958965 0.030572677 0.062206186 -0.07371594 0.007562766 0.0050376668 -0.010289459 -0.064310096 -0.021966409 0.11725047 -0.08449073 -0.08860251 -0.06984074 -0.06278563 -0.111119084 0.131314 -0.07629655 0.003297328 0.090697594 -0.019957585 0.18473619 -0.08449175 0.03932773 0.084175564 0.047089793 0.05604849 0.030882929 0.1280438 0.31538448 0.08426349 0.15084201 0.1209546 -0.073758185 0.030152408 -0.03541518 -0.13337028 -0.0081562875 -0.058730174 0.052269597 0.02441236 -0.082896695 -0.082301706 -0.13392574 -0.09793898 0.17195606 0.038303338 0.021975717 0.067102715 0.0032389641 0.052011814 0.047773417 0.035232376 -0.0033703675 0.123415194 -0.11043687 -0.03543415 0.029475128 0.07473336 -0.02549986 -0.13863517 0.06278623 -0.05813605 0.10093209 0.15554643 -0.08227801 0.0036223806 -0.018711314 -0.018631075 -0.048094448 -0.08919342 0.057051145 0.09247918 -0.1058152 0.1166048 0.06948325 0.035640325 0.02170273 0.013360242 0.02744279 -0.0007539244 -0.0159679 0.027888972 0.036869526 0.17997971 -0.052994255 -0.08011763 0.085102245 0.08338473 -0.068100184 -0.05615343 -0.0768239 -0.05573464 -0.012781919 0.023406535 -0.07505943 0.020648804 0.005964473 -0.06462668 -0.052287206 0.08384143 0.104966216 -0.19558671 0.0056754844 0.023576109 0.14911295 0.035010103 -0.06891536 0.008790132 -0.032040626 0.029159056 -0.039407987 -0.005054791 -0.099346295 0.006244078 -0.06690429 -0.14805683 -0.027240777 -0.109262094 -0.029114807 0.04366206 0.052332964 -0.09346232 -0.16023146 -0.033038735 0.020849958 -0.061784 -0.039844904 -0.05645562 -0.06363805 -0.059348043 0.057253648 0.0047969935 -0.003342906 -0.099503964 -0.0874356 0.010777431 0.05166923 -0.029030252 0.045564365 -0.0651598
Blazing Crescendo -0.3440969 -0.49559265 0.05465531 -0.5267769 -0.14743954 0.08571574 -0.06794695 0.08094176 0.025500353 0.2953541 -0.329846 0.009786242 -0.23955625 -0.1614604 -0.038310565 -0.06860961 -0.13768537 0.22601372 -0.15959772 -0.1354495 0.122562155 -0.03767666 -0.069853246 -0.017181255 0.0511845 -0.05560279 -0.20531827 -0.03900818 0.03929135 0.15148495 0.02738037 0.06803435 0.010171403 0.018224763 -0.108355634 0.038001597 0.0019881818 0.10114462 0.10923205 -0.0755335 0.008928688 -0.047831383 -0.24320975 0.0772773 -0.13502453 -0.17151731 0.008885455 0.021033315 0.21796238 -0.0626886 -0.0852515 -0.15776125 0.19186315 -0.07792403 -0.0999253 0.059082508 0.08103671 0.045494676 0.009459768 -0.11989075 0.021032091 -0.004104824 -0.10512562 -0.005461722 0.16031393 0.10491336 -0.16995949 0.01609808 0.032138392 -0.022373328 0.16502067 -0.17324063 -0.22607939 0.102296 0.053002406 -0.106955506 0.10068674 -0.09115816 0.065504685 -0.11915132 0.13008262 0.15429817 -0.06542578 0.11901631 0.019240275 0.037520833 -0.13324353 -0.008457713 -0.15225554 0.11752289 0.16005081 0.013496502 0.09479176 0.008810345 0.050139416 -0.036024183 -0.10722664 -0.043693006 -0.2595623 0.20364375 0.120130494 0.13002653 -0.07449513 -0.031089673 -0.0684019 -0.07212107 0.0013092586 -0.04861635 0.14401509 -0.033952396 -0.18892837 -0.07044564 0.0530027 0.015982287 -0.03883584 0.13139546 0.05123739 0.12473826 0.15061465 -0.16593745 -0.024291148 -0.045904327 0.10448646 -0.10348961 -0.13088395 0.18542217 -0.05479737 0.043323915 -0.022621779 0.053616226 -0.20575151 0.09002294 -0.09107511 0.10332996 -0.03239823 0.09825361 0.057316296 -0.0056055123 -0.10476573 -0.054911107 -0.08446189 0.025641901 -0.039122615 0.15679044 -0.09507657 0.04557646 0.09855204 -9.4164316e-05 -0.03397002 0.13784282 0.051008735 0.044163927 0.21746507 0.07500392 0.06974762 -0.14308053 0.21390112 0.028700605 0.045192864 -0.035174474 0.13543738 0.20329235 0.14170231 -0.013076059 -0.115358815 -0.1014527 0.13956791 -0.036003318 0.00812528 0.2782239 0.15845937 0.027248947 -0.3042468 0.1281427 0.009446008 -0.14979436 -0.058786783 -0.18149337 -0.06740035 0.17634937 0.07746423 0.11612657 0.18935226 -0.10816472 -0.095355235 -0.049370535 -0.09008875 -0.006423208 -0.26024514 -0.020947812 0.14690606 -0.275359 0.07574652 -0.066017725 -0.10754228 -0.12326785 -0.032155097 0.29902056 -0.021549035 0.09334431 0.040172845 -0.23791748 0.10815225 0.024040412 0.04954965 -0.09021396 -0.026740862 -0.12596788 0.02322512 -0.085559495 -0.058398683 -0.038762372 0.10113967 -0.08745026 0.057663422 0.11488179 0.072683334 -0.08712844 0.03936681 0.035310075 -0.114092216 -0.049550377 -0.086291924 0.0079165 -0.00518562 -0.12526806 -0.17429005 0.105465166 0.110104576 -0.026239697 -0.050123572 0.09668441 0.1280198 0.19691573 -0.15571755 0.19328201 -0.07042231 -0.0010960939 0.06786881 -0.16800043 -0.09967034 -0.120815486 0.07958993 0.017894197 0.06266123 0.05560843 0.046942964 0.17124961 -0.10683778 0.024676826 0.12097037 0.02928015 -0.032643408 -0.033822633 0.08967031 -0.016347125
Oil-Gorger Troll -0.35588813 -0.54149526 0.18506561 -0.24776174 0.0001392818 0.2702647 0.10355812 -0.14294486 0.18505348 0.30358073 0.04655075 0.2057322 -0.36347377 -0.11449974 0.25347123 -0.0084972605 0.017364258 0.09695284 -0.14614809 -0.44851747 -0.027763175 -0.023592183 -0.043378115 -0.07220013 0.17285521 0.026703097 -0.040495723 -0.021250105 0.1938821 -0.0060344297 0.06642748 -0.082063645 -0.0151170865 -0.02189389 0.009568785 -0.073010616 -0.15756895 0.24247512 0.007535548 -0.14953536 0.0969582 0.11161763 -0.1510529 0.3299524 -0.054234065 -0.12945955 0.20198706 -0.16681913 0.18326993 0.08012292 -0.06563485 -0.13045892 0.06941397 0.091185674 -0.16744128 -0.21384951 0.116091885 -0.027098622 0.23557943 -0.15798874 0.104365 -0.007760037 0.085222945 0.11957655 -0.010497777 0.0799365 0.024385693 -0.09118218 0.028257044 -0.178877 -0.018668206 -0.22361466 -0.19618516 0.12046548 0.010945398 -0.028158614 0.079435825 -0.013719481 -0.046862602 -0.006912248 0.13268141 -0.008489549 0.1364129 0.019814184 0.15141337 0.011713792 -0.012787433 0.013342798 0.05405157 -0.04232191 0.07065749 -0.27174696 0.005159334 0.046561893 0.043219082 -0.0008384283 -0.17311953 -0.03894782 -0.33021393 -0.040810995 0.037682217 0.054347005 0.100272074 0.08899487 -0.12411395 -0.05564633 0.043405574 -0.30028468 0.032908026 0.06331285 -0.35414767 -0.09701115 0.09569845 -0.029131465 0.041476883 0.05269527 -0.00868706 0.023443272 -0.0044071963 0.038531754 -0.035954975 -0.09112494 0.07277104 0.05083668 -0.057584904 0.05768227 0.033437435 -0.18089491 0.23767379 0.17585209 -0.0022743794 0.07052188 0.003455678 0.13876946 0.09993266 -0.08040326 0.17053552 -0.104328796 0.07439181 -0.09562086 -0.07613214 -0.09899019 -0.018922955 0.22638562 0.11186842 0.27943745 0.07670728 0.114664845 -0.060181867 0.08466653 -0.080996804 -0.16840744 -0.03800977 0.11735855 0.110236704 -0.24120641 0.22572896 -0.08750916 -0.06511984 0.012707657 0.007619308 0.25214407 0.07097133 0.17441162 0.03474773 0.036131006 0.09846301 -0.2667046 0.10375822 -0.10299869 0.039580442 -0.0535774 0.050629683 0.008015635 0.10635382 -0.13903482 0.053724438 -0.12202394 0.15998852 -0.0016487513 0.08603288 0.21536912 0.14459597 -0.098671064 -0.15475695 -0.029963268 0.12153192 -0.0040226704 -0.10578639 0.18163735 0.10609149 -0.16290857 -0.24036986 0.08436192 0.029144514 -0.18669555 0.00838352 0.15599024 -0.10966307 0.047608737 0.1471718 -0.20241824 0.18934849 -0.05080632 0.07580326 -0.05194278 0.02462537 0.10396961 0.046127345 -0.20244376 0.026227478 -0.09680607 0.25075468 -0.030428028 -0.07431862 0.14421245 0.21739765 0.0032188278 -0.06303753 0.09766021 0.104228094 0.068074845 -0.031204568 0.05072706 -0.054793887 -0.15400897 -0.022458024 -0.009498977 0.16825682 -0.022434227 -0.032763574 -0.004845992 0.09949508 0.08790723 0.06041211 0.1658011 0.11436677 0.06691046 -0.08659406 -0.18050699 0.06337577 -0.16967943 0.0012663022 -0.0022186104 0.26349485 -0.06803858 -0.061073605 0.1543188 -0.28141907 0.17448682 0.0883432 0.11356246 -0.14719634 0.12925537 0.16371053 0.26834995
The Autonomous Furnace -0.44510248 -0.45957693 0.10652602 -0.3347234 -0.074603215 0.24451846 -0.014867701 -0.078589775 0.037891656 0.38263145 -0.14444454 0.01941781 -0.18012625 -0.071133904 0.02409757 -0.051498443 -0.015888209 0.22702807 -0.15712371 -0.11252844 0.15201496 0.08526893 0.061038952 -0.038807563 0.05277534 -0.011672227 -0.223034 -0.035887152 0.07468441 0.23049326 0.08376674 0.014821899 0.019088056 0.022960702 0.0029006142 0.051634 0.039849173 0.20978351 0.07805419 -0.11874304 -0.06593489 0.003942338 -0.17656876 0.16850792 -0.017997252 -0.20095024 -0.033001482 -0.045387473 0.22250293 0.09393862 -0.118503265 -0.031703733 0.1326022 -0.049382135 -0.14900652 -0.044943344 -0.0399766 0.096665 0.032597844 -0.09982745 0.042181935 -0.060319323 -0.13670333 0.050544877 0.08623811 0.037868675 -0.10333472 -0.013401646 -0.034759592 -0.02157539 0.17708999 -0.14419657 -0.20301624 0.114099875 0.027973816 -0.07703824 0.011578259 -0.11574269 0.15701587 -0.067138396 0.067946136 0.10242716 -0.006847712 0.067448705 -0.057793356 -0.029328862 0.09533225 0.059041306 -0.098367706 0.021930706 0.097532436 -0.04640922 0.059020784 0.047052793 0.024760138 0.055529322 -0.14213154 -0.037879936 -0.10730788 0.12092441 0.09557026 0.1063863 0.038105223 -0.019042807 0.0018083794 -0.064027734 -0.008181409 -0.026070192 0.02652237 -0.07755786 -0.07580138 -0.09798152 -0.023585623 -0.0059839813 -0.002344237 0.036261696 0.05138928 0.124438845 0.15202314 -0.09030976 9.670083e-05 -0.071246095 0.06340015 0.05023121 -0.08752862 0.081551366 -0.066030264 0.04266008 0.02592498 -0.028011883 -0.11391396 0.05126866 -0.07905825 0.17390816 -0.04448244 0.07934778 0.048013527 0.05895912 -0.036093224 -0.09712517 -0.13986692 0.05089761 0.007272952 0.20773947 -0.08513237 -0.05954705 0.09005172 0.00409282 0.051003244 0.05168666 0.06249089 -0.012320652 0.14306442 0.12054584 -0.026594564 -0.10552821 0.09680519 0.0988703 -0.020377597 -0.08188067 0.117427096 0.21032523 0.09620743 0.07639944 -0.100048944 -0.065368295 0.12197648 -0.065441824 -0.09348545 0.20540541 0.037608728 -0.079988666 -0.22299004 0.04192476 0.11520864 -0.2770748 -0.004998906 -0.08562966 -0.07175444 0.09118905 0.098103315 0.0033027017 0.22700873 -0.15938325 -0.18198125 -0.0067800726 0.026058132 0.005384437 -0.17315026 0.016340002 0.016713113 -0.2950116 0.039618127 0.040693335 -0.031962574 -0.123304546 0.03361361 0.17011875 0.042171333 0.080933265 0.11938426 -0.12810725 0.11158193 0.0316521 0.042805593 -0.025591277 0.10532417 -0.16299278 0.07536307 0.052800763 0.010642643 -0.12357989 0.12816507 -0.04187845 0.059614867 0.049208213 0.12505426 -0.07181472 0.06062501 -0.014217282 -0.027987838 -0.049190994 -0.1075524 -0.09736699 -0.023873504 -0.052901752 -0.1480283 0.086924404 0.06697492 -0.034815382 0.01025435 0.12056653 0.089362375 0.18936655 -0.04515203 0.2467375 -0.074804805 0.0036635206 0.029529769 -0.14295277 -0.15202454 -0.054743655 0.04340431 0.075439684 0.10082853 0.037058223 -0.028204618 0.135673 -0.12760618 0.06477238 0.19629465 -0.071821146 0.009205016 -0.0010967983 0.1305702 0.029473668
Free from Flesh -0.35454625 -0.49771377 0.013840654 -0.49967375 -0.27958283 0.12656753 0.025759311 -0.08315633 -0.14623371 0.3307464 -0.3343073 0.0052722893 -0.26444754 -0.14385572 0.0054359613 -0.10572518 -0.16772737 0.22498278 -0.23898242 -0.2412206 -0.0125618465 -0.08494892 -0.03612642 -0.016594646 0.06687352 -0.011796038 -0.246569 -0.002956527 0.02314356 0.12992683 -0.03856468 -0.019423928 -0.118832424 0.106374085 -0.116361015 -0.0130468 -0.056026842 0.13755412 0.06332456 -0.15452033 0.13246378 -0.0136714345 -0.17091706 0.18291488 -0.09050717 -0.14658514 0.09374249 0.041831 0.24267067 -0.019802816 -0.18315385 -0.08939145 0.23133746 -0.0462332 -0.1671124 -0.016185591 0.048195824 0.063077815 0.04572542 -0.20438309 -0.0029156716 -0.038501807 -0.17802413 0.087162666 0.08000292 0.12996069 -0.0378698 0.02624417 0.031528175 -0.10141983 0.11702822 -0.23353085 -0.18840587 0.027095366 0.026109956 -0.05157479 0.082435854 -0.06831951 0.12523404 -0.10827445 0.1475747 0.14781044 0.025014527 0.19666143 0.05229486 0.0405681 -0.11394969 -0.024212811 -0.08398318 0.15845849 0.07197334 -0.0013720851 0.22063528 -0.034905776 0.14748548 -0.04681341 -0.022910886 0.009994125 -0.22463863 0.05636147 0.14579651 0.08291095 0.020767847 -0.019213922 -0.09199451 -0.10371957 0.06162524 -0.11685099 0.10988713 0.06554815 -0.24911398 0.05622727 0.03985539 0.036719617 -0.04856298 0.07810049 -0.011755644 0.05599835 0.10451436 -0.0654242 -0.057656042 -0.062183984 0.09377608 0.012671041 -0.09539712 0.08790859 0.040519416 -0.031958748 0.07062231 0.0136577785 -0.09261794 0.059981786 -0.122325025 0.12248253 0.076669924 0.09425624 0.073740914 -0.04431428 -0.062238865 -0.06547857 -0.098776475 -0.08808736 -0.011954482 0.19705082 -0.09388751 0.08089439 0.12232108 -0.015825022 -0.091297485 0.115322895 0.05818297 -0.047756314 0.15681821 0.17502019 0.0020700207 -0.27044338 0.18418473 -0.02676496 -0.020952746 -0.0042189993 0.1894102 0.21064873 0.1352152 0.118182614 -0.05886912 -0.0585822 0.14497955 -0.18029284 -0.011920767 0.19986452 0.08363503 0.015956726 -0.32014456 0.1531603 0.0451788 -0.22248556 -0.042945478 -0.23800698 -0.033866316 0.22696601 0.18991464 0.060157668 0.18624535 -0.10437435 -0.17736523 -0.05904209 0.044251043 0.050941546 -0.15462548 -0.0301897 0.16658355 -0.35333478 -0.05206586 0.10185856 -0.03855642 -0.17614728 0.03264709 0.12027903 -0.027362527 -0.016788958 0.0808356 -0.2347189 0.10368779 0.018813748 0.009141473 -0.025778523 0.0015081776 -0.14783719 0.0059403135 -0.11033848 -0.054598145 -0.011998183 0.16814235 0.008224505 0.1176731 0.09872477 0.11967782 -0.06394545 -0.00219046 -0.042791307 -0.11900162 0.010298586 -0.16520326 0.029174406 -0.0110526765 0.0012914516 -0.27993658 0.12226502 0.083244026 0.058045775 -0.06551996 0.08434726 0.14240296 0.17461297 -0.08010676 0.32736984 -0.059464466 0.059250463 -0.010723842 -0.14081368 -0.10357848 -0.13960165 -0.005572518 0.056004703 0.10947858 0.08263832 -0.020242782 0.1237803 -0.11856452 0.023664366 0.29901615 0.036196657 -0.005646803 -0.0053731464 0.19315237 0.13354102
Charge of the Mites -0.37523472 -0.24560341 5.954668e-05 0.07110371 -0.27038026 -0.15021491 -0.016623257 -0.021331394 0.1138145 0.17047612 0.18796922 0.006090222 -0.08810168 -0.02292113 -0.119637296 0.17315255 -0.10330436 0.06708131 -0.06354276 -0.09767515 0.079375006 0.012434286 -0.08205232 -0.008395889 0.07777585 -0.21877423 -0.11566506 -0.22902049 -0.0814343 -0.006483423 0.09000687 0.06843834 -0.007991422 -0.028757382 -0.17897034 -0.054222584 0.036902532 0.068155594 0.19576144 0.021886785 -0.007196212 -0.009588023 -0.0462247 -0.07957029 0.0138705615 -0.07704733 -0.038488556 0.015007124 0.030144371 -0.05845889 0.0019260623 0.06455075 0.13553391 -0.107071236 0.06252761 0.24040277 0.06582389 0.035673883 0.08748199 -0.054614346 0.07406078 -0.1523529 0.1032818 0.058826003 -0.019587958 0.06883723 -0.15771733 -0.07804134 0.10910716 -0.04800674 -0.032289755 0.03215201 0.04566019 0.14647754 -0.021585472 -0.18364978 0.1395925 -0.0661368 0.06740477 -0.06898424 -0.093501315 0.059086785 0.010780588 0.041840438 -0.13395251 0.056172293 -0.006679195 -0.06705865 0.09621195 -0.08355315 0.045551904 -0.06679533 -0.046495467 0.03735503 -0.022548812 0.03642569 0.138408 -0.047745533 -0.023816312 0.09976647 -0.06851869 -0.04948937 -0.011810065 0.120508716 0.08707866 -0.062037934 0.01760492 -0.042341765 0.10539019 -0.017829608 0.047086507 0.05088884 -0.09572984 0.029035129 -0.014516152 0.15128769 0.05184203 -0.06589581 0.0003286463 -0.017750438 0.014724632 0.038714338 0.14473826 -0.15246002 -0.007889756 0.18827896 -0.03555668 -0.11276447 -0.08826613 0.010412451 0.09175404 0.115864076 -0.021382304 -0.05876596 0.06452651 0.01830522 0.17610303 0.04150683 -0.19065036 0.037646785 0.13963968 0.13986169 0.042954843 0.07066215 -0.09306362 0.11995616 -0.044947967 -0.024656866 -0.14915207 0.027131436 0.09938282 0.022757176 -0.0690009 0.055850945 0.11597338 0.016446322 0.044189095 0.021980036 -0.061228424 0.007998826 0.0064092404 -0.0173675 0.097996384 -0.12593178 -0.11822907 -0.05558408 0.025181042 -0.043555323 -0.03224029 0.2212318 0.11668924 -0.10051095 -0.1132889 0.020939313 -0.112248905 -0.12951168 0.19931847 -0.20859568 0.037472386 0.06114853 0.025076447 -0.059753254 -0.19392253 -0.008038496 -0.17784885 -0.10521465 -0.10972211 0.03258357 -0.03452609 -0.07260151 0.017656505 0.06800438 0.10914342 -0.07192309 0.002885181 0.11989847 -0.22736916 0.06739121 -0.093636625 0.0343314 -0.06493616 -0.14445928 0.045585603 0.025805878 -0.12568794 -0.057439443 -0.16169693 -0.04920314 -0.050782423 -0.089191996 0.10957772 0.072690204 -0.06143265 -0.019204205 -0.10071174 -0.06326528 0.1406593 -0.18747498 -0.006762609 0.13364635 0.022154871 0.01934085 -0.10923415 0.15166286 -0.12434861 0.07380283 -0.1597637 0.324364 0.13183652 -0.03436371 -0.32879537 -0.0037733198 -0.08339648 0.003944851 -0.20689191 0.041504964 -0.0709588 0.08299123 -0.042088963 0.13688916 -0.020659832 -0.0115258945 -0.06709785 -0.055778593 -0.14045393 0.1617701 -0.082279734 0.15179497 0.0010425053 0.08449496 0.12553746 -0.0054274136 -0.0420948 0.042574573 -0.056402978 -0.1284099
