,0,1,2,3,4,5,6,7,8,9,10,11,12,13,14,15,16,17,18,19,20,21,22,23,24,25,26,27,28,29,30,31,32,33,34,35,36,37,38,39,40,41,42,43,44,45,46,47,48,49,50,51,52,53,54,55,56,57,58,59,60,61,62,63,64,65,66,67,68,69,70,71,72,73,74,75,76,77,78,79,80,81,82,83,84,85,86,87,88,89,90,91,92,93,94,95,96,97,98,99,100,101,102,103,104,105,106,107,108,109,110,111,112,113,114,115,116,117,118,119,120,121,122,123,124,125,126,127,128,129,130,131,132,133,134,135,136,137,138,139,140,141,142,143,144,145,146,147,148,149,150,151,152,153,154,155,156,157,158,159,160,161,162,163,164,165,166,167,168,169,170,171,172,173,174,175,176,177,178,179,180,181,182,183,184,185,186,187,188,189,190,191,192,193,194,195,196,197,198,199,200,201,202,203,204,205,206,207,208,209,210,211,212,213,214,215,216,217,218,219,220,221,222,223,224,225,226,227,228,229,230,231,232,233,234,235,236,237,238,239,240,241,242,243,244,245,246,247,248,249,250,251,252,253,254,255
Mountain,-0.08120434,-0.13902925,0.08865379,0.11562092,0.0055565527,-0.12634756,0.043525558,-0.20741744,-0.24601379,-0.18859528,0.07922982,0.05699507,-0.23699436,-0.07872822,0.09830552,0.034202877,0.15421969,-0.073523484,0.11558568,-0.21475476,0.28470203,-0.03653778,-0.088873714,-0.07116026,0.1545545,0.00014279451,-0.1894325,0.054458354,-0.02747599,-0.11943818,-0.14204797,-0.17763698,-0.05553046,0.02067556,0.14826117,0.09147272,-0.0837929,0.05292766,0.050505795,0.034862295,-0.14831688,-0.1409203,0.13701904,0.08757011,0.002850386,-0.03113626,0.027926853,-0.03295555,-0.0133654,0.13094541,-0.07650886,-0.056585614,-0.044636946,0.057343766,-0.100793,-0.15316832,-0.0418621,0.087532096,-0.18961628,0.061832618,-0.007698541,-0.04768264,0.13834658,-0.12754056,-0.0015577585,0.08592223,-0.037352215,0.04352286,-0.12920186,0.14044103,-0.05614803,-0.049881686,0.064040504,-0.041311476,0.15896842,-0.21537052,0.038392123,0.060580343,0.07091359,0.14749992,-0.13531874,-0.049508177,0.0651635,-0.0775573,0.08317608,0.11273012,0.131213,-0.08630945,-0.057813894,0.055724435,0.04204774,-0.036268387,0.0058552683,-0.06377314,-0.12221459,0.057533756,-0.21940532,0.059521575,-0.1661805,0.0063716327,-0.1016895,-0.11823993,-0.20157607,0.071637966,0.36656737,-0.04916748,0.23319684,0.03974324,0.10829827,-0.07055512,-0.050029222,-0.04639752,0.046929084,-0.18457374,-0.022349099,-0.05203058,0.05025261,-0.20958026,-0.03708917,0.02322893,0.2752763,0.06548212,0.08174897,-0.16874143,0.09059888,-0.001744908,0.018039914,0.20321985,-0.10015795,-0.12773232,0.08520537,-0.2603848,0.23463795,0.11533022,0.046081554,-0.004230995,-0.12010043,-0.2136368,0.0081444215,-0.054511964,0.14979818,-0.02527263,0.012653452,0.0072071366,-0.044240326,-0.12454511,-0.13343112,-0.01708061,0.1435894,0.0015026566,0.12736799,-0.070346594,0.08472906,-0.047555592,-0.005162672,-0.123574995,-0.06934225,0.048986256,0.08213962,0.07463814,-0.06208072,0.077549644,0.08178637,0.046602625,-0.13724127,0.020524744,0.07812279,-0.09582073,0.19330241,-0.0075240266,-0.050454244,0.005519893,0.10434875,0.16219473,0.07374886,0.06392855,0.02381254,0.14726081,-0.09925387,0.088210836,-0.053411298,-0.011957804,-0.19967856,-0.09224315,-0.013889328,-0.08850829,0.08640572,-0.08658665,-0.03519524,0.009719151,0.12063637,0.20734276,-0.06271625,-0.025040755,0.04716853,0.029853063,0.045943886,-0.029021252,-0.07793754,-0.008854166,-0.04525712,-0.027421234,-0.00360623,-0.05908699,-0.01566518,0.06631325,0.03674955,0.008641973,-0.14121135,0.21485537,0.15253809,0.13113481,-0.038309224,0.11710812,-0.10470114,-0.081626244,-0.11175759,-0.09287184,-0.014855966,0.109835535,-0.009710318,-0.09274443,-0.040771347,0.14015938,-0.09180444,0.015734512,-0.017983723,0.0146119185,0.07582902,0.008684842,-0.046303045,-0.015751662,-0.12830149,-0.050933924,-0.101292886,0.055335756,0.00928302,-0.01543929,-0.072472654,-0.062998205,-0.06056922,-0.11580659,-0.031514846,-0.02480841,0.24088813,0.05222353,0.13068724,-0.16635036,-0.05838191,0.05514744,-0.05722971,-0.16012803,-0.06904288,-0.041731134,0.197723,0.17904623
Plains,0.0010815447,-0.03379581,0.046883628,-0.0056834957,0.051137283,-0.18821877,0.049434703,-0.15318644,-0.22323811,0.006853684,0.114390925,0.109746225,-0.20714033,-0.06792856,0.046744924,-0.065863736,0.0779142,0.10066171,0.2241295,0.028708473,0.41809177,-0.014588465,0.012932093,-0.07383525,-0.03094772,-0.013675199,-0.2844079,0.0018479776,-0.0845926,-0.13904704,-0.10197869,-0.1547288,-0.07523161,0.02733041,-0.02643788,0.039089184,0.04022999,-0.13586132,0.1492991,-0.09755555,0.051907454,0.05520356,0.096239716,0.019888543,0.012166437,0.04037367,0.15381685,0.012632876,0.080038816,-0.01782221,0.04696466,-0.114063054,-0.08572316,-0.11969516,0.034162164,0.11004339,-0.10557884,-0.0937489,-0.18605126,0.04787526,-0.0029539082,-0.044792823,-0.12336759,0.047180783,-0.19205327,0.0014792111,0.09525034,0.1702722,-0.08046592,0.022137055,-0.115923285,0.05366557,0.08349495,0.045848157,0.023391766,-0.1690666,-0.06370258,-0.032600824,0.17226933,0.16180728,-0.030874928,0.006222921,-0.04511728,-0.015765546,-0.035928853,-0.018035427,0.096517965,-0.016614586,0.07912591,0.020520411,-0.10095521,0.01727186,-0.09953182,-0.115908995,-0.024955796,0.054562557,0.10640333,0.0030047838,-0.024407243,0.093753144,0.0467905,-0.11807587,0.008748526,-0.100077316,0.07320833,0.08916087,0.09583387,-0.07664377,0.051646832,-0.036511462,0.00030609037,0.049756233,0.001795246,-0.060461372,-0.082859956,-0.06535679,-0.030145556,-0.10826725,-0.01121546,-0.08753842,0.04627758,0.06909035,-0.1767868,-0.09526527,-0.18638334,0.045124553,-0.030084416,-0.060096543,-0.008768818,-0.13324153,0.030480618,-0.10902047,0.10178882,0.12842795,-0.061946157,-0.023882706,-0.14199342,-0.03912654,0.091658846,0.051919524,0.047442347,-0.031509656,-0.112798214,-0.03386096,-0.026611965,2.6219031e-05,-0.2337574,0.008371624,0.017648712,-0.12820198,0.09834778,0.22518612,0.15099612,0.02837118,0.04645869,-0.09105073,-0.16127461,0.066327184,-0.050236803,-0.078702144,0.013911384,0.10840194,0.112531394,-0.01243108,-0.09116469,-0.08083971,0.07612616,0.037474547,0.044586036,-0.097193785,0.010149778,0.05770154,-0.0012901245,-0.076570086,0.14618693,0.072704755,-0.013528509,0.042049978,0.0021004272,-0.058700543,-0.006648852,0.10286459,-0.051991936,-0.13248283,-0.04265874,-0.16500416,-0.008751079,0.17724197,-0.03041817,0.0086507425,0.0582897,0.27429962,-0.10133703,-0.05740597,-0.007637212,0.20290136,0.0077678985,0.120555535,0.009814012,-0.058475174,-0.08235298,-0.031733837,-0.10671918,-0.07352596,0.024459865,0.11983266,0.011927461,-0.043112136,0.06596024,-0.04380004,0.19227971,0.06874112,-0.042079825,0.029579433,-0.14011535,-0.021422597,-0.059088055,0.035380535,0.13728262,0.09923358,-0.08546826,-0.010590304,0.07680436,0.0391126,-0.053967178,0.024669975,-0.05168623,0.088518016,0.007824521,-0.1369402,0.06358066,0.028173078,-0.04010603,-0.06943254,0.10901342,0.010738376,0.024732457,0.017263168,-0.075289965,-0.11311078,-0.0459879,-0.08195487,0.097784705,-0.017322686,0.09704062,-0.11790856,0.007696103,-0.08726218,0.03199023,0.031017253,0.0871829,0.020406647,-0.040731754,0.13964364,0.14094111,0.08994504
Forest,-0.06397705,-0.006163032,-0.10758096,0.04168725,0.099043496,-0.034803808,0.021156533,-0.093167186,-0.060860187,-0.097896434,0.053909108,0.07580757,-0.027978156,-0.014253425,-0.004689836,0.06387504,0.07635854,0.005775973,-0.06515147,-0.16237538,0.056634165,-0.012583829,-0.009595141,0.01546682,0.2579998,0.019152233,-0.11771565,0.15063725,0.018214315,-0.05852446,-0.07252441,-0.110579126,0.11994002,0.08534511,0.12873152,0.055422623,-0.124642044,-0.03664157,0.05614462,0.089214705,-0.034894727,-0.07412978,0.21170971,-0.0018323581,0.060176924,-0.25338,0.10426433,-0.1713485,0.016529758,0.09347007,-0.049222626,-0.020459283,-0.019543383,0.16460796,-0.08872084,-0.084938064,-0.012432294,0.02433176,0.0054570134,0.11178169,0.13200079,-0.16430515,0.085003965,-0.07563703,-0.13892806,-0.051887337,-0.04933419,0.07635664,-0.12377274,0.13067487,-0.039635614,-0.12707427,-0.02779968,0.0401425,0.09119061,-0.022392003,0.10611382,0.13675489,0.07168985,0.018836584,-0.018903242,-0.07348664,0.08690366,-0.078625746,0.15194234,-0.042860642,0.050187748,-0.09222458,-0.036264013,0.08734523,0.1384957,-0.024070092,-0.10404773,-0.056840226,-0.03459597,-0.11319725,-0.035248082,0.04889902,-0.05867375,0.008208317,-0.010976869,0.03865081,-0.18121383,0.06647063,0.2572801,0.049639225,0.025458034,0.05472799,0.079287425,-0.040169816,-0.05060313,-0.06522921,0.07015325,-0.091723755,-0.011342363,0.06623293,-0.004747245,-0.2085271,0.10853423,0.080752544,0.15520163,0.1656614,0.034007605,-0.043908466,0.013258924,0.031299714,-0.00061609095,-0.108118735,-0.026526649,-0.05973704,0.12607406,-0.17970507,0.2958365,0.17549017,-0.04420516,0.05072185,0.026405636,-0.102127835,0.056539964,-0.040806726,0.038887694,0.02697951,0.04434391,0.056914974,-0.07574542,0.0054483553,-0.011250269,-0.025374372,0.08010771,-0.12453125,0.33208206,0.0825264,0.112239204,-0.057288658,-0.014721123,-0.2712705,-0.04950717,0.048090637,0.1192296,0.074353,-0.054736514,0.034454312,0.062183604,-0.07315167,0.008420016,-0.09722656,0.06698652,-0.08430465,0.053308703,0.024919515,0.060911383,-0.0042850035,0.011238393,0.103508666,-0.029310696,0.006656292,-0.013446203,0.104508676,-0.06721749,0.026560418,-0.04326694,-0.07519557,-0.11931703,-0.014028107,-0.014074582,-0.012606067,0.11643172,-0.19028424,-0.05437576,-0.12038769,0.14747374,0.4680522,0.0027093806,0.12052505,-0.068075225,-0.07995975,0.06422783,0.010335959,-0.003033045,0.11375765,-0.20913576,-0.049901668,-0.071944505,0.05104478,0.091876335,0.08286035,0.045899678,-0.024207769,-0.08272458,0.0018611096,0.010371834,-0.058379173,-0.15305915,0.017463554,-0.12349832,0.16783926,-0.11046237,-0.010419908,0.06782696,0.055706568,-0.22072423,-0.099021524,-0.10096071,0.04672022,-0.14149708,-0.1496215,-0.0024812876,-0.052020192,0.14381826,-0.09913565,-0.025144855,-0.08753755,0.037400432,-0.08176016,0.10208891,0.15840143,-0.0036089798,-0.20477608,0.005333189,-0.08982458,-0.01766611,-0.117460094,0.033586055,-0.09864351,-0.047804486,-0.061330255,0.109101556,0.038712695,-0.04024628,0.048439372,-0.011758941,-0.10852453,-0.016758392,0.10956345,0.21946615,0.069042064
Swamp,0.10014276,0.10604006,-0.013842349,-0.003367434,0.020625953,-0.12198031,0.041493453,-0.050831165,-0.08420006,-0.09791804,0.007844537,-0.0054169963,-0.03764546,-0.02906025,-0.030744689,0.015784815,-0.009667743,0.097333275,0.13032955,-0.15091214,0.20035449,-0.04429604,0.054851286,0.022864426,0.0027577134,0.07494159,-0.049426362,0.015276486,-0.016756965,0.025045998,0.036806185,-0.13188222,-0.03044888,-0.092427574,0.09600133,-0.0041656857,-0.0048945476,-0.09786047,0.011762152,-0.103281856,0.14894627,0.01659507,-0.02025205,-0.01883498,-0.14114003,-0.1582318,0.031139964,-0.05400295,0.039162725,-0.06235919,0.029608976,0.059470378,-0.11785109,-0.029333523,0.20906341,-0.066392,-0.085893214,0.033064388,-0.038228992,-0.004240718,0.03094468,0.032504126,-0.04735913,-0.11765093,-0.08898282,0.021861224,-0.09962575,-0.10982352,0.024039807,-0.04809685,0.012827861,0.077902965,0.121908,0.012084577,0.10163812,0.08032583,0.06550327,0.10629048,0.039712965,-0.12115781,0.043130822,0.1492622,0.062659144,-0.08373592,0.023129009,-0.12572566,-0.050580002,0.09186633,-0.004886685,0.019105613,-0.15975283,0.090971604,-0.049868792,-0.023107216,-0.052705873,-0.025812518,-0.049697906,-0.030038817,-0.09215405,0.14814849,-0.0161328,-0.023517659,0.045352012,0.10883601,0.008173873,0.03605781,-0.101880156,0.0024088067,0.1055478,-0.07284263,-0.027986972,-0.029762065,-0.06003438,-0.011095634,-0.09594554,0.1703975,0.14036581,-0.101651035,-0.023146885,0.108267926,0.13843986,0.17881238,-0.095573016,-0.01847204,-0.018067542,0.020717021,-0.08516486,0.030446887,-0.031229235,-0.020609112,0.053555377,-0.11924451,0.18564016,0.08850121,0.0027328057,-0.033757783,0.062235083,0.059739046,-0.015455942,0.13839623,-0.017770236,-0.06411948,-0.21613792,-0.035292204,-0.009191756,0.086976245,-0.1054824,-0.082952805,-0.009856369,-0.088050455,0.09542576,0.082699195,0.17643666,-0.06614309,0.116454236,-0.025136257,-0.14332454,0.057326972,-0.09603445,0.020489352,0.06413164,-0.01514499,0.023915935,-0.0028599638,0.015081527,-0.0067006564,-0.0014950626,-0.1520036,-0.026962705,-0.07813298,0.117300086,-0.022332331,0.014702362,-0.034665372,0.12776048,-0.028407218,-0.105724595,-0.0024629952,-0.11807472,0.03168644,-0.15102333,0.0050018583,-0.07403424,-0.08219418,0.010554662,0.013158449,0.09682861,-0.012680749,0.102125466,0.05458163,0.09873487,0.16973081,-0.08102273,0.068311185,0.011748819,-0.0807527,-0.04459744,0.01077771,-0.008287247,0.14650983,0.00093502796,0.07819802,0.100299925,-0.1245664,-0.12320162,0.06532197,0.17925484,-0.03228886,-0.0649155,-0.03083057,-0.10714782,-0.19034159,0.029522864,0.004574505,-0.083657585,-0.036954463,-0.01979425,-0.086374566,0.07881074,-0.068008125,-0.12806481,-0.04531821,-0.04919858,0.044336934,0.10841156,0.068637,0.09371996,-0.06743126,-0.036386568,-0.029715186,-0.1989392,-0.13994619,0.001575842,-0.037402708,0.0377572,0.092096604,-0.05417715,0.05145364,-0.060922503,-0.047067177,-0.07364925,-0.21264608,0.023988392,0.052588016,-0.011146008,0.049323536,-0.003918509,-0.016023876,0.18658091,0.031030763,0.047593027,-0.02415336,-0.02796744,-0.010559512,0.2000631,0.038806863
Island,0.052470632,0.16296077,-0.10471001,0.10428573,0.20247886,-0.08178875,-0.009507746,-0.2405306,-0.17225157,0.009899563,0.044957493,-0.09123776,-0.047174405,-0.18215698,-0.08260834,0.026937613,0.033403266,0.049842853,0.17808181,-0.112622395,0.046774525,0.023699319,0.07656097,0.06929439,-0.066132054,0.12016541,0.13813478,-0.03764208,-0.27496713,0.21550973,-0.07319892,-0.28273532,-0.25973243,-0.049479187,0.107273765,0.053453345,-0.12953301,-0.028658373,0.041767377,-0.17020279,0.03505815,0.03480632,-0.114545316,-0.02788129,0.13259752,-0.099909514,-0.0073287673,-0.093949534,0.008942736,0.12178779,0.069387496,0.013645045,-0.2780007,0.13361542,0.003805647,-0.22256859,-0.017574698,-0.053495858,-0.14336607,-0.076981515,-0.08870819,0.054538425,-0.034757897,0.0025829168,-0.10572017,-0.023345744,-0.0347542,0.032498613,0.07711145,0.14480332,-0.03171731,0.13358545,0.10360579,-0.06283095,-0.078623794,-0.24070346,-0.06387105,0.05277452,0.16595075,0.15581645,0.035409287,0.0038431298,0.08267287,0.0661639,-0.06643639,0.0010711132,0.035300337,-0.12428638,0.044436473,0.049666926,-0.040232413,0.05082313,0.08429164,-0.013391327,0.0457807,0.026446424,-0.11694376,-0.09434235,0.037647095,-0.058937103,-0.07658433,-0.04398419,-0.035507478,0.16173945,0.14520827,0.065536626,0.07929717,-0.09311394,0.071469925,-0.08242098,0.009045764,0.009298059,-0.15746745,0.0030814367,-0.030245567,0.10937676,0.039759286,-0.11652376,0.061964557,0.10032793,-0.003696823,0.04639737,-0.045716856,0.0027160284,0.111937635,-0.028100267,0.054124624,0.06499639,0.011675603,0.025184086,-0.007842124,-0.20901391,0.09241684,0.03180319,-0.061000276,-0.122562505,0.07420798,-0.038742933,-0.08883767,-0.11865014,-0.20372573,0.04751788,-0.08665,-0.056493048,-0.17025338,0.06315568,-0.24869417,-0.0080987,-0.0005034412,-0.019146733,0.025127387,-0.046117272,0.06708756,0.1268303,0.10656245,-0.13074099,-0.07581326,-0.14015202,-0.054241203,0.0703372,-0.07795747,-0.00073658174,-0.16048145,-0.060764715,0.041620806,-0.004938366,0.093004175,-0.009852361,0.07674086,0.022788653,-0.10568418,0.10383233,0.14159378,0.029413266,0.011607917,-0.060174063,-0.0849586,-0.068273984,-0.15104407,0.044227824,-0.03264192,0.03467303,-0.07016229,-0.027356224,0.05080075,-0.09896032,0.052405164,0.1354848,0.045971006,0.020693125,0.06197813,0.16701096,-0.12813789,0.061380927,0.06636323,-0.06397952,-0.023144644,0.092693254,-0.07187478,0.07884551,-0.076401524,0.074295245,0.02573901,0.101194285,-0.032602586,0.05830103,0.0697221,-0.022647923,-0.07103275,0.00535958,0.15405908,-0.25282025,0.059590846,0.05204572,-0.12368837,-0.14635628,-0.12130954,-0.1569593,-0.09349955,0.0147017315,-0.017349,0.067778416,-0.12073922,0.12763385,0.14473158,0.20716621,-0.1283194,0.016331153,0.08215709,-0.05267083,-0.039204728,0.1142225,-0.048231423,-0.01999762,0.018670026,0.051836293,0.04242102,-0.13922943,-0.20238873,-0.020881357,-0.031686705,-0.29419646,0.067709014,0.18626435,0.256619,-0.08599089,0.298505,-0.14812592,0.10467092,0.01130459,-0.041606937,-0.05434894,0.05740036,-0.056443017,0.17912067,0.045792155
Hexgold Slash,-0.10246418,-0.15286197,0.12538029,0.08523318,-0.04726496,-0.10285872,0.08677892,-0.17269617,-0.13637319,-0.11668832,0.024566144,0.046631772,-0.27827638,-0.0483357,0.114328384,0.030890252,0.11310419,0.010314585,0.1280315,-0.22929642,0.2442003,-0.010724662,-0.083369285,-0.10053117,0.12765351,-0.006446932,-0.17256133,0.06875358,-0.06352655,-0.06348393,-0.11524055,-0.18702519,-0.0032533912,-0.008472413,0.12306534,0.025829876,-0.1868992,0.009411757,0.104757905,-0.053410448,-0.09897234,-0.10320449,0.117177896,0.06777794,0.028435132,-0.03684569,0.027888197,-0.011401512,-0.002220636,0.110047944,-0.06834761,-0.17335646,-0.08060793,0.060343854,-0.099243015,-0.14838585,-0.10753212,0.059742026,-0.114979826,-0.0037809764,0.026008844,-0.04124373,0.166137,-0.020987442,-0.0017577875,0.065610304,-0.0081209885,0.09758383,-0.17990193,0.10005044,-0.06223849,-0.020506443,0.095885575,-0.014830543,0.119852796,-0.2254903,-0.07184131,0.06413756,0.08320896,0.0036424403,-0.12282123,0.020704169,0.09200381,-0.04617806,-0.0031017936,0.13822733,0.19098094,-0.06028203,-0.034301393,0.06907288,0.077844515,-0.021268962,-0.040542185,0.01162838,-0.11064215,0.06930053,-0.20908524,0.09406516,-0.09114657,-0.0034191194,-0.07850035,-0.09464025,-0.20340435,0.08713672,0.41920924,-0.0685177,0.31848124,0.08366698,0.04373902,0.015751647,-0.13538189,-0.004667607,-0.008744264,-0.10291093,-0.024071537,-0.09820461,0.048344508,-0.15918085,-0.013919214,0.0076145446,0.22865143,0.07199849,0.12397551,-0.14865181,0.12437668,0.004020755,0.027316133,0.2055684,-0.10305796,-0.06986922,0.07869784,-0.30834073,0.2166038,0.085588045,0.044032235,-0.007122726,-0.15693182,-0.2317557,0.04590469,-0.036234558,0.09860916,0.07258671,-0.0605717,-0.01640374,-0.116660975,-0.18374687,-0.09080767,-0.035823416,0.116748154,0.04215132,0.16698784,-0.091960244,0.051246352,-0.037445884,-0.00040203947,-0.10935378,-0.0633688,0.060353316,0.14276683,0.12889859,-0.13769735,0.1137215,0.075267754,0.032213666,-0.13216056,0.033038676,0.09683878,-0.18850592,0.18942882,0.019020585,-0.035550058,-0.052806586,0.08524928,0.14976145,0.054069534,0.08720299,0.05136647,0.17096741,-0.14810102,0.11336744,-0.10568991,-0.09308493,-0.21384977,-0.117655344,-0.009701651,-0.05961956,0.12440902,-0.05741388,-0.077278726,-0.0128399525,0.08656093,0.27199596,-0.024149295,0.028788501,-0.0045842407,0.10167843,0.06159125,-0.02644812,-0.024832457,0.037035562,-0.094472215,-0.11089595,-0.009836393,-0.03714377,-0.018164188,0.08742258,0.07064219,-0.0062225503,-0.1970436,0.20020649,0.16639283,0.09726363,-0.063110046,0.11487334,-0.11383084,-0.081858255,-0.16375549,-0.072243735,0.02070433,0.060651127,0.03653708,-0.0754304,-0.09394882,0.16069478,-0.045975696,0.06586113,-0.015349645,0.0075057154,0.001929119,0.009079618,-0.043963727,-0.0015878126,-0.14092758,-0.05467378,-0.16253145,0.07983636,0.04405572,-0.035941787,-0.058381435,0.01626616,-0.020063072,-0.13725495,-0.0880769,-0.045617476,0.22886999,-0.0037749026,0.1474081,-0.13455947,-0.07274284,0.07176299,-0.069647506,-0.1456892,-0.07036424,-0.009399567,0.24991983,0.17811051
Barbed Batterfist,-0.03691353,-0.2749335,0.16903776,0.07860574,-0.076867126,-0.08278352,0.002445932,-0.19678608,-0.18700239,-0.21664207,0.056927387,0.06083945,-0.3271559,-0.056852553,0.10956236,0.014518082,0.18178064,0.08672017,0.17806177,-0.20032322,0.26222122,-0.041895777,-0.12590216,-0.059672024,0.077807695,-0.028252743,-0.25724465,0.047967896,-0.012766621,-0.035290506,-0.14998893,-0.1479474,-0.037556138,-0.038316347,0.15220422,0.11914902,-0.15285742,-0.044214662,0.16073027,-0.0019293727,-0.17136754,-0.024554692,0.13557975,0.14789033,0.009236432,0.0049244747,0.01258338,0.009722058,0.0023585747,0.15007365,0.042781968,-0.13419914,-0.019840943,0.049019445,-0.0553721,-0.047851566,-0.15222834,0.09917508,-0.2209296,-0.016652111,-0.07073976,-0.012867418,0.10021168,0.03283248,-0.11486086,0.07048984,0.015920732,0.13724716,-0.1732368,0.055878,-0.08502921,-0.12072927,0.098022625,-0.078061335,0.13367876,-0.2523171,0.009062093,-0.004240455,0.019188164,0.08140772,-0.18512997,-0.02357846,0.07191994,-0.061951607,0.013063328,0.11863427,0.20474151,-0.16566114,-0.01465592,0.068886235,0.076743595,-0.10442175,0.0076625776,-0.001318825,-0.00237756,0.00508163,-0.21521917,0.074445985,-0.1654988,0.012012239,-0.05561211,-0.10908511,-0.16560508,0.058570266,0.49321932,-0.015418937,0.29952216,0.05914869,0.07860074,-0.062723204,-0.09179693,-0.03301458,0.011893349,-0.12440649,-0.054170355,-0.13364913,-0.0074829813,-0.12022557,0.035146143,0.00013923594,0.32352948,0.0026065933,0.04269503,-0.1425013,0.08585508,-0.014254671,-0.059819408,0.26250172,-0.09007265,-0.2085193,0.16922677,-0.31653535,0.198361,0.11616308,0.024452986,-0.0032175402,-0.18918388,-0.17797475,-0.002397611,-0.046412818,0.15453728,0.0805042,-0.048365593,-0.10271359,-0.109067835,-0.15568535,-0.15547998,-0.02329981,0.11984645,0.10134582,0.1803548,-0.04222339,-0.01125316,-0.03374259,0.020582706,-0.13392715,-0.14419964,0.024282569,0.016493063,0.10989086,-0.051498517,0.12449728,0.0016645878,-0.0055386433,-0.10898685,0.0504003,0.16226856,-0.14589897,0.18518972,-0.0021581915,-0.11827458,-0.045674212,0.07151936,0.106385924,0.08843992,0.118729405,0.045504265,0.23163985,-0.04016847,0.013387088,-0.06502042,-0.0084850285,-0.17329793,-0.16850209,-0.04108139,-0.14287096,0.08599378,-0.05730689,-0.054490943,0.06623039,0.084043756,0.20066692,-0.04568154,0.009567595,0.021114737,0.1431825,0.1292113,-0.081447236,-0.042454273,0.035475623,-0.02310989,-0.071940824,0.013619706,-0.08035641,-0.056347385,0.13697436,-0.005082117,0.010526502,-0.14504115,0.30383503,0.17915466,0.19252451,-0.03914826,0.19805616,-0.01053167,-0.054275434,-0.12873156,-0.08460743,0.012836356,0.13900617,0.049274925,-0.117699236,-0.033625733,0.14120874,-0.07123482,0.068509124,0.03852774,0.07848878,0.08661705,0.015544966,0.014473376,0.021052832,-0.1936121,-0.046933793,-0.084683806,0.041056022,0.0054737413,0.029295903,-0.04729698,-0.057509955,-0.0402094,-0.16736008,-0.07172504,-0.07314385,0.2624614,0.080030404,0.17677255,-0.17836915,0.010060472,0.106264755,-0.06616243,-0.11272027,-0.02956741,0.0559264,0.17898619,0.17222083
Volt Charge,-0.08144591,-0.06273651,0.046920996,0.10442955,0.04230316,-0.120055355,-0.07579617,-0.19212566,-0.051675856,-0.09891756,0.03613179,0.053096116,-0.20695251,0.0036346158,0.12443525,-3.7225935e-05,0.15950124,-0.055594712,0.15041009,-0.24671297,0.20375037,-0.08754699,-0.062469464,-0.046835296,0.13519269,-0.043886963,-0.22303611,-0.009934115,-0.010856987,-0.041989706,-0.115393035,-0.15132798,-0.0418393,-0.0076984083,0.14641856,0.046825092,-0.106944904,0.0483135,0.08823931,0.033391066,-0.057602894,-0.14564554,0.14377765,0.080519184,-0.00010293524,-0.08108505,0.017055308,-0.06497981,-6.104992e-05,0.019217009,-0.015916163,-0.15443192,-0.11681145,0.083339594,-0.07797589,-0.13341315,-0.08875168,0.06665125,-0.10361701,0.045387488,0.036225986,-0.03526538,0.17756853,-0.044881668,-0.05784886,0.13165481,-0.029839791,0.058408283,-0.11079709,0.06734759,-0.05492814,-0.07122127,0.06595402,-0.08574609,0.10120927,-0.18618818,0.0024582332,0.07514421,0.074279934,0.10674321,-0.11881925,-0.045499153,0.11134538,-0.09661675,0.037125263,0.13581973,0.19566478,-0.087947145,-0.06743105,0.027313692,0.050354563,-0.013747041,0.046137314,-0.023884017,-0.108706065,0.07275764,-0.26397458,0.0438508,-0.101113714,-0.007104575,-0.08374118,-0.10823363,-0.09957313,0.10248111,0.4114318,-0.03330133,0.29336673,0.05051719,0.09148682,-0.046231322,-0.062336724,0.012542301,0.027248614,-0.15306632,-0.05637792,-0.06168303,0.040877573,-0.10591348,-0.03568548,-0.011809138,0.26378748,0.070757344,0.07452618,-0.090138175,0.12729761,0.03507199,0.026045669,0.24754728,-0.1038885,-0.11367383,0.06641589,-0.29751483,0.24417001,0.08110904,0.09681792,-0.06391711,-0.16286802,-0.2453067,0.016992427,-0.0020320066,0.13822278,0.04619359,-0.038426828,0.01244006,-0.061919637,-0.17727646,-0.054100044,-0.030489737,0.07878007,0.054359294,0.15001915,-0.09352104,0.052165337,-0.09187174,0.032446,-0.17506377,-0.07429062,0.028909117,0.11629968,0.13027944,-0.11228747,0.0052350606,0.018947674,0.080480576,-0.11081944,0.050712846,0.024261352,-0.17768767,0.17213623,0.0111833885,-0.05617801,-0.037808385,0.093183,0.14490883,0.06472156,0.099850185,0.0553243,0.15907018,-0.13941246,0.16783041,-0.106679745,-0.037486434,-0.22075821,-0.015825853,-0.02695049,-0.016364679,0.095076025,-0.0751547,-0.054036498,0.072198346,0.10520742,0.2598845,-0.10406638,0.008258647,0.02870443,0.09590414,0.03400195,-0.023175878,-0.025956253,-0.006579863,-0.026379596,-0.021552023,0.013646625,0.052287135,0.010930513,0.112407796,0.05145848,0.046242572,-0.13972591,0.15852134,0.13982724,0.08323972,-0.078759596,0.15207797,-0.058489982,-0.03853431,-0.14056274,-0.1539612,0.015939875,0.049660362,0.054956343,-0.09216522,-0.06296376,0.15964122,-0.034246437,0.08182224,0.05931992,0.042481855,0.04742266,-0.016967881,-0.042567573,0.02001545,-0.17521414,0.042492196,-0.13796797,0.046656102,0.016696265,0.010386354,-0.03376592,0.04113823,-0.046293747,-0.21317843,-0.023030644,-0.021008726,0.1731786,-0.038287915,0.17723458,-0.16678809,-0.01232234,0.110762015,-0.04370583,-0.13647622,-0.041573174,-0.06713894,0.2129092,0.14706169
Axiom Engraver,-0.037524402,-0.1367131,0.022315804,0.10988445,-0.018364372,-0.03785223,0.070924774,-0.2690289,-0.15931465,-0.16742824,0.042836227,-0.102924615,-0.2038188,0.019624144,0.030202826,0.12792742,0.1724646,0.051275913,0.15779978,-0.21895148,0.22087538,-0.033946726,-0.078016356,-0.04261962,0.105860256,-0.076870166,-0.11861289,0.014979251,-0.09179623,-0.02513206,-0.13302407,-0.04890177,0.036423467,0.07877429,0.18669413,0.075257346,-0.08817137,-0.013997152,0.04419087,-0.012110648,-0.052897282,-0.08392667,0.14838342,0.11341427,-0.072693795,-0.05311103,0.025918018,-0.054729085,0.02803082,0.1734926,-0.011062736,-0.061345957,0.009327438,0.040194914,-0.007255339,-0.17251739,-0.036788747,0.123462096,-0.147256,-0.028618606,0.018106291,-0.13586006,0.16946627,0.009212652,-0.11696096,0.11494461,-0.01034524,0.16186483,-0.23244962,0.1049363,-0.079825185,-0.10321984,0.14097065,-0.035850603,0.1719992,-0.1310408,0.022655642,0.113134675,-0.021028463,0.034858525,-0.11198291,-0.006075172,0.06343941,-0.13622268,0.054740813,0.1192404,0.10814546,-0.09462946,-0.08370305,0.11990761,0.07823516,0.029297361,0.031432513,0.016549751,-0.07956487,0.0107950885,-0.282234,0.18394275,-0.12889276,-0.031845376,-0.035742715,-0.054535385,-0.2733635,0.13355029,0.52094316,-0.057094324,0.32759854,0.10730556,0.08369747,-0.062869534,-0.12986606,0.06020953,0.045342684,-0.197122,0.04590571,-0.094350204,0.0068530766,-0.23260127,0.063930675,-0.004191693,0.2959395,0.056113407,0.105540834,-0.14375183,0.1262617,-0.010594816,-0.011294671,0.24698555,-0.13368547,-0.13307029,0.14275895,-0.40097886,0.26128703,0.06675491,0.03681568,-0.028260993,-0.12510268,-0.22474475,0.04322413,-0.07647034,0.18220024,-0.015293465,0.012557251,-0.0076269354,-0.11684943,-0.14029068,-0.041641075,-0.042943213,0.10910762,0.058274817,0.17741553,-0.105872326,0.0680997,-0.16150871,0.03261351,-0.12445574,-0.011219689,0.12691319,0.14593028,0.13745429,-0.11464078,0.066480294,-0.009935166,0.044287574,-0.13144739,0.017906724,0.14932668,-0.21127279,0.16687772,-0.017687691,-0.015831698,-0.040001463,0.052336693,0.13198157,-0.0025268514,0.08329492,0.09380594,0.24466684,-0.10741298,0.05376385,-0.09254316,-0.027758563,-0.234249,-0.05031699,0.029468333,-0.117797345,0.14444399,-0.20699844,-0.033165462,0.044556256,0.12555689,0.24761862,-0.014290986,0.05224646,-0.0005776566,0.10603959,0.13325688,-0.10754326,-0.10343714,0.038750745,-0.048344478,-0.05325098,0.018250113,-0.016255448,0.010108017,0.08175894,0.018746523,-0.041921813,-0.22377534,0.26763904,0.21470074,0.12514363,-0.09035529,0.1931106,-0.0835084,-0.054485522,-0.19152293,-0.13427751,-0.030998148,0.13341343,0.023011439,-0.07412608,-0.0747818,0.23418447,-0.0718047,0.035777435,-0.016091065,0.015137037,0.10193501,0.080632694,-0.0638309,0.08265453,-0.1332596,-0.011668208,-0.04977772,0.107879214,0.025142014,-0.049246777,-0.020205433,-0.0007765519,0.018886993,-0.10669822,0.014685818,-0.085713215,0.20252885,0.04084774,0.26248628,-0.15154845,0.00406294,0.112122625,-0.08858289,-0.14075853,-0.007747543,-0.01800285,0.1885142,0.14680664
Contagious Vorrac,-0.08054399,0.003224041,0.006590043,-0.019330014,0.058886908,0.015334566,0.036255036,-0.13189423,-0.11494895,-0.110844664,0.0044130892,0.06343747,-0.08685558,0.006485151,-0.05180462,0.008679148,0.09008965,0.04469335,-0.13350442,-0.07034834,0.08305182,-0.021770956,-0.026358794,0.024325034,0.21352383,-0.0145353265,-0.092847586,0.13742803,0.051206738,-0.045882,-0.030401891,-0.1241158,0.16758403,0.06565875,0.13498986,-0.051041156,-0.13651495,-0.026237447,0.059905127,0.07344139,0.05486754,-0.06594729,0.23084347,0.097707726,-0.04213935,-0.21007963,0.03959941,-0.19888484,0.05664867,0.0055866153,-0.0033135344,-0.034153026,-0.051948067,0.071947336,-0.107368805,-0.119676,0.024449809,0.10063036,0.040924396,0.06868818,0.026963612,-0.23843382,0.1594498,0.0031139709,-0.08294543,0.011403047,0.0037390334,0.05193147,-0.18790512,0.14318623,-0.031741995,-0.062235497,0.06324305,0.021206263,0.090534896,0.005335714,0.020204328,0.17177843,0.05582306,-0.032236148,0.043938354,-0.09771785,0.05074953,-0.11151397,0.115391575,-0.025628956,0.0005364285,-0.039273005,-0.061534546,0.032035105,0.083091475,0.0004206705,-0.0066052666,-0.08565653,0.008026889,-0.14108866,0.009658379,0.12898144,-0.07535906,-0.012384788,-0.031666134,0.01344997,-0.2564985,0.027438302,0.30373335,-0.0123287365,0.08999946,0.0101180775,0.011266879,-0.024796756,-0.09560939,0.014452338,0.078101434,-0.100773565,-0.043357287,-0.0125596905,-0.049619973,-0.1803856,0.08144024,0.026681762,0.24302241,0.17100807,0.08111947,0.05416212,0.027898742,0.056627493,0.023178557,-0.1262903,-0.055062905,-0.094869725,0.066814445,-0.19479035,0.27961993,0.049577583,-0.082672685,0.063487485,-0.014248263,-0.06962874,0.098168604,-0.028448362,0.13106483,-0.026623707,0.074829794,0.09894869,-0.08898755,-0.07497285,0.10717572,-0.050179124,0.08472376,-0.1289089,0.36798832,0.020579835,0.04399512,-0.07625782,0.013717866,-0.2635435,-0.08402677,0.10303346,0.15663533,0.120076664,-0.029113391,0.052837767,-0.017625796,-0.04676311,-0.050421707,-0.02761167,0.07144367,-0.09099567,-0.047081836,0.022964025,0.017909328,-0.04160815,0.021226581,0.1800756,-0.056810983,0.0386091,-0.003944494,0.1053952,-0.12831485,0.06426812,-0.048370983,-0.050164796,-0.18635993,-0.0031100637,0.03514342,-0.04901038,0.18960549,-0.1929848,0.00013347933,-0.09880792,0.11835456,0.46992323,-0.05130168,0.14813074,-0.08123565,-0.071638554,0.075913206,0.051724367,0.06890175,0.13268296,-0.10938296,-0.04646467,-0.020735838,-0.045582287,0.06267951,0.06997246,0.063363194,-0.06515255,-0.1535211,0.033065435,0.045020692,-0.09693418,-0.11047586,0.030177273,-0.107183576,0.1493327,-0.15325241,-0.07317826,0.12949659,0.07058683,-0.21946296,-0.048285916,-0.07509411,0.11845113,-0.21036248,-0.11165605,0.010629597,-0.09050079,0.101656534,-0.08112295,-0.09128167,-0.0864414,0.03333796,-0.10685227,0.08900959,0.17879018,-0.026448512,-0.13183732,0.02640417,-0.09523188,0.021204755,-0.10405634,0.08145779,-0.047942754,-0.07003955,-0.08309588,0.05139077,0.031644706,0.07248647,-0.008635853,0.06171762,-0.111958526,0.0070014107,0.16532043,0.2618948,0.084956974
Chimney Rabble,-0.089564376,-0.16981623,0.17728901,0.11835631,-0.17075388,-0.016089475,0.13019398,-0.30121362,-0.2177409,-0.13108157,0.060369875,0.104393005,-0.22745174,-0.044966634,0.15330786,0.09560413,0.19054016,-0.0044495184,0.12326786,-0.124898635,0.20772666,-0.037098363,-0.09824107,-0.098241486,0.15052103,-0.13336015,-0.25273317,0.04069582,-0.09837023,-0.08204068,-0.17908137,-0.095233396,0.114416264,0.04075358,0.18777433,0.07198706,-0.13415119,0.0050538573,0.097404964,0.05382774,-0.11472804,-0.043768182,0.1935821,0.12313787,-0.06573277,-0.09517804,0.15724546,-0.042435702,-0.014018174,0.13609195,0.07685973,-0.100169994,0.02333133,0.06325759,-0.07461388,-0.14156398,-0.08902128,0.14491178,-0.069085404,-0.019290464,-0.026331414,-0.073018394,0.17173724,0.06769824,-0.06138876,0.09038059,-0.041588675,0.05797382,-0.26761988,0.016235646,-0.123553626,-0.14032154,0.12920533,-0.009980079,0.1739548,-0.07332498,-0.019441625,0.0374942,0.039021105,0.05883734,-0.08378831,0.06273623,0.09979487,-0.118558735,0.030023277,0.13384111,0.21721408,-0.14489803,-0.06454306,0.019348998,0.04553504,0.013854094,0.003921562,-0.0556448,-0.051015563,-0.014725641,-0.1313249,0.18115655,-0.10434459,-0.050462592,-0.101243995,-0.11082113,-0.25417247,0.07754466,0.44384885,-0.032232318,0.26956767,0.10277523,0.12604752,-0.01343399,-0.14947744,0.016446518,0.0100706015,-0.112121955,-0.08371612,-0.12968326,0.07578627,-0.17457211,0.0016910362,-0.003868387,0.28816766,0.061404794,0.033894546,-0.12393813,0.11240998,-0.01967375,-0.0571888,0.18480594,-0.10142027,-0.20999287,0.16116728,-0.33801278,0.28436342,0.14293587,0.021075713,-0.016658176,-0.2150304,-0.19460265,0.027788503,-0.102889836,0.1371941,0.038723323,-0.026448783,-0.054162763,-0.073984265,-0.21358116,-0.073197156,-0.08317211,0.10360656,0.05311052,0.19467467,-0.0018706685,0.12523644,-0.17285183,0.044787787,-0.16585787,-0.075402394,0.29715618,0.09919253,0.13942496,-0.048496824,0.064083405,0.14206277,-0.04283874,-0.112023614,-0.08551087,0.1547088,-0.20540625,0.20246372,-0.09234188,0.08970128,-0.03725195,0.1460949,0.060815033,0.13150586,0.1374696,0.068678275,0.2667734,-0.08522179,0.12443676,-0.029150544,-0.0924852,-0.22357367,-0.14327078,0.0012505604,-0.1359563,0.2151012,-0.106787466,-0.10036637,0.10217291,0.10362998,0.3091976,-0.09317957,0.085614614,0.09369772,0.13323092,0.16556273,-0.09233435,0.032150354,0.03908781,-0.11734316,-0.09774081,-0.046443,-0.108966,-0.031341232,0.16721502,0.043177806,0.013141783,-0.14611307,0.21449994,0.22145309,0.20191728,-0.046857007,0.19113106,-0.04902179,-0.013879549,-0.21473928,-0.032337558,-0.01108052,0.14667514,-0.055296756,-0.24150798,0.025133185,0.11975636,-0.10976498,-0.0021450508,-0.04174746,0.03285785,0.03913162,0.051355653,-0.10679099,-0.061973438,-0.12024741,0.06574141,-0.018430263,0.13922161,0.01517073,0.06054611,0.006990664,-0.0009972976,-0.05862727,-0.023516845,-0.05992366,-0.10589969,0.082818866,0.05530377,0.17013627,-0.10691215,0.0043734703,0.13449156,-0.092204414,-0.1659289,-0.05867538,-0.05711207,0.15297958,0.16478449
Furnace Strider,-0.02313441,-0.0991697,0.15129049,0.14852333,-0.043733876,-0.11998389,0.12007386,-0.2576843,-0.17260692,-0.16713975,0.0120779,-0.009201238,-0.21968652,-0.052012984,0.121416725,0.103341155,0.13093302,-0.03710291,0.12712918,-0.23355524,0.2521207,0.033115588,-0.17159298,-0.13040711,0.17264664,-0.049989793,-0.16970572,0.10430222,-0.04660428,0.055492174,-0.1910525,-0.09484046,0.050182156,0.026402406,0.2428861,0.036620863,-0.120184086,-0.01009005,0.020561997,0.006186458,-0.09751251,-0.16711725,0.22032271,0.060606793,-0.14441799,-0.0722282,0.062089935,-0.0666841,-0.0328027,0.079603925,-0.04319332,-0.057060797,-0.1099272,0.008421854,-0.07308755,-0.12521657,-0.084725514,0.10401856,-0.23230447,-0.026692744,-0.014993601,-0.107969426,0.19674283,-0.06400506,-0.039322887,0.08539158,-0.00610138,0.09104716,-0.17997852,0.08063484,-0.112430066,-0.015016563,0.014448865,-0.003380966,0.1373086,-0.16734165,0.038849767,0.07138725,0.05113463,-0.041634887,-0.10796925,0.040010456,0.07886007,-0.106290296,0.04714549,0.10104107,0.10696349,-0.07394872,-0.09512341,0.0928716,0.11067522,-0.034825724,0.0017395352,-0.008740932,-0.088089354,-0.045952994,-0.21879737,0.10874286,-0.1712957,-0.012958121,-0.13854069,-0.10075805,-0.1909707,0.074343614,0.51629376,0.01659751,0.27360886,0.14300025,0.062476773,0.030239586,-0.098363936,-0.03026898,0.044617206,-0.16432077,0.016008694,-0.07670378,0.009668631,-0.13288026,0.05238309,0.057186436,0.3551207,0.054072518,-0.011398663,-0.16744556,0.099422574,0.05899286,0.09828589,0.1327172,-0.17304088,-0.025207795,0.1176084,-0.30437693,0.32465905,0.04749242,0.03194147,-0.011830651,-0.040875837,-0.1782193,0.11330647,-0.033175126,0.19611458,0.026833352,0.02200099,-0.016933564,-0.11724179,-0.13872041,-0.025470657,-0.013782252,0.08503391,0.04114675,0.12409635,-0.050630648,0.058838412,-0.13424002,0.12087299,-0.16993552,0.009918563,0.08438595,0.17045298,0.19590425,-0.10633044,0.11338509,0.063035436,-0.002086785,-0.125097,-0.026820512,0.07028214,-0.13652264,0.17337732,0.019988487,0.02305033,0.0026155966,0.15543504,0.1611339,0.036353327,0.09803596,0.06616169,0.23588932,-0.080036275,0.098379984,-0.056007147,-0.0028325333,-0.21113046,-0.10768469,-0.01839174,-0.07682608,0.15128411,-0.08897448,0.00671859,0.037622076,0.16125485,0.3107471,0.0010585925,0.035138216,0.07818084,0.14336292,0.10521232,0.015754666,-0.038536523,0.018461134,-0.117073804,-0.05299114,-0.014193755,-0.007133463,-0.019676596,0.12678944,0.001956749,-0.065581106,-0.1664441,0.23073147,0.1880257,0.18390876,-0.12173053,0.21346478,-0.06257392,-0.052916646,-0.13960075,-0.112933226,-0.060486704,0.13504419,0.039356556,-0.06491738,-0.19506568,0.17080788,-0.14074448,0.013790784,0.009856936,-0.022819981,0.036781196,0.045637533,-0.094734825,-0.05805344,-0.22547592,-0.01552023,-0.054081105,0.101085305,0.04000474,0.044248283,-0.093796425,0.010625008,-0.01888228,-0.04520723,-0.098944046,-0.037141018,0.07554038,0.02647833,0.22663018,-0.0696342,0.016626744,0.12800628,-0.03014758,-0.14783876,-0.04297626,-0.021838455,0.10402155,0.08663569
Planar Disruption,-0.0007197054,-0.06933426,0.043754786,0.024421148,0.042497788,-0.19572383,0.014112521,-0.16464964,-0.19644397,-0.028301138,0.071599305,0.10435496,-0.22359109,-0.049597666,0.036055423,-0.10522434,0.045014266,0.11790244,0.120033525,-0.02376836,0.43631935,-0.014323426,0.013258296,-0.022892585,-0.00210981,-0.08190155,-0.29764795,-0.0041868016,-0.062185258,-0.14476474,-0.050575156,-0.16184217,-0.076510094,0.013823923,0.012686168,-0.055821728,-0.02808772,-0.10140294,0.13099115,-0.11142611,0.06972087,0.07365196,-0.013614593,0.041965846,0.05754139,0.02529136,0.1788074,0.030963229,-0.048988782,-0.0023335798,0.026035268,-0.15472284,-0.0704236,-0.044945594,-0.020657888,0.1093196,-0.16485581,-0.14529355,-0.14284052,0.09303472,0.007899416,0.04883334,-0.06580956,0.15575157,-0.14913177,-0.02899884,0.13186467,0.18688829,-0.08313184,0.026612563,-0.0704764,0.090282075,0.15377967,0.015415354,0.036154613,-0.16175377,-0.044022456,-0.027747532,0.15903579,0.15413535,-0.09014379,-0.08793159,0.012304426,-0.03161639,-0.048272625,-0.073092386,0.08429218,0.06840282,0.017414141,0.0065047415,-0.0367825,0.03322641,-0.14157706,-0.1308624,0.014855316,0.041978125,0.09673581,-0.05364104,-0.080399096,0.081565715,0.048621267,-0.13141556,0.012409491,-0.12708396,0.053435817,0.04369451,0.0810858,-0.08322377,0.04772838,-0.034815323,-0.11978213,0.018631263,-0.06923215,-0.057628993,-0.089827456,0.03262706,-0.015140855,-0.11304331,-0.030816838,-0.091432996,0.10872693,0.073453456,-0.15916267,-0.02686948,-0.17281115,0.08490273,-0.06655643,-0.105994575,0.008707769,-0.14629534,-0.05135321,-0.029246368,0.04938841,0.08207126,-0.077635705,-0.0052981195,-0.10627006,0.0019377734,0.04534785,0.08712048,0.07125271,0.008080446,-0.050991405,-0.06794473,-0.096933834,-0.045701116,-0.28094313,0.026767973,0.013335097,-0.08924293,-0.020778606,0.19625907,0.096992955,0.04757874,0.045968447,-0.16887127,-0.18671092,0.062330663,-0.06195172,-0.106775805,-0.011328938,0.06367832,0.1376464,0.019848319,-0.10265855,-0.08593547,0.024971878,0.03277093,0.045883797,-0.05136306,0.011335428,-0.016698966,0.046568204,0.015560222,0.08813923,0.11823524,-0.009555985,0.046967063,-0.040258735,-0.062616974,-0.010575743,0.10389319,-0.0051750317,-0.12362865,-0.07346989,-0.13367145,-0.030078055,0.18849984,-0.03587994,0.010819368,0.0772549,0.2882001,-0.10988709,-0.07519361,0.016488647,0.16887556,-0.03803748,0.12280194,-0.010845638,-0.0017021423,0.039966665,-0.022004236,-0.096978664,-0.13128643,0.016362045,0.08969627,0.052808844,-0.01888542,0.11013294,-0.030759081,0.11782015,0.094889805,-0.06483916,0.07934655,-0.16772063,0.01526411,-0.074296884,-0.13457112,0.18297577,0.07734666,-0.050324578,-0.060501322,-0.018110096,0.018995522,-0.012990595,0.047257204,-0.009733013,0.060919154,0.0069805114,-0.1497877,0.09766958,0.013864202,-0.038434874,-0.077473894,0.06949491,0.037540328,0.03255025,0.025661599,-0.026628265,-0.029304568,-0.043303877,-0.070918195,0.069182746,-0.024833111,0.054934923,-0.19723205,0.047176708,-0.12849455,-0.021110736,0.0385694,0.019572485,0.046142057,0.002438098,0.10209829,0.18592869,0.037467018
Lattice-Blade Mantis,-0.12074124,-0.06368683,0.023798296,0.030712537,0.014030401,0.00041942322,0.018343128,-0.22155315,-0.121461235,-0.05801695,-0.017604467,0.015841536,-0.04439029,0.010040709,-0.07770899,0.10134908,0.14113903,0.06531486,-0.13430084,-0.13091633,0.026643254,0.019966729,0.0012628932,-0.0283362,0.2696688,-0.09901506,-0.15260796,0.11318437,0.013514917,-0.12913954,-0.12757483,-0.102972634,0.2433909,0.11391302,0.115361206,-0.056374945,-0.11550145,0.00087479525,-0.015160862,0.057855517,-0.043495838,-0.16375165,0.17681447,0.111840196,-0.056788784,-0.22757272,0.08457573,-0.21732275,-0.038458545,0.09501794,-0.06572076,-0.03845811,-0.051673565,0.11668182,-0.1349106,-0.1639429,-0.04917713,0.055630267,0.001617596,0.07994443,0.099512696,-0.19733554,0.13194083,0.023818735,-0.077371575,0.022287842,-0.07551855,0.035047594,-0.24167578,0.14767754,0.0013109044,-0.15086512,0.01849319,0.009422646,0.123715155,0.013803631,-0.010230268,0.16701344,0.053351834,0.014787258,0.07312388,-0.029509349,0.03179794,-0.17013428,0.13254456,-0.032051116,0.03358241,-0.05126751,-0.07561971,0.043371964,0.094835795,-0.05504144,-0.058978565,-0.06202485,-0.04739735,-0.046732448,0.007288151,0.14093317,-0.105835386,-0.08819168,-0.020733604,-0.002953353,-0.36134467,0.0327066,0.38893834,-0.01033417,0.11278641,0.06046787,-0.0041093435,-0.030841654,-0.119813435,-0.0043934616,0.12817489,-0.12647296,0.010420584,-0.005305565,-0.021657977,-0.17373452,0.07422217,0.063337006,0.2404325,0.22245641,0.09945152,0.040303916,0.11642481,0.030259877,0.0340264,-0.09618399,-0.123473994,-0.05001394,0.07888878,-0.32293186,0.29945785,0.14946735,0.040942818,0.052049045,0.00024066996,-0.22809057,0.014965599,-0.12650087,0.14181392,0.038406134,0.11367004,0.084397815,-0.1299573,-0.1397912,0.13300894,-0.019525189,0.16277693,-0.17109567,0.30216005,0.04154487,0.053984236,-0.09603836,-0.013113431,-0.2746088,0.0010643144,0.09949326,0.2159866,0.10680385,-0.0457078,0.026111828,0.03248488,-0.025229951,-0.11209066,-0.10880732,0.06663262,-0.095679715,0.0015542042,-0.078634344,0.11003359,-0.06026346,0.047198743,0.09575411,-0.042426627,0.016358132,0.018952781,0.21093872,-0.14280075,0.14955181,-0.11450962,-0.07398675,-0.20710307,0.016428294,-0.023056244,-0.037697963,0.2047102,-0.20781079,-0.05368063,-0.10871848,0.21205947,0.51672083,-0.13728261,0.19341053,-0.026921488,-0.012855901,0.05920995,0.05334699,-0.007633886,0.11546697,-0.15210986,-0.02438988,0.007417838,-0.054002196,0.104434885,0.11710091,0.18286207,-0.0012981865,-0.16600749,0.058514375,0.05458139,-0.040512905,-0.15004076,0.06554936,-0.22608458,0.15706109,-0.19842766,0.009721787,0.107280746,0.09304097,-0.16125765,-0.09196102,-0.04923578,0.12720646,-0.24165614,-0.2248974,-0.081412755,-0.04789742,0.03494801,-0.0368441,-0.13162832,-0.06926537,-0.032925956,-0.10049181,0.08635925,0.15987113,-0.020035315,-0.23035638,0.019714432,-0.05867138,-0.045545276,-0.117457956,0.030296989,-0.0337566,-0.11012445,-0.008965879,0.17417727,0.035570364,0.0031889528,0.021706399,-0.037957784,-0.15252641,-0.010406148,0.052639276,0.23775661,0.07381823
Terramorphic Expanse,0.07847187,-0.028288191,-0.0031254652,0.00902252,0.050095912,-0.16064349,0.006276821,-0.034816347,-0.3114101,-0.06909239,0.045599613,0.08594633,-0.117988974,-0.112252966,0.028054044,-0.028700896,0.047377784,0.019979324,0.13151197,-0.04690598,0.21122736,0.0001270618,0.05110168,-0.04018795,0.024222184,0.07135022,0.056597885,-0.0106017105,-0.030242035,-0.10843325,-0.1326879,-0.16051026,-0.11133404,0.091681235,0.094594255,0.019861002,-0.0013118507,-0.094624005,-0.03441968,0.07802749,0.16339609,-0.017456016,0.14320667,0.042758934,-0.04878034,-0.09667905,0.11176697,-0.053079035,0.05600487,-0.09584782,-0.014261669,-0.015302541,-0.10696517,-0.022464946,0.07303901,-0.076425195,0.013304198,0.058170866,-0.079552464,0.10094064,0.121722504,-0.18966384,0.008650287,-0.15515423,-0.12098464,0.022790043,0.07002513,-0.010956965,-0.090001576,0.122066736,0.01852439,-0.045868058,0.012420642,0.033078052,0.155794,0.093103044,0.09575988,0.1622661,0.026380213,0.07809224,-0.08574393,-0.06300758,0.17111856,0.026987702,-0.0032831586,0.06371832,0.056364175,-0.03237161,-0.045971442,0.050237704,0.083186254,0.092604995,0.054111302,0.06539536,-0.053080413,-0.040846772,-0.16444434,-0.027637746,-0.020457007,0.1254236,-0.06386627,-0.08831258,-0.031321906,0.092994966,0.09185923,-0.017430188,0.09663798,-0.017509865,0.067589395,-0.03040703,-0.02670704,-0.004641618,0.0618187,0.011130863,-0.13831495,0.07041794,0.08733975,-0.055403147,0.008515369,0.072963685,0.048436992,0.21063049,-0.029203812,0.06855375,0.028664012,0.03123273,0.05809975,0.06414054,0.012316098,-0.11417591,0.07461963,-0.15261482,0.13005078,0.033412896,-0.10005088,-0.060669158,0.04456838,0.05018459,0.08798541,0.039963048,-0.053822298,-0.053219717,-0.08121321,-0.007638163,-0.13919447,-0.07592496,-0.119619295,-0.050750807,0.018664941,-0.14951342,0.16512617,0.056989245,0.049474247,0.074167415,0.093250975,-0.097053386,-0.1344906,-0.05396497,-0.09109104,0.06998685,-0.014647154,-0.019596811,0.011314456,-0.08659152,-0.07759826,0.01808243,-0.039414715,-0.055514432,0.073716775,-0.008865043,-0.0048241527,0.08190077,0.0019291504,0.070980914,0.044874452,0.005947791,-0.06259983,-0.014488743,-0.15811543,0.07689187,-0.1396349,0.057121024,-0.1383906,-0.041787658,0.023904556,0.007862603,-0.038476065,0.06599847,0.03492319,-0.028357403,0.13779396,0.14669085,-4.7999674e-05,-0.059225418,0.025150696,-0.07368259,-0.040029135,-0.08188371,-0.05452847,0.036340635,-0.10488113,-0.03888584,0.036118623,0.018760849,0.022433143,-0.04329593,-0.013460841,-0.12636006,-0.0230051,-0.0019490129,0.059617538,-0.02713249,-0.078876935,-0.04721907,-0.1364102,0.026276829,-0.19797389,-0.023884084,0.07130421,0.030792303,0.009862385,0.050731342,0.033587348,0.019600099,-0.044082176,0.04286864,0.0076126414,-0.059104074,-0.012525387,-0.060245432,-0.12566212,-0.02946496,0.09670542,-0.042702433,-0.05359426,0.08157688,0.107629605,-0.12820265,-0.005593093,-0.006344537,0.030026942,-0.09992857,0.028880503,0.02884859,0.06746544,-0.121178254,0.0012949957,-0.13795523,0.080468275,0.053743463,0.093424216,0.007114495,-0.022218354,0.12015572,0.1906661,0.03870319
Ruthless Predation,-0.10134878,0.042947408,-0.019990519,0.07576544,0.055736482,-0.027098244,-0.000958831,-0.1715407,-0.061401837,-0.059127875,-0.012572759,0.09507235,-0.07028308,0.010525786,-0.03797606,-0.025909485,0.16610818,-0.002380174,-0.07255634,-0.17520559,0.025661912,-0.058469787,0.040174156,0.043458518,0.2999933,0.02698896,-0.08594158,0.17780867,0.06004543,-0.12578417,-0.050311383,-0.14902483,0.13933483,0.066775836,0.1117645,0.010620769,-0.12836578,-0.054413,0.11379336,0.095734306,-0.06947108,-0.06940359,0.18243623,0.011841785,0.033195548,-0.2785311,0.10073949,-0.19707298,0.035449605,0.05723878,-0.06591563,-0.03181506,-0.10124972,0.06054377,-0.150952,-0.06052775,-0.004000159,0.0007451058,0.047809534,0.1421938,0.10611846,-0.15725678,0.062782556,-0.034319744,-0.09944125,-0.008501213,-0.017172813,0.083935335,-0.13117161,0.13995354,-0.000194815,-0.07348852,0.054126732,-0.04027584,0.0272155,-0.020293094,0.07020092,0.17582291,0.115915745,-0.050339017,-2.5748295e-06,-0.11651738,0.09642852,-0.044780366,0.14016713,-0.0011050889,0.08099062,-0.087039866,-0.048635647,0.023695529,0.12781657,-0.0023897896,-0.08066123,-0.048058845,-0.032425918,-0.10027626,0.012746344,0.0383675,-0.10468571,0.061266113,-0.030225344,0.013705679,-0.2033771,0.06889499,0.28606296,-0.047294714,0.096677415,0.022981076,0.042684495,-0.025156071,-0.0659339,-0.050999165,0.054636393,-0.06931985,0.0016880244,-0.037457936,0.009603281,-0.20200846,0.07454356,0.06229684,0.1368767,0.17003165,0.04412574,0.0023274897,0.03269479,0.07068222,-0.035648994,-0.1344546,-0.038305383,-0.11144852,0.05461149,-0.22190821,0.26619306,0.117648795,-0.10478426,0.004753421,0.040430397,-0.130477,0.093692094,-0.0026210363,0.029367538,0.03820377,0.03663768,0.06613271,-0.11694708,-0.04887286,0.12589055,-0.06425239,0.037991486,-0.11432131,0.28222388,0.10922299,0.091663025,-0.038339116,0.0037310133,-0.28722423,-0.054961327,0.079004966,0.16835372,0.07035047,-0.09586687,0.0491831,0.088615164,-0.05259479,-0.020961018,-0.034189034,0.09529109,-0.084212355,0.0025162592,0.060406014,0.0630364,-0.09550352,0.018449537,0.12027386,-0.082401805,0.064847924,0.010386241,0.09848892,-0.0884343,0.021879477,-0.023065222,-0.012476143,-0.11078968,-0.009051155,0.0069100955,-0.008144354,0.15733957,-0.14080858,-0.07818563,-0.10581869,0.08785621,0.4684147,-0.039727323,0.124400645,-0.09389941,-0.009564556,0.11752109,0.052133936,0.048905075,0.19347991,-0.13126916,-0.07295224,-0.076080516,-0.0077042044,0.06132287,0.09249139,0.076219074,-0.0006254166,-0.10217819,0.027371941,0.036246676,-0.0945419,-0.146911,0.052275345,-0.15823516,0.18237953,-0.11926387,-0.0068609687,0.12071717,0.058859695,-0.18584053,-0.107946664,-0.06723266,0.089542985,-0.25848818,-0.098681845,-0.059891842,-0.12276044,0.1195824,-0.07790948,-0.060813863,-0.15852565,0.041043285,-0.13559863,0.030780464,0.11820936,-0.0114538865,-0.22444937,0.04641818,-0.084594585,-0.03699574,-0.10353519,0.031129073,-0.06018283,-0.042082466,-0.06123944,0.09632656,0.08860701,-0.055013575,0.027335519,-0.030911712,-0.05309246,-0.013835807,0.09260324,0.21521337,0.076455
Duelist of Deep Faith,0.061906796,-0.062560976,0.039181318,0.032159735,-0.03118287,-0.14031288,0.05394719,-0.20775735,-0.17494375,-0.034030516,0.110181116,0.18613411,-0.15685973,-0.07391623,0.05886306,-0.041249134,0.083957046,0.10312738,0.10789327,0.09061159,0.39767346,-0.03340294,-0.07565344,-0.055319913,0.051042534,-0.08991568,-0.37593397,0.077706836,-0.012920823,0.007518168,-0.02498979,-0.09821529,0.06982217,0.10400537,-0.0019981826,0.06640136,0.017880397,-0.14242837,0.22548859,-0.08063749,-0.007652221,0.073567264,0.14900169,0.04143715,-0.049721733,0.02631567,0.1720431,0.10506699,0.061270975,0.023503007,0.11544744,-0.027634881,0.027316405,-0.12761171,-0.0030896023,0.1590714,-0.05904986,-0.08495342,-0.058239643,0.050383452,-0.016480774,0.030869756,-0.095756315,0.12011923,-0.15881309,-0.037844375,0.1139604,0.20559609,-0.20788665,0.02978016,-0.09550724,0.07579873,0.07162252,0.04102438,0.0078027532,-0.15402623,0.021556178,0.0022614421,0.11877516,0.070879996,-0.11302732,0.017720317,-0.11216296,0.003925521,-0.027690759,-0.10383376,0.083890334,0.07689542,0.037111763,0.11723983,0.040811088,0.10061763,-0.22642636,-0.10157597,-0.06605023,-0.07814002,0.10046869,-0.025234533,-0.034163307,0.06880702,0.06677858,-0.10213132,-0.022781605,-0.1138641,0.09311493,0.10259272,0.054096118,-0.09172337,0.13446864,0.016316002,-0.0684381,-0.024402965,0.018472372,-0.07184765,-0.0028126535,-0.0576764,-0.013469708,-0.16941349,0.04484709,-0.06649387,0.11176233,0.10329867,-0.2388188,-0.10505004,-0.21479222,0.07184591,-0.10805054,-0.11838547,-0.06864002,-0.17035027,0.007858851,-0.06897273,0.069761485,0.13144735,-0.03394886,-0.019027296,-0.03308992,0.040392987,0.0022335493,0.06580399,0.04821893,-0.0011335196,-0.12386589,-0.06885527,0.008142923,0.014998059,-0.21168838,0.05983692,0.031451512,-0.12729622,0.019339887,0.29405835,0.14905597,0.034236353,0.11047484,-0.07566278,-0.1881741,0.09359352,-0.1642623,-0.12091027,0.01064122,0.040388484,0.1520228,0.009676464,-0.09086294,-0.0840553,0.049896114,0.0045987675,-0.024132015,-0.18457977,0.14046733,-0.081975,-0.015348735,-0.09436495,0.19966237,0.05822922,-0.04342007,0.031099433,0.034205,-0.09755622,-0.021017807,0.091755494,-0.036309164,-0.09675794,-0.05632401,-0.07859985,0.06257884,0.21101739,-0.030289695,-0.0113320565,0.12128463,0.23555654,-0.119533695,-0.0033099041,0.07095803,0.13494697,0.05779564,0.09611106,0.010596446,0.048820537,0.016834617,0.06743629,-0.15547958,-0.12331877,0.07914073,0.13986309,0.11689905,0.0124443015,0.0684012,-0.056451946,0.07918094,0.067615636,-0.025434611,0.11202883,-0.17618902,0.009245554,-0.10523971,-0.116650194,0.17119718,0.10726102,-0.07772107,-0.088469654,0.06831613,0.033268787,-0.15279125,0.09786564,0.056963693,0.04242518,-0.043626234,-0.15323146,0.031266116,-0.0005960076,0.040012557,-0.13898511,0.08180726,-0.019906985,0.015581963,0.061729454,0.022625996,-0.0892742,-0.0709725,-0.011326158,-0.002876437,-0.021725873,0.068511635,-0.037519082,0.0636206,-0.19409983,-0.005370145,0.09895063,0.034905788,-0.010512345,-0.00686606,0.08338334,0.21754676,0.0056142006
Crawling Chorus,-0.0058918446,-0.0564553,0.11170607,0.01885777,-0.084459655,-0.11909727,0.08326995,-0.16317514,-0.20646125,0.05339785,0.13714759,0.2022869,-0.23327935,-0.05830842,-0.0017620014,-0.04718238,0.11925378,0.14679302,0.05326864,0.10470328,0.3819542,-0.046102103,-0.067370035,-0.0061464547,-0.015869474,-0.118562035,-0.2889236,0.0027682856,-0.04684529,-0.11767625,-0.044594325,-0.10703803,0.07557098,0.040090133,0.026927777,0.037618782,-0.008226352,-0.13312243,0.23240878,-0.08033004,0.1012856,0.1515641,0.13751921,0.0369406,-0.063369595,0.0077668345,0.16471194,0.1535675,0.08351041,0.048015364,0.07897197,-0.03768413,0.006442205,-0.07474036,0.06683782,0.09535837,-0.008021158,-0.008525669,-0.045948446,0.036454514,-0.019215256,-0.040156584,-0.049601045,0.14606027,-0.13098541,0.01885574,0.065041676,0.18066488,-0.19510996,0.045892548,-0.12685023,0.07672214,0.19459574,0.009520674,0.03659586,-0.15509747,0.049420953,-0.023322307,0.16707113,0.051296428,-0.020602454,0.086201005,-0.11832764,-0.005757947,-0.06807997,-0.07842789,0.09338646,0.10551923,-0.0022154888,0.057294153,-0.04875447,0.11588802,-0.13026918,-0.20618796,0.039246753,-0.033272862,0.12821515,0.015282558,-0.035841756,0.0653243,0.018656401,-0.1145031,0.029171854,-0.05404523,0.12673926,0.101852104,0.033850405,-0.12370313,0.116460696,-0.043293606,-0.0539938,0.025381092,-0.029324537,-0.07901391,0.019973936,-0.045836125,0.009941022,-0.17664286,0.054782696,-0.024931978,0.090063214,0.09836867,-0.272478,-0.0309011,-0.19322124,0.06485791,-0.088047594,-0.101737455,-0.05808515,-0.14827025,0.053852413,-0.03310667,0.09705524,0.091101795,-0.045012347,-0.03755032,-0.058220547,0.06222982,-0.009593223,0.015299883,0.105319895,0.042950552,-0.13666461,-0.06684133,0.03257869,-0.013798107,-0.1730747,0.037679795,0.04055221,-0.12858687,0.096791305,0.24632053,0.17468385,0.042452276,0.06995108,-0.12151078,-0.1564661,0.07976933,-0.113916285,-0.16924039,8.414201e-05,0.14558129,0.1316874,-0.069225214,-0.06906936,-0.103063546,0.06940877,0.07926687,-0.091549374,-0.15994084,0.09433405,-0.066666074,0.012737227,-0.04711097,0.17219318,0.06778703,-0.0015386029,0.06814412,0.025474805,-0.09581661,0.007976903,0.09454699,-0.047704834,-0.1043927,-0.0058004423,-0.12985256,0.041847557,0.19085112,0.00077366014,0.020442666,0.09094942,0.21587478,-0.07279016,-0.075281136,0.050546933,0.15045717,0.018665303,0.10644855,-0.033001527,0.06267536,-0.040618867,0.052181687,-0.10813848,-0.15172246,0.10238273,0.15709186,0.060607046,0.020588646,0.04905095,-0.025923252,0.14665596,0.037929475,-0.007133194,0.12959811,-0.20466667,-0.046921078,-0.106300615,-0.0474881,0.21399899,0.07864772,-0.1685311,-0.13829283,-0.024966994,-0.054837257,-0.0800483,0.000240373,0.002736148,0.11114879,0.034801845,-0.16124357,0.042908404,0.038219463,0.051810004,-0.10247937,0.06720586,0.08364878,-0.024533771,0.073624834,0.029888159,-0.10127963,-0.08987065,0.037019145,0.00782129,-0.0707816,0.03607998,-0.06528354,0.04619389,-0.13345288,-0.010701269,0.07210332,0.0560141,-0.04628065,0.011398482,0.14073232,0.18331404,0.10246243
Rustvine Cultivator,-0.016035583,0.10916136,-0.14890572,0.043366283,0.06647256,0.011201944,-0.076290876,-0.1511074,-0.07009935,-0.07536271,0.0014788313,0.01462538,-0.071602486,0.0023992662,-0.07518894,0.07935325,0.19659822,0.051554125,-0.032362923,-0.11625491,0.08155917,0.013681694,-0.0024383077,0.002813363,0.25397027,-0.009930955,-0.13379683,0.08922717,0.047165222,-0.013057167,-0.059537157,-0.17830843,0.15234724,0.13621564,0.18940416,-0.006824826,-0.057522953,0.0068327724,0.115690924,0.0811347,0.03558853,-0.1611445,0.25942147,0.08622003,-0.07646082,-0.18377513,0.023372808,-0.18724693,0.023054393,0.13808931,-0.00770227,-0.0106680915,0.055564705,0.059083864,-0.14856103,-0.10781643,0.0058603133,0.10322698,0.035417728,0.027245667,0.12968151,-0.22234827,0.14418319,-0.026543073,-0.12533094,0.026542583,-0.008734899,0.07123407,-0.23066518,0.1310549,-0.07569557,-0.15375015,0.019319382,0.051952746,0.10788811,0.028573917,-0.043639638,0.17588331,0.08880569,0.042169686,0.02672641,-0.091717936,0.1226376,-0.14129008,0.13075133,-0.045979355,-0.03156215,-0.026327372,-0.13897654,0.07325324,0.086277194,0.036079284,-0.037401937,-0.006713005,-0.06991315,-0.07381262,-0.0071059326,0.16987664,-0.07868298,-0.0009154455,-0.0031888764,0.054204084,-0.26420563,0.11602988,0.35683382,0.022244105,0.15885724,0.06682006,0.13004851,-0.037865393,-0.094458215,0.01026944,0.078854136,-0.12048987,-0.007738522,-0.02039635,-0.039440207,-0.24845874,0.1679517,-0.0032699106,0.18949044,0.20645064,0.1306042,0.009615683,0.06563231,0.04935778,0.107419215,-0.095903665,-0.15818101,-0.13915104,0.097728856,-0.3482544,0.35667095,0.05842955,-0.0008568588,0.0016202552,0.022866737,-0.13898154,0.099151075,-0.09598312,0.1293495,-0.016149158,0.11257565,0.19728267,-0.11412938,-0.035226107,0.24158679,-0.06799951,0.11998992,-0.16461588,0.30324852,0.009170628,0.1194692,-0.14394729,-0.0014030767,-0.29192865,0.035930667,0.14933005,0.1765021,0.15001951,-0.047351368,-0.0071146386,-0.02196034,0.025268724,0.0005340051,-0.058138702,0.024328351,-0.16509214,-0.015952919,-0.024957094,0.04642082,-0.018545609,0.08903629,0.17854947,0.0015559836,-0.04580698,0.070400536,0.17263705,-0.14269647,0.09095586,-0.056987695,-0.08406612,-0.14698191,0.060709633,0.032880377,-0.020323714,0.22348826,-0.2124529,-0.0040692207,-0.11358141,0.18799934,0.50252026,-0.01058681,0.15931326,-0.105694436,-0.04900651,0.066769265,0.026070803,0.010073566,0.15611047,-0.12018911,-0.05037396,-0.01740568,-0.013829494,0.07010866,0.066424884,0.11103878,-0.038086545,-0.17178616,-0.005939278,0.091497965,-0.107101314,-0.14988093,0.1075683,-0.17302045,0.20486668,-0.11328012,-0.057461597,0.07833069,0.103836976,-0.23714148,-0.039860927,-0.10470128,0.114600025,-0.20531726,-0.079820566,-0.036366444,-0.1430617,0.15847802,0.0062153023,-0.0720908,-0.06971516,0.081482686,-0.082427405,0.07349381,0.17537943,-0.0043459935,-0.22890092,0.021894466,-0.1261277,0.008265285,-0.12412974,0.051944334,-0.06904888,-0.06985492,-0.042365562,0.07473843,0.056297604,0.024522215,0.033770356,-0.016268669,-0.166349,0.012029604,0.106133536,0.21856569,0.09527306
Predation Steward,-0.05136934,-0.056756604,-0.110571794,0.072788216,0.044867266,0.00033542764,0.03347082,-0.17241609,-0.079211205,-0.11355219,-0.011332775,-0.041448828,-0.034601264,-0.0021289042,-0.027628422,0.1657246,0.18029241,0.08505197,-0.08860704,-0.11064214,0.035248842,-0.0019349561,-0.025906954,-0.01262878,0.2234202,0.016814386,-0.06934392,0.13918626,0.027497247,0.061790604,-0.13042386,-0.13580784,0.19684169,0.110715576,0.07598295,0.02597168,-0.117846675,-0.055732083,0.082633354,0.043193024,-0.018585056,-0.15247431,0.18793327,0.09577,-0.07463543,-0.17764685,0.041593626,-0.18811318,-0.012306144,0.16088344,-0.07740935,0.02241938,-0.053269207,0.07993288,-0.0808462,-0.06819407,-0.02511474,0.099647604,-0.006212826,0.0038074388,0.12500475,-0.19633438,0.101782516,-0.00013355767,-0.14177907,0.011461056,-0.06783136,0.084510334,-0.21855149,0.16293296,-0.046828095,-0.12314083,0.005451631,0.009623741,0.08790395,0.042134736,0.053008158,0.13134894,0.026683949,-0.072169945,0.008186126,-0.028658962,0.03170018,-0.1284066,0.14129652,-0.12112727,0.041875478,-0.056887105,-0.07926278,0.07427965,0.16648893,-0.018078946,-0.062449023,0.0074030245,-0.05678881,-0.15743612,-0.05722601,0.16490705,-0.07983506,0.007454573,0.03690684,0.04715388,-0.3249409,0.06985734,0.306143,-0.013049906,0.081802,0.058118477,0.004283467,-0.037897907,-0.117419206,-0.009000358,0.07450203,-0.08522869,0.064949736,-0.06134345,0.024091769,-0.22971924,0.15106758,0.0010281273,0.20940673,0.17555124,0.09032792,-0.051312774,0.103869535,0.03706606,0.04727932,0.0048256675,-0.19903217,-0.13418506,0.12786274,-0.29816467,0.26634464,0.13086568,-0.07547611,0.047014493,0.02694068,-0.23239787,0.060926046,-0.08521924,0.09953523,0.0056316983,0.07816364,0.08447771,-0.0624852,-0.025505822,0.15362573,-0.01939991,0.08695263,-0.12103546,0.33894774,0.038027253,0.031361274,-0.16693825,-0.027954554,-0.29636008,0.0053654416,0.058678582,0.17631601,0.12953055,-0.016943943,0.05146607,0.012495868,-0.05443198,-0.054804526,-0.117895745,0.024405014,-0.1067408,0.014267912,-0.039769728,0.09076152,-0.054251604,0.06564562,0.15663269,-0.09908806,-0.052897133,0.038309675,0.19833124,-0.118072264,0.036224287,-0.07226883,-0.07504401,-0.19625808,0.025543503,-0.024513265,-0.059700523,0.23154597,-0.25742146,-0.033874378,-0.13311309,0.18462124,0.54757863,-0.018690238,0.19856393,-0.076711394,-0.04298701,0.15241486,-0.014166112,-0.03376605,0.07489169,-0.1513129,-0.08439508,0.0027791695,-0.09588329,-0.038754072,0.121615924,0.13248698,-0.062293224,-0.20347802,0.07481537,0.11892872,0.011696563,-0.15634546,0.11035246,-0.22038193,0.20727904,-0.17996255,-0.089335,0.11090627,0.16988638,-0.19645366,-0.04791344,-0.055864748,0.1476225,-0.28636044,-0.12318029,-0.025972812,-0.07779456,0.059723813,-0.01259421,-0.10699392,-0.058764666,0.009734623,-0.14468053,0.18555088,0.11133026,0.018606702,-0.19708963,0.09037634,-0.17054453,-0.026871236,-0.0464741,0.0649744,-0.08997899,-0.02442295,-0.0049557844,0.13030463,-0.021398338,-0.06625928,0.08521109,-0.031703554,-0.091112256,-0.053862542,0.15377338,0.24663837,0.029704258
Mandible Justiciar,0.13688363,-0.13968317,0.099318504,0.10828533,0.12489811,-0.30732018,0.094956435,-0.25761303,-0.28124416,0.02972605,0.08046959,0.1305319,-0.28730685,-0.18899767,0.09786067,-0.103566214,0.035832096,0.19776967,0.25146353,0.060626272,0.49495137,0.038111426,-0.1571489,0.011447092,-0.10305808,-0.13536377,-0.358964,-0.10389052,-0.15941304,-0.19269244,-0.18469365,-0.1603401,-0.07084457,0.078789406,-0.014564781,0.054256633,0.022920365,-0.17084168,0.13028209,-0.13839032,0.03596921,0.13304362,-0.022272993,0.07973163,0.017182268,0.02772797,0.08767519,0.051482633,0.049574543,0.025893176,0.14694391,-0.23606837,0.015342764,-0.060890656,0.03666548,0.007778161,-0.14789036,-0.26066878,-0.22767581,0.0014569869,0.10418601,0.12445873,-0.0953968,0.109683834,-0.19526249,-0.029277418,0.02266296,0.20013247,-0.108458064,-0.05089232,-0.045010492,0.11664395,0.2018751,-0.03139654,-0.06219233,-0.14996964,-0.19501467,-0.1828376,0.13792399,0.20036219,-0.1306033,0.02211615,-0.034507085,-0.07616586,-0.07713355,-0.11425409,0.16361037,4.754139e-05,0.16835873,0.033671107,-0.17703071,-0.05812492,-0.072160505,-0.14698385,0.045671694,0.08359873,0.07155467,-0.05340417,-0.106800124,0.1266317,0.07859982,-0.10960636,-0.042956777,-0.11251973,0.11289872,0.10807861,0.15586837,-0.043451905,0.110291734,-0.18159744,-0.041280996,-0.036436334,-0.08004339,-0.0598037,-0.100363456,0.021126542,-0.035953574,-0.07602436,0.051079255,-0.07030265,0.056300048,0.06686701,-0.24602515,-0.053044233,-0.16192013,0.059380572,-0.12503609,-0.050411653,-0.090954416,-0.18404411,-0.030290894,-0.18935142,0.06161456,0.16437027,0.039808918,-0.06207963,-0.16561033,-0.042045932,-0.0115516875,-0.029382598,-0.02099853,7.188304e-05,-0.15920873,-0.13692541,-0.025712822,-0.036539506,-0.3043675,-0.062419593,-0.044494722,0.009454364,0.0384538,0.10630281,0.11232677,0.09575352,0.06259109,-0.021416964,-0.0617357,-0.04681917,-0.0035594015,-0.16011293,0.0019129866,0.11809333,0.030925615,0.05079051,-0.13317028,-0.032378703,0.067289725,0.120117985,0.06641368,-0.012122768,-0.043863513,-0.023683254,0.094688885,-0.024239171,0.15114808,0.1270278,-0.043424223,0.088830575,0.033390082,-0.041932005,0.007593289,0.08080804,-0.070607625,-0.11416758,-0.0009460567,-0.13035613,-0.047387753,0.19924581,-0.06767675,0.00038434434,0.19126691,0.29047623,-0.17815188,-0.08205555,-0.0041279527,0.30016848,0.008001281,0.017734932,-0.014923712,-0.107659906,0.0046478105,-0.05348914,0.005960459,-0.098813474,0.023841564,0.14110275,-0.0027312478,-0.11582728,0.07141473,0.06285668,0.090181604,0.09684145,-0.051056318,0.053097416,-0.113242134,-0.076910056,-0.069539316,-0.07636045,0.16855325,0.09505645,0.012358034,0.06358388,-0.0018543219,0.044562045,0.076849155,0.024953602,-0.026097909,0.09830062,-0.024968265,-0.15778092,0.109643035,0.11575374,-0.08167502,-0.10596003,0.11254167,-0.021149551,0.011260766,0.023134306,-0.14870472,-0.13295548,-0.0022332703,-0.2185555,0.009297292,-0.012405612,0.13497163,-0.07373176,0.08721266,-0.074180916,0.023331027,0.07266638,-0.06832839,0.06721258,0.010022289,0.04313124,0.100961834,0.08267411
Dune Mover,0.020343032,0.03471868,0.0017893275,0.009501457,0.115641735,-0.099081405,0.038073044,-0.059392333,-0.3268094,-0.047226228,0.16081007,0.07505249,-0.14967135,-0.12658247,-0.057884462,-0.100951284,0.14258777,0.03493407,0.117279515,-0.10481533,0.20620187,0.02157994,0.05404692,-0.021567492,0.08045776,0.06817361,-0.052020412,-0.027888179,-0.00046114542,-0.11920872,-0.06755837,-0.18145579,-0.06750097,0.105645485,0.10464505,0.043317705,-0.025068482,-0.13789058,0.027406065,0.08262443,0.077252015,0.009490648,0.1508733,0.017583225,0.008646166,-0.021920238,0.10225241,-0.008886969,0.046162058,0.018718904,0.032447245,-0.09944208,-0.06929801,-0.064595506,0.0956768,-0.036055423,-0.059988283,0.0144999875,-0.078720786,0.062020395,-0.026923712,-0.095810175,-0.15127009,-0.079129905,-0.11256501,0.015995685,0.13496101,0.021407567,-0.085409194,0.009299485,-0.038865305,-0.076555334,0.13120243,0.0019048891,0.120309055,0.03610974,0.1324421,0.09490264,0.04412905,0.028108953,-0.1177879,0.0065841046,0.10264657,0.074430235,-0.006795121,-0.03028379,0.07550252,0.016919263,-0.06874044,0.08328011,0.060660396,0.057126157,0.012183508,0.08371582,-0.024271777,-0.024021098,-0.036092155,-0.048525393,-0.091031484,0.1388348,0.040589023,-0.082433574,-0.03709451,0.0068744128,0.14712445,0.04100777,0.10914071,-0.06373772,0.058622453,-0.12245083,-0.043465365,-0.003429945,0.031035865,-0.04625405,-0.07787344,0.034125723,0.00591837,-0.09103589,0.03428903,0.114609726,0.0034928923,0.16197464,-0.017706946,0.07427491,0.009383369,-0.000500245,-0.01520819,0.08846475,0.017846258,-0.18168458,0.06339518,-0.1423492,0.016291896,0.06546795,-0.13110453,-0.029525934,0.022157341,0.041076183,0.03721751,0.09343139,-0.05762004,0.07733873,-0.10767409,-0.030523665,-0.06920594,0.018937811,-0.119529314,-0.021089187,0.0014574628,-0.07865646,0.13102913,0.06474356,0.07775507,0.13974302,-0.004930005,-0.103809185,-0.17011663,-0.030121507,-0.12077049,0.03772808,0.0015592071,0.014243863,0.035534646,-0.079778336,-0.018139146,-0.010686999,0.024253398,-0.04511181,0.0405617,-0.011223324,0.045974735,0.075806946,-0.05548532,0.0441386,-0.002733859,0.027829625,-0.041797157,-0.05556879,-0.1155324,-0.019095775,-0.06246146,0.06705121,-0.051396392,-0.012701307,0.039501995,-0.045052685,0.024617793,0.068833984,0.012852162,-0.10877847,0.098902546,0.1635133,-0.008067004,-0.059777208,0.013985854,-0.005110814,-0.009795507,-0.034704167,-0.0799143,0.06408411,-0.09291032,-0.005101146,-0.009515379,-0.060155302,0.0048357695,0.0021986137,-0.03919141,-0.04191324,-0.05395139,-0.084527336,0.062058188,-0.056027964,-0.050166182,-0.013718401,-0.11693083,-0.013214712,-0.1521089,-0.12348007,0.14723442,0.05251894,-0.033966854,0.0065023173,0.020600183,0.04898708,-0.043453936,0.06543604,-0.031974357,0.03133647,0.035082705,-0.07894134,0.05544453,-0.076899216,0.11420501,-0.06130891,-0.026716506,0.03519554,0.012592404,-0.049169097,0.028793328,-0.080043495,0.033144135,-0.087670594,0.04402851,0.04102041,0.03657557,-0.036410555,0.092373006,-0.13056485,0.085371375,-0.00820945,0.055103693,-0.036783613,-0.012601981,0.12423793,0.105012834,0.0757693
Incisor Glider,-0.015779613,-0.058097314,0.12224718,0.10370335,-0.015472375,-0.13272794,0.12043468,-0.20990829,-0.2913049,0.05398637,0.1402437,0.09855138,-0.21821396,-0.08257485,-0.0065835672,-0.057552367,0.12773721,0.18967028,0.15891388,0.04217202,0.44366634,0.02922067,-0.051576737,-0.07474937,0.026389709,-0.13459735,-0.34157124,-0.05406747,-0.11967822,-0.22944237,-0.18017058,-0.103580795,-0.08263408,-0.0011914707,0.0038723971,0.032078613,0.036229417,-0.14832756,0.14660472,-0.07999609,-0.013437827,0.14684354,0.06471722,0.048791934,0.053614654,0.09756513,0.16338104,0.049786538,0.07506251,0.08944488,0.08617717,-0.12991488,-0.06536871,-0.097479045,0.11227782,0.11431545,-0.09614236,-0.10484245,-0.12742378,0.050691456,0.010540672,0.0016300764,-0.17203155,0.10722437,-0.15820476,0.016414506,0.10470008,0.22610122,-0.123928726,-6.455269e-05,-0.07366563,0.02675492,0.19829005,-0.021996696,-0.010413342,-0.1601714,0.06121202,-0.07090244,0.120002545,0.11879543,-0.08877828,0.040273488,-0.10129149,-0.0071602054,-0.042243533,-0.112999946,0.12178038,0.108321644,0.045046046,0.08225602,-0.050069645,0.022284416,-0.2036613,-0.2187321,0.028675454,0.026345797,0.08965567,-0.07430824,-0.059304714,0.06523392,0.1306817,-0.13118182,-0.06641548,-0.058931552,0.038810622,0.07527716,0.010761691,-0.12966341,-0.03960364,-0.11891033,-0.03849387,0.061761107,-0.07953158,-0.1230596,0.050384726,0.0017587222,-0.005757529,-0.1444388,-0.02772396,-0.011327933,0.107021,0.0983988,-0.24004546,-0.048968818,-0.116316974,0.08835754,-0.075791165,-0.03956873,0.007770823,-0.13007665,0.00722533,-0.079798356,0.0052688196,0.10247235,-0.06779262,-0.04159874,-0.04867479,0.02582839,-0.0019073308,0.05302119,0.055221345,0.051680483,-0.14836171,-0.054631565,-0.004390232,0.024513077,-0.18179576,0.087322205,-0.046325296,-0.045731936,0.06653415,0.20953779,0.13283283,0.047369868,0.040614583,-0.14737989,-0.17152616,0.07716005,-0.073758416,-0.18187517,-0.028931683,0.13736084,0.07052972,-0.0934452,-0.09196832,-0.07263497,0.07504543,0.09356412,-0.026106121,-0.06439161,0.029197417,0.026065623,-0.06976769,-0.0637939,0.08707556,0.09036296,-0.020827143,0.018737532,0.06498376,-0.08085008,0.009828316,0.13133745,-0.08336265,-0.080525674,-0.06821297,-0.1384014,0.025484156,0.18108417,-0.05029419,0.000605964,0.060231805,0.24621238,-0.09192845,-0.11688543,-0.023390291,0.17327493,0.0540676,0.05476379,-0.054408967,0.065914825,0.03996014,-0.020319784,-0.12495393,-0.05952589,0.10772666,0.12250576,0.0029903718,0.051623132,0.055333395,0.014209432,0.15385532,0.030902527,-0.013764566,0.106403686,-0.12302295,-0.057108685,-0.08895562,-0.057867456,0.19389127,0.09368746,-0.10766258,-0.09364964,0.031130036,-0.06649072,-0.05218119,-0.0014471882,0.03690833,0.09194433,0.07072797,-0.1509488,0.16618037,0.02757578,-0.052466955,-0.08943966,0.071807005,0.03424042,0.0013855512,0.027482914,-0.045344915,-0.19822325,-0.056304466,0.0032080447,0.08151737,-0.024356361,0.009616737,-0.09654083,0.058581743,-0.018469466,0.03272923,0.021134999,0.06571151,0.011462055,0.026966868,0.12890849,0.08004021,0.080853894
Basilica Shepherd,0.061307054,-0.13613722,0.16106647,0.08469238,0.077797025,-0.1949931,0.119621895,-0.18673019,-0.2378743,0.08709718,0.06874494,0.103624366,-0.24793506,-0.08802621,0.031609226,-0.096677214,0.09718189,0.1749233,0.1345774,0.04363806,0.4989864,-0.02706954,-0.0774906,-0.03776627,-0.032623358,-0.088195756,-0.31744,-0.0558676,-0.09147102,-0.15272132,-0.11515401,-0.1267188,-0.011594765,0.0049612066,0.05898784,0.009201126,-0.031665068,-0.1892666,0.16147669,-0.10431669,0.016716676,0.108721256,0.0874014,-0.038070578,0.016139714,-0.03108667,0.19292948,0.07369849,0.04251738,-0.034314554,0.017409012,-0.10833054,-0.05995107,-0.0653732,0.06707182,0.09282979,-0.076527245,-0.0391253,-0.12506725,0.011441614,0.04185039,0.025259355,-0.12719381,0.1289211,-0.160389,-0.02610437,0.06453869,0.18335159,-0.09619262,-0.011850121,-0.06986121,0.11019015,0.18368517,-0.019866392,0.013217465,-0.14506783,-0.06556284,-0.10875533,0.10764686,0.09024309,-0.11996634,0.044874765,-0.09008057,9.517846e-05,-0.09491002,-0.08947877,0.114227764,0.07373275,0.108947776,0.050799645,-0.043778405,0.10326293,-0.1315381,-0.14610083,0.058420233,-0.011272968,0.09474648,-0.04631096,-0.0093937,-0.008650431,0.05578561,-0.12148918,-0.019391805,-0.11198721,0.059445053,0.046464227,0.06355669,-0.15269892,0.017410152,-0.034297276,-0.09043277,-0.01053735,-0.08104079,-0.09478451,-0.047764014,-0.05424222,0.01793703,-0.12748426,0.011813395,-0.022281226,0.11179638,0.0804661,-0.18876962,-0.122592844,-0.17601195,0.09148893,-0.064408116,-0.09460809,0.018030474,-0.101769626,0.032306805,-0.06390254,0.111724764,0.1319275,-0.051700436,-0.029020434,-0.07674885,0.03913982,0.041571006,0.0126346005,-0.012650778,0.06661959,-0.10590877,-0.11529356,-0.075898945,-0.0027017759,-0.1684159,0.06528385,-0.036184385,-0.09261547,0.046428695,0.19807418,0.09978728,0.05775849,0.07554366,-0.119643055,-0.15537049,0.08298597,-0.059291784,-0.0726348,0.0051016808,0.14031038,0.10649813,0.008126833,-0.11785061,-0.032429185,0.093789086,0.07685082,-0.003650989,-0.020736855,0.06674758,-0.04301437,0.03625588,-0.024166096,0.19376594,0.16367131,-0.016576305,0.066273555,0.07115531,-0.10917489,0.015791249,0.09398163,-0.048253484,-0.12398933,-0.09795768,-0.1450661,0.034316212,0.19638428,-0.01106352,0.020642707,0.08487015,0.2610628,-0.101314016,-0.086032115,0.0062724925,0.24147977,0.070730396,0.094118,0.026180124,0.03335697,-0.029555133,-0.013683932,-0.048226446,-0.06838946,0.03213908,0.14320143,0.06793422,-0.033857066,0.10090795,-0.014716768,0.08449631,0.006853041,0.0011342226,0.064189516,-0.08065137,-0.0060356143,-0.11265227,0.006895429,0.17784673,0.029738098,-0.09706779,-0.057119764,-0.059475955,-0.0482689,-0.055066228,-0.0032692666,0.07134005,0.03952516,-0.0027090881,-0.17568146,0.07819005,-0.0052304254,-0.03060992,-0.09323912,0.0766311,0.005217588,0.032683354,0.081615105,-0.045933265,-0.09257152,-0.004814898,-0.023039,-0.027138261,0.0038304594,-0.025172783,-0.1070097,0.01523112,-0.11559442,-0.026309583,0.08795488,0.06799226,0.06291852,-0.043674983,0.06601316,0.059186846,0.061262608
Flensing Raptor,0.014034136,-0.05023733,0.19193345,0.055109955,-0.078080565,-0.117453456,0.09047898,-0.20735408,-0.16935828,-0.040824994,0.13629977,0.25317544,-0.14891864,-0.01759389,0.052587043,-0.076211,0.08295927,0.12504242,0.13432002,0.090692334,0.42816916,-0.03486008,-0.07242448,-0.045469765,0.00020713508,-0.14650463,-0.33612508,0.013137471,-0.05676124,-0.13806337,0.009786674,-0.1184012,0.095846094,0.05217513,0.008116422,0.019096632,-0.028973704,-0.15624692,0.21459,-0.03654162,0.093985096,0.15679637,0.17963034,0.05702487,-0.07147871,-0.0034868524,0.15828475,0.110946715,0.1131502,-0.012011726,0.09988666,0.012080057,0.014515702,-0.12941653,0.042159975,0.083046176,0.0103838835,0.0370612,0.036393825,0.081643574,-0.006310561,-0.004838014,-0.06293895,0.124144115,-0.13064782,-0.03421447,0.081184074,0.10943875,-0.21972224,0.05027379,-0.116283044,0.054476768,0.17665567,0.029465398,0.040392164,-0.12276333,0.098937504,-0.0008294554,0.10899059,0.04584837,0.020951804,0.1252107,-0.13806647,0.013648752,0.0027603805,-0.07571623,0.1382694,0.06001616,0.005656694,0.11362411,-0.0077736974,0.08854311,-0.21024753,-0.22289054,0.027836334,-0.11538406,0.17630962,0.05189931,-0.038473707,0.055084497,0.049807608,-0.085577585,-0.07433186,-0.086168915,0.058493033,0.03339876,-0.0036735132,-0.107720345,0.02847631,0.039987836,-0.060943104,0.08631132,-0.009441568,-0.08370956,0.020704528,0.0016676272,0.030911535,-0.21451688,-0.080408044,-0.026611663,0.15066211,0.11517793,-0.25106183,-0.09675625,-0.22363724,0.06456553,-0.11927799,-0.13028637,-0.033182483,-0.15921561,0.030079907,-0.045228653,0.12563102,0.11850643,-0.06557363,-0.029014513,-0.08689322,0.058647968,0.019885944,0.08817321,0.10872757,0.04283921,-0.14267233,-0.0405349,0.023354191,0.06017289,-0.17581822,0.06881418,0.027623191,-0.13055834,0.118119955,0.26770115,0.24607646,-0.08122999,0.09392098,-0.06266306,-0.14238863,0.20163815,-0.12514798,-0.11974295,0.09744313,0.11909498,0.10635345,-0.042184062,-0.045270722,-0.15922882,0.07175562,0.0034062483,-0.028947223,-0.17994395,0.11501532,-0.052564036,-0.009947798,-0.08866524,0.19769977,0.06648097,-0.090197176,0.03547821,0.013217882,-0.09642433,0.024554648,0.038326968,-0.08087303,-0.10336914,-0.045523327,-0.07960561,0.042932678,0.21667029,-0.043494236,0.04947325,0.021197181,0.25097662,-0.10934358,0.014829175,0.04556466,0.13337664,0.028486991,0.11962302,0.029269429,0.06196667,-0.04098569,0.021137755,-0.07901959,-0.13424058,0.11972784,0.09764981,0.08313616,0.011119592,0.017195819,-0.07320925,0.03511843,0.04709708,0.011823621,0.12183533,-0.22493769,-0.032401405,-0.10201242,-0.034158725,0.1975745,0.01935303,-0.1823811,-0.11861958,0.053524777,-0.058114614,-0.04073923,0.02863506,0.08534186,0.0312778,-0.015564546,-0.19669887,-0.0028253798,0.0034302892,0.05328663,-0.046415426,0.04678419,0.114852555,-0.02453742,0.11238292,0.03930618,-0.08260173,-0.10249331,0.003179636,0.035017982,-0.028470218,0.0006269683,-0.0276888,0.01592127,-0.08637903,-0.017701335,0.010342842,0.06158888,-0.04834935,0.04118527,0.09256122,0.217531,0.070641644
Indoctrination Attendant,-0.040264335,-0.06064164,0.031199018,-0.04324809,-0.017866164,-0.08339857,0.025002703,-0.15136717,-0.19967474,0.0034148896,0.102294646,0.10690739,-0.24385566,-0.06767668,0.014283628,-0.0053675836,0.054483797,0.13836037,0.058540914,0.094999045,0.43251196,0.013606628,-0.021497084,-0.029584784,-0.011087299,-0.09199156,-0.36697248,-0.023182519,-0.076871485,-0.16785072,-0.09097436,-0.13550502,-0.022359101,0.025952876,-0.009905858,0.006693363,0.016972592,-0.121853895,0.13195734,-0.054169457,0.050787594,0.11719281,0.024260085,-0.012243677,0.027502889,-0.036604214,0.22511205,0.09145786,0.06563518,-0.019626541,0.09638882,-0.12761037,0.015790254,-0.021467866,0.041237704,0.064408585,-0.11667362,-0.065881625,-0.07158872,0.044674076,0.030279795,0.012705568,-0.13885851,0.12295487,-0.1252913,-0.0068606148,0.08227473,0.1761487,-0.15763217,-0.030651122,-0.03921237,0.028506896,0.2167043,0.004387848,0.10680046,-0.111356385,0.009210126,-0.09780398,0.12533644,0.07748102,-0.035394,0.056571014,-0.13628806,-0.020903958,-0.078141496,-0.08763828,0.123700336,0.079934165,0.022599952,0.041877843,-0.061092313,-0.019981533,-0.120268345,-0.22853072,0.06031565,-0.03587499,0.16910875,-0.04628447,-0.052874453,0.03587557,0.04472703,-0.11205047,-0.009847458,-0.10737773,0.08265012,0.1177224,0.016770458,-0.12795876,0.080294915,-0.049031653,-0.12064757,0.02482965,-0.036661096,-0.0629482,-0.00018415901,0.02374913,-0.016498456,-0.13534276,0.014600285,-0.057174683,0.10806775,0.08288376,-0.16532294,-0.008254563,-0.13838637,0.06764468,-0.12392182,-0.096418254,0.026878288,-0.12913416,0.008473348,-0.068566695,0.072478466,0.12811607,-0.040757462,-0.031786546,-0.096180275,0.05211617,0.059429184,0.0071728807,0.061421696,0.024677292,-0.107253924,-0.04658224,-0.074289955,-0.02954471,-0.23839474,0.021351485,0.043577626,-0.13920148,0.059021793,0.1837573,0.12322259,0.04291411,0.017675845,-0.13653399,-0.18374068,0.10631846,-0.07285194,-0.16144261,-0.019941768,0.06978124,0.09614806,-0.056089688,-0.107162535,-0.088160604,0.1065773,0.014914272,-0.020393372,-0.13107628,0.0444769,-0.008255514,0.028294554,-0.04381239,0.18348627,0.11314116,0.030625273,0.079245634,0.0029944533,-0.02816292,0.006640824,0.06523739,-0.10100549,-0.1582107,-0.033825386,-0.122355774,0.05065635,0.11643129,-0.015869975,-0.034751922,0.09388644,0.2899072,-0.16169333,-0.027470961,0.1120395,0.16693056,0.02013424,0.012773331,0.02224066,0.02905054,-0.02265823,-0.046264924,-0.08778336,-0.083985984,0.050572067,0.08642897,0.053577404,0.015574917,0.06218382,-0.010770965,0.1446587,0.077873394,-0.02574698,0.118652925,-0.16665374,0.017618144,-0.12314161,0.0035673133,0.16465515,0.07617197,-0.13573544,-0.12175236,0.016470931,-0.030626068,-0.114155285,-0.03364225,-0.018713506,0.0891288,0.024575027,-0.16116318,0.05826665,0.06066851,0.023524312,-0.09105328,0.08428901,0.0075760516,0.08805055,0.065956235,-0.057325307,-0.13822289,-0.067167744,-0.0035136652,0.008138519,-0.0653814,0.055514365,-0.09969469,0.041999795,-0.083537824,-0.021254642,0.043642525,0.05405537,0.029495262,-0.03458089,0.08237143,0.14439282,0.065996416
Anoint with Affliction,0.020325968,0.12174052,-0.046559777,-0.045984406,0.0006127568,-0.105108105,0.08765478,0.0054844315,-0.0033543413,-0.0635092,0.043862008,0.031193506,-0.05849148,0.050426405,-0.07820194,-0.060071215,0.034751076,0.06349264,0.08294626,-0.18137726,0.22279912,-0.076260455,0.11128447,0.003783854,-0.01975078,0.037716925,-0.06704296,0.060179975,0.05703912,0.03456198,0.11150825,-0.039271846,0.061388463,-0.080506645,0.08659432,-0.038256615,-0.04259157,-0.1052371,0.04369272,-0.057339273,0.21419187,0.08528519,0.040307082,0.0027972506,-0.19231069,-0.12857868,0.04607986,-0.010458256,0.11933488,-0.13487805,0.008606322,0.007814168,-0.06800147,-0.039818972,0.21695788,-0.0051750783,-0.09577677,0.086905636,-0.037753765,0.05299906,0.041174747,-0.041692056,-0.021032043,-0.027066028,-0.078199446,0.003951376,-0.06515668,-0.058183502,0.0110399565,0.003932789,-0.03357075,0.13034572,0.1604761,-0.048536323,0.15594152,0.062922925,0.13045289,0.05535184,0.0033621432,-0.14010003,0.072216235,0.096622996,0.071779236,-0.046963368,-0.0034366956,-0.096443966,-0.054206714,0.059300996,-0.012526353,0.025677294,-0.10463456,0.14210774,0.01925249,-0.015597425,-0.04956169,-0.025341267,-0.061708514,0.021249428,-0.08438448,0.15020937,0.008954385,0.04122719,0.030714115,0.07161422,0.039497275,-0.009347864,-0.06537868,0.000530104,0.14812125,-0.054230303,-0.057425052,-0.0556683,-0.0730357,0.0154251335,-0.12958525,0.20431106,0.08833044,-0.12829307,-0.01937524,0.11005652,0.11745995,0.21109822,0.058091465,-0.04880892,-0.08119851,0.023827313,-0.061113115,-0.009590921,-0.0062704063,-0.09371241,0.083597206,-0.038864274,0.17354736,0.07235071,0.06252803,-0.010428947,0.08861073,0.0556074,-0.041586526,0.13298225,-0.04171322,0.06859203,-0.17852122,-0.092138916,-0.07597353,0.10993689,-0.0944758,-0.059799857,0.018047845,-0.103280425,0.09287988,0.0773083,0.12955375,0.021258019,0.087752715,0.051302955,-0.18976088,0.023411637,-0.04213414,0.06788409,0.052537605,0.037704322,0.026458476,-0.040692102,0.03382765,-0.013997835,0.022768507,-0.15545967,-0.07797146,-0.041336786,0.08027369,-0.09277692,0.021392273,-0.03199377,0.035812452,0.09651021,-0.07883661,0.022943286,-0.13574287,0.044955958,-0.093616486,-0.013780887,-0.13877873,-0.099023394,-0.06605096,-0.03292925,0.11113111,0.030510612,0.05679636,-0.0250169,0.045884736,0.270142,-0.107527606,0.044177067,-0.0023096297,-0.055109445,-0.002312568,0.02197146,-0.053487025,0.17325972,0.05242061,0.063641526,0.043746542,-0.089178085,-0.08086174,0.10528369,0.1416873,-0.06218246,-0.044340566,-0.051299367,-0.04236051,-0.22661465,0.07265286,0.09260791,-0.019183718,-0.046645124,-0.049142446,-0.07719944,0.03818996,-0.08208661,-0.16491352,-0.014479337,-0.11283751,0.12457896,0.13081414,0.120827295,0.10610757,-0.1238991,-0.01124814,-0.046783205,-0.101266,-0.11526382,0.04142577,-0.02498986,0.003984872,0.094123684,0.011349551,0.031236561,-0.08190196,0.04161982,-0.024032531,-0.25533652,0.05100656,0.09481787,0.024691382,-0.005210722,0.033723153,-0.04023724,0.15096278,-0.012190497,0.0005893563,-0.00019262417,-0.016285816,0.0077109295,0.15714376,-0.01033544
Blazing Crescendo,-0.064810686,-0.19152974,0.16478686,0.11347283,0.02243198,-0.10012232,0.029651232,-0.17891286,-0.13598756,-0.16435684,0.054336034,0.08171944,-0.19825713,0.024914753,0.15604916,0.0099934405,0.15142462,-0.001771701,0.11352315,-0.24214081,0.23140639,-0.075027965,-0.08227385,-0.07031737,0.16796516,0.023443433,-0.21740018,0.11653934,0.068122245,-0.06507582,-0.14024776,-0.1672251,0.06968665,-0.06871309,0.18799366,-0.003757918,-0.19141273,0.023498558,0.10951312,0.0007025234,-0.1565896,-0.016602693,0.14685965,0.12542313,0.01978467,-0.0162059,0.055036318,0.007144985,0.024399538,0.11770168,0.0059464844,-0.13792014,-0.04695721,0.026538465,-0.1185562,-0.14050005,0.012922007,0.12930708,-0.15935874,0.0883477,-0.050670404,-0.035821967,0.19170856,-0.013446504,-0.12412589,0.0881711,0.019198196,0.13962008,-0.14027736,0.055702955,-0.06760084,-0.07138768,0.082684524,-0.0042707655,0.16239396,-0.25609595,-0.028339775,0.089771464,0.019311551,0.02229091,-0.14321594,-0.007949594,0.121199384,-0.13594003,0.005841205,0.112553224,0.24018729,-0.1142525,-0.05891213,0.066799074,0.024055101,0.0003953522,-0.108395785,0.018014943,-0.15515462,0.017483804,-0.17854206,0.086200304,-0.15867102,0.051308863,-0.107566595,-0.011606373,-0.21967277,0.054529272,0.50666714,-0.09086672,0.29505596,0.009537895,0.11576832,0.0004904269,-0.16023883,-0.043648846,-0.008960256,-0.10009071,-0.005808391,-0.110952824,-0.032026224,-0.18438749,0.005007883,-0.008280752,0.23002626,0.050155323,0.06295181,-0.15698072,0.12660843,0.005833133,-0.07499156,0.2085902,-0.11373394,-0.16155751,0.116713874,-0.3010287,0.24015567,0.14108557,0.04977951,0.0017474906,-0.20348653,-0.19207454,0.0020150905,-0.10037651,0.18820898,0.0052710823,-0.0028453472,-9.630556e-05,-0.09635266,-0.21214554,-0.12020942,-0.1326701,0.076140605,0.03528097,0.12998949,-0.060801346,0.042840138,-0.11941659,0.07281693,-0.08347654,-0.098672636,0.12304817,0.049873326,0.07683755,-0.0924632,0.08649111,0.035817046,0.04599961,-0.17080577,0.04375892,0.15005375,-0.14126256,0.1356396,-0.027584806,0.02623227,-0.107494555,0.10274682,0.14387305,0.10172478,0.17209461,0.06431347,0.23139934,-0.08045047,0.07537386,-0.053533353,-0.015585244,-0.16570717,-0.10280113,0.029322071,-0.10098839,0.1103455,-0.038674418,-0.01847113,0.091042966,0.08190094,0.21984209,-0.110426486,0.03498401,0.04842932,0.06955531,-0.042570516,-0.012162097,-0.0303166,0.07750545,-0.059720412,-0.033072803,0.0026147773,-0.09769388,-0.044535797,0.18144277,0.052204896,-0.00456446,-0.0954462,0.21269336,0.15371919,0.18690418,-0.05935435,0.20789687,-0.11805616,-0.08495717,-0.14499614,-0.06931531,-0.024955628,0.119140014,-0.017461069,-0.15153852,-0.009310716,0.14193553,-0.05268774,0.06680178,-0.10119207,0.11469658,0.09902414,-0.046204165,-0.08465336,-0.018375274,-0.16304053,-0.036112364,-0.090460174,0.16062851,-0.020896662,0.1221979,0.021520542,0.014677075,-0.07329681,-0.1396961,-0.036997244,-0.08425528,0.1241429,0.013183652,0.21550833,-0.16504794,0.014325844,0.012630067,-0.13389735,-0.08813978,-0.08456572,-0.13760169,0.15900266,0.14780846
Oil-Gorger Troll,-0.03371929,-0.023845946,0.010630527,0.1194295,0.028318468,-0.0235372,-0.012805113,-0.14269014,-0.059356242,-0.007992911,-0.09634197,-0.049250778,-0.060801506,0.030417575,-0.080511525,0.17189391,0.18129358,0.0636475,-0.13626403,-0.14134844,0.11467784,-0.012893266,-0.06200367,-0.04411454,0.26035413,-0.07322052,-0.04677789,0.09011263,-0.10590345,0.041527085,-0.13769658,-0.0891757,0.18693416,0.14531194,0.12375701,-0.061992634,-0.087549396,0.02968697,-0.00010293012,0.018890735,-0.011979965,-0.15107088,0.10936072,0.06805628,-0.03798199,-0.17384128,0.0042537972,-0.21593487,-0.003992342,0.058802687,-0.08628502,0.042085625,-0.031394925,0.07872133,-0.22521137,-0.15116908,0.045385923,0.028744522,0.052937176,-0.00051511277,0.17081879,-0.18670508,0.2636973,0.027788606,-0.08690661,-0.008031434,-0.10750363,0.0968076,-0.21295795,0.1316396,-0.03130259,0.0061336434,0.021203935,0.08423508,0.08596328,-0.051245224,-0.0112997955,0.09381696,0.062220108,0.009757163,0.025298929,-0.13977414,0.06526575,-0.14310631,0.13624802,0.015023007,0.019085122,-0.1094345,-0.07506239,0.01563274,0.08033148,-0.105228424,-0.00994935,0.03492641,-0.050772447,-0.137098,-0.09102576,0.114698894,-0.1422814,0.011352039,-0.09690674,-0.057161957,-0.30577916,0.057122666,0.42328927,-0.019117782,0.089839615,0.08205084,-0.019566493,-0.0016490044,-0.14501889,-0.033157893,0.068257794,-0.14629307,0.075064205,0.04403587,0.01989984,-0.13584203,0.16483442,0.071139865,0.33487207,0.21936606,0.049096096,0.010652986,0.15802185,0.16484183,0.12664345,-0.058357302,-0.22324668,-0.12666723,0.052154914,-0.308885,0.48787856,0.11249595,0.014418253,0.033456054,0.052163918,-0.32665175,0.08987337,-0.1250984,0.07554576,0.024272937,0.11565527,0.09277153,-0.11629813,-0.16350465,0.18306392,-0.060888056,0.1404605,-0.12549265,0.27210963,-0.09819697,0.00068900565,-0.06580552,0.022720322,-0.35989434,0.009731167,-0.022072133,0.25749433,0.20029883,-0.08378257,0.076483466,-0.03397237,0.046132304,-0.12098464,0.027311834,0.016628854,-0.17802003,0.07524975,0.05177532,0.09946695,-0.10948872,0.13132963,0.26229122,-0.05817016,0.034797695,0.08171641,0.19609593,-0.1780353,0.15606944,-0.06499067,-0.107318796,-0.18939951,0.10299734,-0.029731726,0.005110546,0.21401377,-0.34854093,-0.013921255,-0.12184903,0.21283785,0.5577443,-0.13827589,0.24785382,0.023717847,-0.037821863,0.08587621,0.034321945,0.017373214,0.11399904,-0.20297924,0.043862626,0.016136076,0.071864694,0.026657736,0.1524321,0.118425205,-0.096024014,-0.2161466,0.07110934,0.044135556,-0.109676816,-0.1191329,0.08976398,-0.12657069,0.2607631,-0.23300113,-0.12429525,0.093337595,-0.017964328,-0.18576704,0.0045429897,-0.20645016,0.23177207,-0.2814925,-0.21279337,-0.020284534,-0.113981485,0.050209817,-0.036414903,-0.059707075,-0.10564178,-0.003347739,-0.13997234,0.04293548,0.08620302,0.025870617,-0.15766697,-0.0073673655,-0.043918762,0.02007629,-0.13232726,-0.03351066,-0.0052903458,-0.09285738,-0.024865685,0.24899217,0.07728745,-0.03403936,0.03728604,0.06549065,-0.16786839,-0.013668096,0.090768024,0.21713282,0.0381662
The Autonomous Furnace,-0.08172625,-0.15301774,0.073318616,0.10465384,-0.012410807,-0.11255608,-0.006894209,-0.18204704,-0.13685594,-0.14518073,0.010494804,0.026990827,-0.17665568,-0.030217364,0.1428819,0.06623186,0.10105458,-0.13216846,0.14533791,-0.1627631,0.23442762,-0.062234465,-0.07557046,-0.06758014,0.098091654,0.060673904,-0.11636139,0.07086268,-0.0063584982,-0.055092882,-0.09190079,-0.12152687,0.017405137,0.09833552,0.058083784,0.1433194,-0.10734576,0.1169304,0.13194983,0.028783202,-0.1603566,-0.13057365,0.1340344,0.17645904,-0.021531306,-0.02015168,0.03288411,-0.06293612,-0.019761503,0.15719125,-0.085674204,-0.07782244,-0.09968242,0.073015876,-0.040892884,-0.14607958,-0.040952984,0.08165901,-0.20183527,-0.055269353,-0.028178636,-0.04829431,0.14427133,-0.095378295,-0.08391426,0.119605795,-0.03203622,0.06199245,-0.1160805,0.11158507,-0.0781061,-0.05210906,0.032481648,-0.07457908,0.15831463,-0.19914335,-0.046781342,0.036289822,0.046544835,0.027770102,-0.11261353,-0.031848576,0.17128299,-0.06454139,0.06341136,0.101021826,0.13023672,-0.09891522,-0.018720353,0.029867183,0.06840823,-0.010600797,-0.027871853,0.031323254,-0.16543022,0.020039901,-0.21230747,0.14469883,-0.127954,0.07640129,-0.10847296,-0.038140293,-0.16344915,0.09548892,0.3164124,-0.08346851,0.24575962,0.038355373,0.061447613,-0.004228649,-0.06408751,-0.0347234,0.009115075,-0.13421284,-0.08594139,-0.08230206,0.030061703,-0.2155958,0.0025789505,0.031179817,0.2762989,0.07908157,0.08882555,-0.1955196,0.08922451,0.029344501,0.018432261,0.2566208,-0.18559642,-0.0889161,0.118039206,-0.30351037,0.2675062,0.09442609,0.086104676,-0.030897396,-0.16286367,-0.20881534,-0.061186716,-0.008128326,0.13904965,-0.04540135,-0.019121956,-0.03772059,-0.07099873,-0.088734664,-0.16498066,0.03606516,0.13645214,-0.10520857,0.13403727,0.0056375857,0.03234946,-0.08344292,0.08056662,-0.10522529,-0.12548065,0.005207321,0.052307278,0.10324968,-0.11827936,0.041989878,0.0731951,0.05897456,-0.18838753,0.10879298,0.090288684,-0.17509972,0.22967969,-0.01871818,-0.07338166,0.08143402,0.11962411,0.151299,0.040290654,0.075019695,0.04418847,0.13943776,-0.11256528,0.13600692,-0.05039752,0.023001835,-0.23069432,-0.05789594,0.030291263,-0.10861233,0.102646634,-0.10568812,-0.091986716,0.04475655,0.09042938,0.278308,0.005712665,0.07144735,0.07372858,0.052554004,0.03609298,-0.016481273,-0.057291955,-0.03273949,-0.04026408,-0.04626142,0.013396106,-0.0007572331,0.0017465599,0.076237574,0.026360441,-0.01815393,-0.099322684,0.18453626,0.1332874,0.04005495,-0.012031631,0.123064525,-0.07358987,-0.062226277,-0.12379114,-0.019807914,-0.02795016,0.106734075,0.0073663336,-0.09301782,-0.0006629835,0.16828096,-0.09948555,0.07730829,0.008374818,0.033727374,0.0423242,0.050543744,-0.09892648,-0.03940488,-0.1580001,-0.010243879,-0.09916915,0.018192735,-0.051321942,-0.002156226,-0.09899082,0.04799271,-0.051617246,-0.0916679,0.02787842,0.006985881,0.315013,0.041482702,0.13342161,-0.15973346,-0.013067084,0.101881474,-0.033926226,-0.14893979,-0.037482955,-0.001178968,0.20653166,0.09900467
Free from Flesh,-0.06338105,-0.13931848,0.11011296,0.13096987,0.018704182,-0.05353591,0.1117341,-0.15134196,-0.14052944,-0.06808899,0.032421622,-0.06933443,-0.09605901,0.062732585,0.12825699,0.13231318,0.18644312,0.026014667,0.06022968,-0.28400534,0.17315753,-0.013797537,-0.06601695,-0.08701947,0.24102181,0.007305421,-0.15997024,0.070568435,-0.0076819146,-0.05930778,-0.21749277,-0.09180934,0.07441021,-0.045588914,0.10158385,0.016971366,-0.11369973,0.011589369,0.057634234,-0.022000879,-0.08941886,-0.07890803,0.17692482,0.08953647,-0.066234894,-0.011788451,0.0029502346,0.02047216,0.048649695,0.08738004,-0.07734875,-0.10822941,-0.0033898319,0.16478361,-0.13172492,-0.21552111,0.051841855,0.10616572,-0.13216309,0.08531549,0.027859244,-0.09846027,0.20847008,0.010152433,-0.07189557,0.14548156,-0.006727139,0.11553507,-0.15380402,0.12552093,-0.01983507,-0.013520838,0.11397369,-0.01747266,0.17319678,-0.20690523,0.034100417,0.091328874,0.08721357,0.07584329,-0.096129194,-0.005419044,0.17527635,-0.14120202,0.07065926,0.17190823,0.21675159,-0.053786937,-0.11751874,7.783219e-06,0.04631412,-0.004559391,-0.038178243,-0.022247193,-0.118332446,0.046124335,-0.20527515,0.13045107,-0.1364381,0.03058965,-0.12476624,-0.05096587,-0.26078692,0.13309544,0.5070955,-0.12763858,0.30296308,0.092665724,0.086818896,0.02622959,-0.093152516,0.035377387,0.0051304195,-0.15373856,0.024977555,-0.12732208,0.07251791,-0.20375036,-0.038280606,0.082761735,0.3162507,0.06768191,0.08481444,-0.16269198,0.18736263,0.002226539,-0.03458975,0.23438057,-0.09015592,-0.100620925,0.13653037,-0.32226864,0.2960821,0.12423435,0.07562797,-0.021075025,-0.1291294,-0.2457476,0.074713625,-0.045918018,0.20752431,0.09063556,0.047255635,0.034672517,-0.14896928,-0.20251024,-0.009016651,-0.042651873,0.085220374,0.017202271,0.12524673,-0.113300204,0.005737284,-0.11895309,0.03478908,-0.19589502,0.017616034,0.09398332,0.21086247,0.15477148,-0.11289936,0.12777713,0.048270684,0.011266773,-0.07826829,-0.0055111516,0.11013548,-0.17475092,0.14800067,-0.04676525,0.036015447,-0.13209118,0.16509072,0.15283956,-0.0096558845,0.13242769,0.03722622,0.2786641,-0.091881014,0.13565128,-0.04370147,-0.018288651,-0.299726,-0.0717316,0.011915852,-0.07394309,0.09520542,-0.056085266,-0.07872846,0.11528856,0.18248653,0.33898848,-0.092850454,0.043728173,0.013436101,0.18283872,0.057537783,-0.0055291103,-0.101929106,0.16638592,-0.092547536,-0.02400934,-0.02656069,-0.02850385,-0.0023671626,0.1066715,0.08202412,0.014698319,-0.2098524,0.24123773,0.21182771,0.13213028,-0.013474933,0.26545912,-0.110607326,-0.037924066,-0.16099793,-0.08138659,-0.002917061,0.07729023,0.022249144,-0.12563796,-0.14265348,0.2242592,-0.0662462,-0.003124916,-0.071299985,0.023752313,0.037438296,0.008918025,-0.087109275,0.00024462253,-0.2067655,-0.0129632875,-0.113371655,0.15835,-0.0003750913,0.032344803,-0.1278866,-0.036221094,-0.038058423,-0.07053432,-0.040712856,-0.03710082,0.16825041,0.0036255363,0.23093453,-0.097138844,0.0038262606,0.026735755,-0.033929806,-0.17483768,-0.010359126,-0.089915246,0.21626419,0.14466305
Charge of the Mites,0.040456317,0.022909189,0.048113335,0.0017131794,-0.07638924,-0.101992145,0.027381813,-0.15656039,-0.22160354,0.008604552,0.09437538,0.12170741,-0.29067916,-0.026940813,-0.01818767,-0.07232081,0.14600822,0.16701351,0.1498284,0.016514782,0.41699615,-0.058026284,0.0040050345,-0.08019016,0.029812848,-0.08938585,-0.32143772,-0.08321428,-0.074255824,-0.15844871,-0.13171402,-0.1653977,-0.1203284,0.021999642,0.018849352,-0.0190723,0.02651457,-0.2085742,0.13475959,-0.117223114,0.0345095,0.078770064,0.060336575,-0.024018588,-0.009458961,0.024279885,0.11067936,0.07615227,0.09302837,0.0046448363,0.02429555,-0.08597055,-0.10025167,-0.060793445,0.075971104,0.12627114,-0.13521087,-0.097599044,-0.08156606,0.048257183,0.02728352,0.0012195859,-0.14518987,0.12509422,-0.15308554,0.07278082,0.070538096,0.18354584,-0.09861573,-0.025540395,-0.06873106,0.044664517,0.1576916,0.012857726,0.018671991,-0.20340458,0.010347356,-0.09305342,0.14739966,0.09701854,-0.058545206,0.018144973,-0.07706355,-0.0064853323,-0.11235945,-0.038192768,0.070790306,0.054821365,0.025568247,0.07995307,-0.01889009,0.010036038,-0.20287517,-0.209157,0.07703786,-0.008204394,0.109667584,-0.077932395,-0.0077055735,0.047791254,0.11606387,-0.1250474,0.04746231,-0.041979484,0.04776435,0.10528674,-0.048501838,-0.16708297,-0.042932432,-0.06092869,-0.08665757,0.050867163,-0.11945601,-0.0829078,0.04525099,-0.036359195,-0.015609475,-0.07961817,-0.02733142,-0.0394184,0.080182426,0.07068101,-0.21614558,-0.035994638,-0.15101741,0.1554581,-0.038688306,-0.09363055,0.012748728,-0.10375583,-0.04054657,-0.019406708,0.0591816,0.15375282,-0.10674739,-0.03102034,-0.04822552,0.011782706,0.069579065,-0.009663277,0.045639336,0.04771282,-0.08740145,0.016788676,-0.04535654,-0.010970847,-0.11281919,0.026580947,-0.023508275,-0.09245216,0.07486987,0.1689104,0.116865434,0.08201789,0.046972025,-0.17997248,-0.1393363,0.08825401,-0.06556321,-0.18441732,-0.044650007,0.13012433,0.08349196,-0.1027735,-0.08823275,-0.053608004,0.16521788,0.11533621,-0.05452993,-0.035986938,0.00071792887,0.017389726,-0.043257803,-0.003661069,0.10087241,0.12188623,-0.018796388,-0.02442388,0.025889214,-0.07704072,-0.005599457,0.22032821,-0.06867515,-0.1512961,-0.071662344,-0.14819413,-0.0054882662,0.22826752,0.01445255,0.03051964,0.099241786,0.24732985,-0.10881948,-0.057596423,-0.0214482,0.1748788,-0.045342073,0.11754569,-0.035110056,0.045831915,0.010608988,-0.0015691674,-0.07457382,-0.06495353,0.05838774,0.1143668,0.015306457,-0.020289762,0.058005113,0.018501459,0.1989035,0.0648536,0.008396726,0.13224392,-0.17102237,-0.028391689,-0.12411945,-0.06930948,0.19457233,0.093812026,-0.12978974,-0.051199086,-0.06442359,-0.06341075,-0.05818724,0.02644641,0.02027629,0.038363706,0.051915005,-0.1329872,0.14054887,0.023540573,-0.06479768,-0.14600515,0.029302558,0.055970553,0.012004569,0.017082227,-0.072804175,-0.15838993,-0.07527925,0.08214028,0.049338024,0.035865325,0.10140384,-0.1291233,0.0132843945,-0.039587773,-0.027645124,0.030948054,0.061808787,-0.035375215,0.026548749,0.10640052,0.10581985,0.1391059
